2938 50
00Ea0e5amtX8E2cJY0RvP9jGTuv2 -0.0484351495286041 0.07385118974712629 0.010040318921274306 0.06723808478622362 0.023497316077444624 -0.04529113391067755 -0.0958680858361979 -0.07637718836962591 0.09258409708214536 -0.00463880346369822 -0.12852123599956478 -0.1296386512279886 -0.07042270125935833 0.03714320870325647 0.023657158847256467 -0.1300897239000727 0.05501852752862767 -0.013876738584135165 -0.13423505643526032 0.0034610680845874584 0.06957388299101125 -0.02994670018861498 -0.13655914054988075 0.01218694180894884 -0.10504270272811647 -0.02074143275570447 0.10555488651391069 -0.07746365330064749 0.0016978795219992678 4.72387642006882e-05 0.24281337020646682 0.09054146179923449 -0.185683025535266 0.1769497742442823 0.13445749680686528 0.03323978584357163 0.09238898653535153 -0.04675946568536698 -0.03234211495972425 0.019099629408336913 -0.04764517353359083 0.03551520371314503 -0.06335256676774974 -0.031503311863062405 -0.07651524698633826 0.04819706748622941 0.03580691253642989 0.026158875130255034 0.03680180159258008 -0.04787682943998117
02mGIZGHf1ULo4FCL0avJ4jvbq82 -0.07813651963727258 0.0807566587502917 0.039808715121536255 0.06708992169485661 -0.02364494584377132 -0.031330123415515616 -0.12718802552395528 -0.07959812588723582 0.1285676817947267 0.010049875803324098 -0.12960931375867282 -0.12405184205826329 -0.07703567848052782 0.0683536752657826 0.036681051791560795 -0.14121289757941943 0.056959081149267926 -0.012618843397569706 -0.1307648147691534 -0.02944988584040647 0.06942839531392445 -0.034339705700780744 -0.11524772106893627 0.020691620621700203 -0.10176963767905685 -0.05836357879496572 0.1263352294962003 -0.09775184266899747 0.005950577448299665 0.01463668680384905 0.26673781203235847 0.1060221666443776 -0.22440555609925275 0.19704845196231655 0.13614004264270974 0.02881371885107972 0.10814907775012915 -0.07683900740342911 -0.021377252503153234 0.016091514628654824 -0.06854281171168716 0.03923392297656727 -0.09142235635829442 -0.03775141293620621 -0.08149758286275893 0.04544362148000418 0.05499014201799988 0.0012330310199379036 0.05053657112417897 -0.04287315537108998
06yhAq7hMRcVgEsRPJC9r3sOILP2 0.005490509911482382 0.01848714890007044 0.02183164937054945 0.031207250132753356 -0.01967746634732593 -0.002941064193257541 -0.059772024282119494 -0.03744390048478647 0.04911492108116767 -0.009414198797177673 -0.031802054920809786 -0.05267590453377059 -0.026364310744030083 0.0026674373288426804 -0.010532456128120957 -0.03404859210319487 0.002774894527389715 -0.03029803777407138 -0.021438810721160977 -0.018051733164184694 0.04147620074313629 -0.013543712493032056 -0.046041992832737244 0.0044101110233944075 -0.04818517599605781 -0.008540438858377738 0.0951474780567491 -0.024603090088804652 -0.030009442733428773 0.019841644003479427 0.09347024061657194 0.011783960066969638 -0.05373505493656454 0.05107300196763225 0.04193450770790752 0.007296096219837363 0.008725096233230617 -0.03450304166487695 0.0034225471239021565 0.00901234653065229 -0.006664935423470658 0.01314772461476078 -0.019483449134974868 -0.0317889339697497 -0.028401353088930492 0.019684187569255468 0.02385183017353478 0.00610527453124564 0.00639909603652824 -0.029448417922156758
079kvKDA8BZiySXLstBcUqpXT2T2 -0.21870319365689508 0.25564846455251433 -0.04043342650922645 0.05091287745376882 0.06533759849623356 -0.053263861174600455 -0.30258757104303097 -0.4132806501710608 0.4227322434648112 0.04415729966116351 -0.3692895392569337 -0.164267758129227 -0.24207671741737777 0.15060788816272466 0.24256977895145893 -0.35728517408954963 0.2756067018311261 -0.0059303316611386174 -0.0972039355432063 -0.12964805126820125 0.10518950066405881 0.048894811624404955 -0.2301152592300965 0.20867989997805408 -0.13080535593814818 -0.07853163280055173 -0.017274508883488894 -0.3573092939706763 0.07150483632145636 0.011092400608536003 0.825319167486014 0.3081535405331727 -0.6838769340870632 0.4605188434539287 0.4647282296981165 0.14030693958335116 0.3081006139610619 -0.4148267792465193 -0.0961336707358813 0.2840125270333531 -0.25609871116096894 0.15249939920163613 -0.18591631474887818 0.14622468188179866 -0.22607763045298274 0.19087603774468306 -0.05372073159339293 0.027676673777561875 0.13979125950645088 -0.12844979558454753
"
 -0.0072058873336501164 0.0005908118564656537 0.0011985958199959216 0.004729403686102222 0.013347527717798494 -0.03811711640758192 -0.007818000186990692 -0.009271972693289386 -0.01506342014991275 -0.019112915879497802 -0.007478738385071516 -0.015272140172007878 -0.017811115066494566 0.008618530683948087 -0.0026731470425675496 0.002674713959907672 -0.007067361293167662 -0.017245932899251453 0.006480433380720741 0.006935902854559689 0.008042501769127772 -0.006130685704831466 0.000851324388338517 0.010798929346275335 -0.0033073532124070844 0.0009666333683058994 -0.019016552777166542 0.0037532574641497736 -0.004532955707936256 -0.004328537396296352 0.004279415192244029 0.006069284853161546 -0.01540406592223411 0.006110017537469977 0.009796354287255251 -0.0031178323927128367 -0.010467670863911798 -0.004398608152281397 0.006188307800213565 0.0034259289671648018 -0.008352860194177808 0.006898316878818006 0.010002825964689946 0.006050647590936927 0.0006266603605645685 0.0050502422210796085 -0.00497691836263448 -0.0033921538270324982 -0.005897057619094393 0.003915999513093163
He could take my perspective into account when making decisions. My perspective should affect his decisions as they affect me too. It’s my life too. Everything from how I fill a soap dispenser to how I cook to what I buy is judged scrutinized and deemed unfit in lieu of his perspective. 
 0.008871629403077386 0.009464922966311752 0.013710864650154052 0.0014651091741029543 -0.009280951844510561 -0.011991283368554163 0.005306453747221857 0.0028072786417373398 0.006645762855765521 0.007469055951946682 0.004330496110837664 -0.001168803112866436 -0.00192323184644381 -0.018115111908645662 -0.010243138769355257 0.005400235173767008 0.006279079738682159 -0.004068761789202175 0.00416154411443605 -0.007805218186582346 0.020186276795560967 0.0017040215612747856 -0.00659867674535221 0.004447318306523268 -0.004477539199555306 0.005210262112549819 0.020029189027439262 -0.008692356399884185 0.003532152771514534 -0.007295262717990377 0.0004523087692969845 -0.005683815284147935 -0.008699397636249587 -0.0028421136588603784 -0.0007795096605385242 -0.007815346837857326 0.003298701095920764 -0.007218284497547728 0.0050453928533372265 -0.0003791941742317295 0.00035050327602059955 -0.015462437544307877 0.002468945547688979 0.012106601215893638 -0.002499809980202967 -0.01752915433365361 0.012997033140748267 0.00161943687650538 0.007311701326326934 0.002277601619453052
He devalues me. "
 0.008595884137174164 0.0021260181660571332 0.0012303320012523084 -0.006816575324794166 -0.0007414987067843086 0.002529327718503247 0.008688612189069186 -0.027494570492334513 0.005093077509537203 0.009468917151402191 0.015837772231810807 -0.007228415977416662 -0.006328666352837118 -0.00566390475912482 -0.013977593858065246 -0.005350037748214672 -0.004717870414710342 -0.0021106261287625523 0.0035328012696090256 -0.010551045035900883 0.008560034086411279 -0.018680903452761778 -0.004678123594560839 -0.008904195564019834 0.008559628143513912 -0.004633574443596736 0.005698177283222017 -0.0012992950922043121 0.006964646736403927 0.007954306225925455 -0.01224707682226292 0.003273489387207213 0.004125141282929021 -0.0056759915985403 -0.00807802541195949 -0.009960507186829837 -0.005042651023394088 0.006072560954763328 6.466633836718194e-05 -0.0013715823411415548 -0.003985742294836607 -0.005530228769977418 -0.002838140785173725 0.01679422889257942 -0.009569581050858223 -0.0010718080196717124 -0.0010292629475992755 0.008984774498602301 0.001918294700041205 0.006574068283517366
Writing him. He would throw it away. "
 -0.006365235044173491 -0.0052767615094817455 0.013440610293245168 0.0016063744425628885 0.005536571391631638 -0.006462021367505259 -0.011896360413741813 -0.0010675378278308591 -0.008742793344155418 0.003400877642933904 -0.0077613577277026 0.011445574448230768 -0.0004786823940636494 0.0041248739103099405 -0.012363690936451606 0.01303523064850099 0.007536355025000275 0.004345188811274159 -0.005326804176456982 -0.011475794198395103 -0.005792091839096958 -0.001743720229381358 -0.012755093294268492 -0.0023509545496873388 -0.024922910836456435 -0.004692168122772796 -0.0038510871806390627 0.005956561013851358 0.007597137251460111 -0.005490309847565746 -0.0030958556281917037 -0.0122611773310125 -0.0137695986979429 -0.010048092256797755 0.008405986332202397 0.027746478681561118 0.011949920884962568 0.011837418664065392 -0.0024027412800104735 -0.00550488543652684 0.009609299894597946 0.014251180912315104 0.012267476354872773 0.006044705237365785 -0.007371266701702763 0.005450548810087767 0.02678971925116302 0.00922397225289096 0.0007352655868645264 0.004747315851173348
This makes me feel invalid as a person. My husband would never take my advice. He only takes his own advice. He doesn’t really need me for anything other then occasional sex. And to clean the house. I’m in love with him and he just wanted a pretty wife. He didn’t want ME. "
 0.00015696372114428918 -0.010954121534245078 0.005064954507836998 -4.3855242800382914e-05 -0.015993258071389654 0.018789126304044265 0.0040897467422998015 0.0006612945042819922 0.0031678078925783605 0.005076816997570224 0.01778793256122294 0.00533437715567886 -0.004556529918342356 -1.431481928899676e-05 0.0012683581264895214 -0.0021725337395690357 0.004989432378152132 -0.00550932226805409 0.01139298982622885 0.004313287218776188 0.0022452867634233037 0.009508230884398217 -0.0007682705567434735 0.01500674144049025 -0.005839981353933476 -0.011769080876056706 0.011291202702636505 -0.005590910825057348 -0.005304127417205168 -0.004461763198087635 -0.008534648679470291 0.014097477610811931 0.006248165021016361 0.0014572485410931251 -0.008365815852765732 0.026061131796850538 -0.015220253601847627 -0.00799798175376897 -0.0036645361610971633 0.0053776377629841665 0.011515163677707654 -0.003001269359973102 0.00013164249044486347 0.0030335070654912803 -0.002967955806019866 -0.000979119405889651 0.012484585673533706 -0.014875966646700923 0.0020384389816402015 0.010253992586396548
I do not get this in return at all"
 -0.022426849541854057 0.0039033839574406253 -0.006802464530371798 -0.015861629923955674 0.014416502147880364 0.0035050793447914935 -0.0012057663875907768 0.005978934328625482 0.013179638216089638 -0.00930780838269342 -0.007791518664278532 0.02548154415047181 0.007301753721851097 -0.00574071380303411 0.000981004500130893 0.011740151780680712 0.01273836173200888 0.0056308974068841056 -0.0009194647694143952 0.00026257645716969656 -0.0014782707079601487 0.0006638387908494929 0.010915814565933282 0.010167785228351085 0.0018837417771460636 -0.003330617939209605 -0.02157025718692152 -0.007880146218306884 -0.00850471270206841 0.004419203591538474 0.004111418006068239 -0.012087870131278933 -0.01639951190123869 -0.005395692305884883 -0.003034038388034641 -0.012546868873075658 0.0020986226875043235 0.0018343979379434473 -0.008050429595161886 -0.00201224300712792 0.007514083067189448 -0.02440026686797382 0.011964717590239968 -0.0024274499436985676 0.020643050624304663 0.003867734473247905 -0.004910108245974069 -0.009698720698033033 0.00023858472063375242 0.0006958135568753314
I don’t think I have ever been really loved by anyone "
 0.011500357247198181 -0.001471418559769568 0.010948889449578742 -0.00669361532811414 -0.0061418865748607354 0.00039422585037985405 0.00235874549462404 -0.012733022454738757 0.008595547289166273 0.006880348599064118 0.005571852574473599 0.012080330076080819 -0.001980241645176336 0.0005630762424541056 0.007594996305127084 -0.004882342361455945 -0.004038583464586434 -0.016817457852735543 0.0030923071071638974 0.002807018988545849 -0.014755078782143459 7.949584816709223e-05 -0.006738234721491815 -0.000673600705354723 0.0019290309522452245 -0.0182493261910664 -0.01046389076581966 0.008570401302060807 -0.003405121534110063 0.020453371611177676 0.0132651658435973 -0.0024679722067660953 -0.006735539451409711 0.0013905163487905694 -0.005405059882323967 -0.0200166916802427 -0.012492167337383248 0.009256409683264221 -0.002330505477702087 0.0012361756480315936 -0.0024193910353253857 -0.01743418205528453 0.001297592096842588 0.010385934968635836 0.01260604104998579 0.008246517685144422 -0.002143914273683422 -0.001830951708304954 -0.008276670229231085 -0.01296733940045669
Set healthy boundaries. 
 0.009919460223426779 -0.00522368148617418 0.009734476451122886 0.02021001511054334 -0.01388747666367011 -0.008099742649167909 -0.0005160978320395936 0.006262008352593857 -0.021152329565164753 -0.009491743821443452 0.0027468990726825823 -0.013475759942489268 -0.009525585154414387 -0.007023470163661143 -0.0022162709158645554 0.011253898929683497 -0.0015211443412012841 0.0004658123524087095 -0.01801166667818485 0.002322937155115521 -0.00024590209140736393 0.008793966619704212 0.009774575579591329 -0.017096853030568196 0.003202621447894525 -0.006700305825525611 0.0027004940681788743 -0.014794128738576552 0.022032826039174884 -0.0015248844357324065 0.009245879348410615 -0.007149616723814794 -0.018016754482859318 -0.0019653570619724008 -0.011591218685835245 -0.00583493560434441 0.0018396983685130632 0.00287038185917298 -0.011205431035415747 -0.01529067495151437 0.006794774350542938 0.005731284731633296 -0.0064951340206288125 0.0015449250314868513 -0.0014533787544706825 -0.01261669539810988 0.001802031245809837 -0.011658122140091362 0.006541684056057214 -0.00881885857027307
Know yourself. Don’t allow someone who has shown to make bad life choices , tell you who you are. 
 0.009533241281124304 0.0063058266579379164 0.003911527892746901 -0.006439100967196155 -0.017444586684608854 -0.006859709910282811 -0.011188717831806968 -0.004258808902127956 -0.0023056290168362646 0.0006600513185443272 -0.016633329746017236 -0.008206120568644101 -0.015994127493162497 0.006410215250371666 -0.01658179672709948 -0.005777978589432243 -0.0022754946635049553 0.022733471326732962 -0.0014310179201642112 -0.010372644875332746 -0.006491289718605728 -0.007256643375697819 0.01980591567376909 0.0030512972219372127 0.0005703444540399847 0.004168315049459968 0.0016645992760271967 -0.0039257529060969035 0.006935724257890435 0.005179445115793115 0.004153609045483263 0.002597128189098951 0.012642437845988737 -0.0026834041664591107 -0.006411427643657526 -0.0039449915506935855 0.003014616792007352 -0.0011829349021537368 -0.0038028354873721384 0.006955862413590306 0.001672146477863387 0.012175170453897129 -0.012956272767578308 0.021776412584475966 -0.029423002562856543 -0.0048132222164406005 -0.007110790309866877 0.001383309536475515 -0.007310288618335393 0.01548838945371286
Give it time, but stay engaged. 
 -0.020212548201949704 0.020249145292745657 -0.005032148754378331 0.0009867853823131289 0.005525319012879637 0.016291417469400226 -0.011430517277867727 0.0008811886277206095 -0.005880016388588051 -0.010367702651101844 -0.0038730819185930723 0.010863223810976427 0.0018197557791108873 0.007974964995766397 -0.012328552802935632 0.005622215590689419 -0.003340882709095022 -0.013880925133179683 -0.015085698717023952 0.0005728912538884879 -0.009051540985427334 0.0032569353398226165 0.0090211654997148 -0.008693098335401571 -0.01073845000276223 -0.0023290585929084447 -0.0012827742648684874 0.009264627529705584 -0.020880428403716268 0.015073220093561122 -0.019423287358221054 -0.010228479127012434 0.00015342227907815987 -0.010380780833277002 0.0002176321319252376 -0.012289707009396146 -0.006746910686258223 -0.008033598910158493 0.011703658134667764 0.017341269022103572 0.007115711818663014 -0.007668157277035217 -0.024031104061556254 0.0025045727521318182 -0.002428646488731331 0.01644734501782032 0.0037756177018716903 -0.003928134953357013 0.012729766757136572 0.00772287652696114
If the chance to talk to them happens, don’t sell myself short, hold them kindly accountable for their actions. 
 -0.00334077365808097 0.015730764248623418 0.006386025063352754 -0.021244770707876965 -0.008314382579485519 -0.006914887350246662 0.004089909768815706 0.00640655854534074 -0.011536578610297308 0.008527793218359184 -0.011058284700976955 0.016100695652932033 -0.010763547154078996 0.011753202481925991 -0.017403969100086666 0.006841874662680396 0.0056269172337109095 0.028303684724727312 -0.020363720082275553 0.015207043835096745 0.009181983603856428 -0.010874455129084281 0.011925201359204135 -0.006893766224171425 -0.00900311087807075 0.014529584354965375 0.015448801138083775 -0.0012294825218323517 -0.018848974702372134 -0.01937403754336213 -5.961496716180206e-05 0.0010350405929296083 0.00817806913161619 0.009165410387765029 0.007233280790384131 -0.0249018791433484 -0.0009303332008140379 -0.0005366247081871329 -0.01166757706594744 -0.005109002355891962 0.005355007814704873 0.005615004793814499 0.001505840099749821 -0.004488694279049243 -0.003415693063778043 0.007900156427269114 0.007982502155947549 0.019364799843320374 0.016388282029014524 -0.007548679797878748
Remember a relationship requires both parties to engage
 2.118364683486495e-05 0.021144885255719746 0.0002478525807559373 0.0007148333126338636 -0.007567004610911064 -0.009015984421960551 0.002643644594396698 0.007618672562089654 -0.005040225971772201 0.007782718756126176 -0.009372649514068828 0.012784021458360991 0.004644509398825439 -0.00555063107262094 -0.022907004380918146 0.00044246677896684304 -0.002465647575100566 -0.003632638420295008 -0.006041288218843023 -0.01664693433148604 -0.004460593371386868 -0.0003882803501875634 0.006219678588592656 0.0064441150051890925 -0.00734652383214929 -0.0156964435193361 0.01883416596888382 0.012825153325833668 0.001061065100603052 0.0041536035167846685 0.018179720371125523 -0.012331222571728822 0.0075744241932006445 -0.008834663034659433 0.0003277784495918291 -0.010093882351279067 -0.006362064309658088 0.001297694619041745 -0.002105093308581787 0.008173241063589392 0.0020135390430753163 0.016904563013722628 0.002833869459435675 0.007558223267625504 0.009081990513387823 -0.008222757778539822 -0.012167528066062307 -0.005594879394690062 -0.013739680907861901 -0.005203846122734055
Their lack of  communication is a weakness on their part, not my own. "
 0.00405453411570191 0.006200376614613676 0.009490957939343096 -0.0035468041654049794 -0.011758153694123686 -0.009391131523802639 -0.007860140579716821 -0.006131575665400846 0.016803922395639742 0.004407261658727949 -0.0027231250538106723 0.0036250095105319125 0.0033983989567827623 -0.01672780236889765 -0.007646962792622157 -0.013650301256520574 -0.01499870013538287 -0.0005189488921032174 0.019528549916866252 -0.0057513192434607415 -0.007511651523223879 -0.013717891743749478 0.0029962381476048507 -0.002199717282556965 -0.0001855336938370706 -0.00032848503067216587 -0.004293163767214105 0.0006040139142503199 -0.007693055995635751 -0.014672280495717779 -0.008718531793974933 -0.006492010212599462 -0.012406182622543956 -0.006413052331322548 -0.011536733974124889 -0.002831400272444105 -0.00662204241693178 -0.00028958509032044337 -0.0005090392701019126 -0.008717510158962698 0.00691135781722499 -0.0037979688989711875 -0.003628496784397323 -0.01660704680340231 -0.01205300675508241 -0.006602018040435942 0.01387019976158387 -0.011456525951266087 0.01283861102438194 0.009445823485907966
I deeply love my husband. He can be generous and kind towards me. But he really doesn’t know me at all"
 0.0028909194098003534 0.005337588358600488 -0.005956006574463727 -0.01894143038846085 -0.012967245825633349 -0.0030423528169203485 -0.0010043361321652455 -0.0025550377741872443 -0.012791631012559243 0.02143666103876045 -0.01218614632037958 0.00968054481019033 0.0006652338592683867 0.004714817468660631 -0.011586518871968631 -0.004608329695828228 0.008435352441844067 0.013540462579233026 -0.02247082768181246 0.014727978025870874 -0.002712878980468228 0.00635091004026433 -0.0005984911614398028 0.003582036108342257 0.00022380890874749637 0.017878901926833543 -0.001388993062356174 0.016677825458891706 0.0015612326909271762 -0.0010568477003706615 -0.0059030471654670895 0.014564582635477932 0.011949833846120767 0.0016653202629747586 0.003454813035124701 -0.01295675628513316 0.003936335124757313 -0.002605755764017781 -0.017780030532027914 0.009590776214191113 -0.012977371169185346 0.005224404711608172 -0.006145154245459416 0.023662538978284173 -0.0003816819950464572 0.0048400046912812494 -0.005035376760378443 0.00636736541877601 -0.0030711801834871124 0.015863800515204175
That he in reality doesn’t respect me at all
 0.013211581921293855 0.017231894782423006 -0.008240782329177711 0.013185398751980021 0.008928763885675442 0.017816474019088827 0.001963045292183944 -0.007820243791878399 0.0011756054429501114 0.023578150799309396 -0.0014321814176270346 -0.00015294740388386083 0.0033520216182384255 -0.006404201352085403 -0.013768411499381236 0.0065186795937669795 -0.004378740044831622 0.012451820266615355 0.005904086936604018 0.007842022670011875 0.015530750109320937 0.016435616779764226 -0.0027883545742692075 -0.007737376800847743 -0.005699176002516303 -0.0019643150984349446 0.0070116399039215 -0.004891725898114722 0.001918584923351509 0.010901177044271083 0.0052915927154431495 -0.005140235086824405 -0.02269625924441738 -0.01862475816462932 -0.0026915286948130147 -0.0023733091674246975 -0.005096141062310903 -0.002302693239244647 0.005456086449529904 -0.014455296197957466 0.004560381526190191 -0.00644375058726949 -0.002951085448865617 0.0019207521148361672 0.00015413228099685143 -0.0012279757310839445 0.0074376829911497345 0.00629417459767129 -0.010068265991490147 0.0036181842833496714
That for some reason he is blaming me for something that I don’t know. 
 -0.015469055532292402 -0.013905992496690502 0.012030406792854645 0.009371760803598033 -0.011300250892298531 -0.018175304430687888 0.0023648717101826663 -0.007301940957781793 -0.002419707439488473 0.0009201190876762303 -0.01765498694891066 0.008252085475918073 0.004211803323118522 0.0007312832445117413 0.009978645000546535 -0.007658111012435068 -0.0074456747145029405 -0.003986416572626957 -0.007960255997429232 0.0053240752113271695 -0.005579491088915959 -0.011251939494654965 0.010947471888772969 0.002437019944942904 0.005713787649827724 -0.01540221263836992 -0.0045357375428655726 -0.0015404565263643123 -0.009354990688725553 -0.00021473854471051063 -0.0042092240079795624 0.008020747566984286 0.011976941660966084 -0.005285709689246275 0.014557737899858526 0.009170482585583095 0.003980534631181598 0.00964494914780478 -0.0006106225339726422 0.003886584642240911 0.009114513703737401 -0.006145961723843364 0.024674718598673928 0.004532161921638185 0.004164737929953174 -0.0008259326161377658 -0.017783776079263038 0.009904189572812043 0.004142722247449986 -0.004811066719853652
That he is trying to force his dad to apologize for his own actions before contacting me, so he is hurting me in the hope of make his dad apologize first. 
 -0.002026463246291819 0.00613720230929543 -0.007639578164910552 0.0016712241779781919 -0.01225191543012589 -0.022700824279481554 -0.0019162413808789067 -0.03357231668235948 0.011795392411064712 -0.007972670795740652 -0.004664154642101597 -0.005915093154346078 0.01945599505523664 -0.00014538505070722555 -0.0009000213659704698 0.007942411237493811 0.006147376833248714 0.0069270124556477086 -0.0002524283185911068 -0.021851562732851916 0.007131634359366871 0.018179333172823536 0.012964162783940272 -0.01254799467212113 0.003615658860993242 -0.001915528783754679 -0.001467700282512017 0.0020087263530973467 -0.01203444287726708 -0.015428450786313313 -0.0038667080540125917 -0.01349827290940954 0.0056282113678026565 0.013196619445535171 -0.016948085612833015 -0.002022079347620564 0.00038937998257861583 0.006565706905867666 0.0024391923150959634 -0.017974714709350602 0.006611458547410088 0.005269720415237418 -0.005616503286500993 -0.0033407915594843548 0.013645627165276276 0.0019713595962139014 0.007295702535416937 -0.01958003852449522 0.01264697393536415 -0.00284877045254263
That there is a part of me that thinks maybe I have failed him
 -0.006559693441389339 0.0074669962272721135 0.00210769355738348 -0.00043413465063653475 -0.0021087389665542075 -0.0012896712286094268 -0.008578677969556638 0.02112486940712098 0.018575587857910383 -0.0002850957563920183 -0.0036714330740399205 -0.0028981221065132795 -0.004955706812586457 0.006798502548178672 0.0001335505481439191 -0.002823110176700739 -0.007712290272977647 -0.006258938356162181 -0.0035430783851758767 0.009810456925559843 -0.009341018239534971 -0.007658023276737496 -0.0033168550730455285 -0.0011361289775980745 -0.010572198946218117 0.019359360689228437 -0.013823839296194908 -0.004703403951808667 -0.0040065941139344535 6.417593029952094e-06 -0.004685208037016024 -0.006699818522579716 0.002364437796446387 -0.008758107777951123 0.00484785126686382 -0.0010665610195596076 -0.005796901006096145 0.0035570570512034527 -0.002404823819909475 0.0036440702845451606 -0.008431591266137075 0.020686497288724605 0.01244770559528385 -0.010154571168681566 0.007680388035401932 0.0049534952941462165 -0.005707775753223533 0.007151536761894845 0.015147613209326853 -0.003941118914666874
086csBx8dLghyCVE92CBiRFUK693 -0.10785638111515905 0.10768546102230775 0.05695498215583057 0.06262002520626803 -0.012861229390465339 -0.07595492861873808 -0.13462414299795836 -0.09999123051205484 0.16970042474932662 0.0030232153806128864 -0.19781415542056538 -0.14315384174223708 -0.09018886674310811 0.0847146268652799 0.08672938523298515 -0.1512168705676957 0.07387508018585276 -0.04321536429629416 -0.15130638796649135 -0.02595842493164368 0.091663074591031 -0.03724707004544397 -0.12587846110856382 0.03866903146385116 -0.10867995448028032 -0.026215504335044385 0.12895954684059172 -0.13834126840356753 0.021574371261768432 -0.03138211418422602 0.33114308061563635 0.14551666130095667 -0.3149144187100612 0.2544304706215599 0.17561065730154377 0.039352597660722126 0.1366363870994467 -0.0923689672766013 -0.015754270538722078 0.02643460525749262 -0.05753340884166345 0.02513589407812389 -0.06749557252828076 0.0026556220385333743 -0.09422556005704306 0.08299126378163595 0.06872701662875513 0.02147554636262058 0.04478577570894105 -0.024861325810709867
Eminem because his music has given me a passion
 0.005534389109567419 -0.01687467127319488 0.004412146079235164 0.005657325578275109 -0.004713363208435404 -0.013763733334273553 0.019864123510635927 0.006018245424977621 0.02400186232916387 -0.016332188408050508 0.011173194695578488 0.021619071782946957 -0.002528424344856376 -0.004938466999058652 0.0012147840611288886 -0.0204144796713992 -0.002433404125859803 -0.010281236285547207 -0.0029612518344971327 0.002878149227174589 0.019471346344177014 0.0007169023774524747 0.008790956856157604 0.007295743572226155 0.0004548629441193207 0.0047634453685555505 0.007130080482614038 0.0019238354602352768 0.016323603527698 -0.029564329660325763 0.0009163395517705885 -0.021212665605626898 0.0045956057113325675 0.009235018274509751 -0.003409702594667095 0.005360183956748596 -0.008033750647197782 0.011173888441682552 -0.0002277508195092455 -0.010170916917915787 -0.024659169614887847 0.0009599318743763646 -0.006070387381963569 -0.0035595710711056865 0.0016448781939795967 -0.019008336747376984 0.005458778716625835 -0.001884126259794516 -0.009486122875646943 -0.001688360150152081
Nf because he is normal"
 0.013181515541801367 0.012069778065963224 -0.005760556703599177 -0.005379066396049846 -0.0007171249567113811 -0.0010824116218847177 0.008143651499995968 -0.01071336141753558 -0.0037273605271395177 0.012778605626492565 0.021600182337536338 0.01721173697993394 -0.012457719256692437 -0.0006121911050519229 0.005987667521776232 -0.013539349188397408 0.02006247381747616 -0.0020727974313329523 0.004398651505572469 0.014206880304117937 0.00512047272122095 0.0121926975307693 -0.005077079487362526 0.0028246678221545635 0.0028309553375312274 0.009571705023753475 0.0006046846728536892 -0.0023764124070440756 0.003267271999225853 0.010881631983899194 -0.004722773566378522 -0.002195414806662842 -0.004237273365147603 -0.0030867888910017472 -0.018670018678458675 0.00030018734575727024 -0.005473488156693219 -0.007150138669537604 0.010456078612577522 0.00797582101835749 -0.004148367579119226 0.01652201505875484 -0.002298342382981541 0.024344822879641653 0.006768476971427179 6.997020630198333e-05 0.0022554301633050987 -0.0008181836253009047 0.001959901346861251 -0.009402660994919201
08OjhnG4QjPwpyPEMHLK4hBiwNx2 -0.09970707006946838 0.0927561131057299 0.027957760684249554 0.07312987467572864 0.0036428578498065613 -0.05279519633087186 -0.12045661380299286 -0.10937452881314216 0.13397118548827192 -0.005206948001573572 -0.17695919747766017 -0.13773445492103814 -0.11684155623475906 0.0759738619649903 0.06615537793722705 -0.16038209095675934 0.058113650488697675 -0.02850435006694372 -0.15095165247864223 -0.02907864474332416 0.07148422878251479 -0.03260519307435341 -0.12666787775257232 0.026307947256621972 -0.08931308320338333 -0.014270062677518658 0.12235178607195336 -0.10768935566232221 0.020614733388274235 -0.03075731987392874 0.3553050931554874 0.16362217032710774 -0.27055729420834423 0.22406339492311772 0.17542323770822077 0.05006258739886647 0.16988968417863265 -0.11090975364763081 -0.04097879232251517 0.03977993213240303 -0.07517801921410527 0.041021004511697226 -0.10400352220923705 -0.013500650833623775 -0.0846591114603713 0.059289691861666494 0.07247908461720969 0.01994897656870637 0.06435809033205939 -0.04811525645699999
0BH8RwZUHpbqgdyJXp9eHfLBJjK2 0.0067555408512238084 0.022325826427149264 0.008426088707601701 -0.01557344237130479 0.005957084363295231 -0.003419857321507495 0.018621894009335185 -0.00742570577374161 0.0023806497872029962 0.003633962984183632 0.007642781666399099 -0.0054529929232676015 0.004495671988308807 0.005087555710621336 -0.0030502612451608862 -0.007805886697274333 0.0046509304981725095 0.015186964023266898 -0.001568250420292687 -0.007482844004242254 0.004304779474617011 0.008108117363775974 0.011396843747067748 -0.018202877188016654 -0.01907902793436905 -0.00465645832011168 0.009064189567714934 -0.00964696182293576 -0.007117413080334384 -0.012837621999061188 0.0122900695439312 0.007925037793169517 0.01581945553697728 0.011317905298717153 0.009467068415112113 -0.000575926308744592 0.021720968963966986 -0.0015805544946513525 -0.013283740564286781 0.006024815042289977 -0.0023937521555808653 -0.004693607337589172 0.0024101514428399727 -0.006880458069049586 0.005265251760925539 0.02007983752660398 -0.016484390896309264 -0.0016726038346041281 0.006163853723285248 0.009719682301204253
0DXTnP0AHcg6pPe5dbJebvg9pJt2 -0.06391959944806593 0.025945453027317406 -0.020958820151269136 0.03054454423215002 -0.016311338393641135 -0.04738095568576713 -0.08819453040617779 -0.05633845645001233 0.0805623868975367 0.003600344196723987 -0.06701417723141612 -0.09699146070166342 -0.024798766036619926 0.02797055822301616 0.020353947220427493 -0.07865115912776062 0.004663835597667795 0.006279307194792301 -0.08683059381918992 0.006673265887046769 0.04056229050391542 -0.03896680914922709 -0.07363655671618917 0.019930750344888 -0.06743344766257948 -0.006019399105586607 0.07177782211900408 -0.0331531371934889 -0.008825257160335562 0.010827214946810635 0.1434464861953777 0.033111210274876506 -0.11371363246955474 0.09689527350797572 0.08970086800722214 0.010543645463371346 0.06363588957753992 -0.04483533619654744 -0.020889137773836008 0.03320446389331292 -0.034667004111740445 0.017623170605102594 -0.05058187418276212 -0.029119656569751025 -0.022071164762537777 0.017386796311344585 0.04082735236132166 0.013537694585963503 0.037108887063261924 -0.024916494151375982
0GqnvsHAZzYEUk5Bh0u1XHPKhev1 -0.001831085401789987 0.011687853242137333 -0.0028263943053935697 -0.0120727202460094 0.022565225035931957 -0.00855277238283004 -0.0009407448117376978 0.009965188315964891 0.008719649017891346 0.01434890077971544 0.0005329521898400339 -0.013438037223109224 0.007274429559030333 0.006144174271921162 0.014898338225171351 0.0026579301987868136 0.00862474289338749 0.017745467270735244 0.014080215830971982 -0.0025534390211720006 -0.009315218514911856 0.003006205432664713 0.026188738365514903 -0.002541308860468554 -0.0035000013095767353 0.019204150745878855 0.010481811183017277 -0.008893807921850646 -0.01802607293060402 0.008260846636808983 -0.0015257645736264421 -0.00256225054411721 0.005477737044069032 0.00273137581645732 0.0065933703415723514 0.00661431592170315 0.016238628957322226 0.013568260964281096 0.0019435781985263376 -0.016746478206042564 0.007751519176792048 0.016963734540303158 -0.013782356459237708 0.007074155648299517 -0.014686188091590491 0.005290272300243192 0.020470152782212706 -0.009436605067327008 -0.00574451022206365 0.02362619791747419
0QD7tZsYlehDMwafH1pcEVtnM552 -0.1214373732957152 0.13446132744573377 0.04750301207390404 0.0923498904012466 0.023534983515330263 -0.048967133518817256 -0.16042791624406733 -0.18303706332835823 0.21747126995595714 0.004576125721802407 -0.23689124761554886 -0.1626091545331893 -0.14693739969438058 0.12561818177308948 0.1206229879824354 -0.230557839423478 0.13746861652408077 -0.02658712164925053 -0.14957164665645034 -0.0795284658076431 0.09442259749997568 -0.018240197945027552 -0.10122907791129841 0.08552479204587424 -0.1305548325876001 -0.010163809793028812 0.09511692226697101 -0.15560649519505484 0.03502522343847897 -0.05205053858283052 0.45808667144629733 0.2264527454549622 -0.35286781789173194 0.2969532264225993 0.22684189823982248 0.07489715877796463 0.20238734583353393 -0.1595911009441327 -0.0498189687080323 0.06969327196352056 -0.11826941082395642 0.058305892710469334 -0.10239866618312495 0.007442147906410079 -0.11745669989791656 0.10452485982626294 0.028901829204704542 0.05750414580991251 0.07664403557370308 -0.0143633512967903
0VQkcoL46aPvkz4qFXtJgQLpNxr1 -0.003978402281999914 0.01977851686825544 0.012226636769617721 0.0016090812693092596 0.00011281372490720226 -0.01476151724690789 0.0058366538742634245 0.006987621878430133 0.01708554214779396 -0.006193227607741456 0.005410671145138794 -0.006733440083223586 -0.006082461223811083 0.006329005639431798 -0.003978263872876008 0.017433643626897373 0.0060089818265270725 0.0006231957549913419 -0.011264128517431206 0.01702311848690784 0.0017739470463412192 0.006743791522196975 0.023840946836834753 0.01064199619420238 0.007305302179444618 -0.021893830896758372 0.0019327516528706713 -0.011371411642681073 -0.006483641493298529 -0.012546216903888904 0.008717130276468895 -0.01688503645407516 -0.012165005849576154 -0.0032861601193333455 -0.014364684861661077 -0.021659988214430756 0.012390183314367609 -0.017943839242574252 0.0021922129586885654 -0.03357844102808053 -0.027138010126054803 -0.0054437077757418665 0.014112413862071231 -0.001381988370920626 0.005744431477627546 0.0018702493482073371 0.006721918748784745 0.006930508827327442 -0.01624295215030281 0.003921490758153776
0VzmdP8NPmM5V7fmdSy4xMHgBTr2 0.003374376536139724 0.0033012289466383678 0.0021344546942194402 -0.007367210841525777 -0.01198290313372245 -0.005417217086721464 -0.0235195494467442 0.0003199275550892557 0.009415753613534613 0.021167827131033136 -0.007914280048908453 0.008355635033496445 -0.0040064838426673525 0.0056086632293487915 -0.003374161595720534 -0.005223225676556011 0.003414436919452123 -0.0020621365012665955 -0.002992313047401155 0.006239929907739902 -0.0001652054205786462 0.008325646062255186 0.008493132078255588 0.007855456016391994 -0.006300828508976944 0.004030836858261316 4.153457016332739e-05 0.011839861302417327 0.020718710537247765 -0.016550024420599507 0.00037725620816559427 -0.015567945026628432 -0.017820712886860594 0.018528222041817418 -0.0001676974967132583 -0.006419250233721997 0.0009382711010048649 0.002343248199789643 0.005957579255822306 0.005690222864644579 -0.011008999071166498 0.002227143860922382 0.005623642769850835 -0.0009242132564060224 0.001615145209620816 -0.003305927055824714 -0.0011710442254876546 0.010949892112521542 0.002092038068820167 0.0012271460809283893
0ZByPUqSdob4TWkA0vUC2Fgdxqv2 -0.03559480062764962 0.08892116417505008 0.026982619685692204 0.04573635332255498 -5.429356376327951e-05 -0.02641677836211121 -0.1290825137905799 -0.07344145279028091 0.10836265331538596 -0.01109952702872073 -0.11799498019772699 -0.1401269222165112 -0.08238642177225708 0.03961653251408412 0.05615181281632244 -0.11771089177750936 0.02911092508840336 -0.020426938275524702 -0.1302831559509749 -0.007932160541759839 0.06765237611296115 -0.025948833648353885 -0.10788202584237706 0.02901474470818478 -0.09245009148412608 -0.023895362192187224 0.10104182393841252 -0.08320358198524422 -0.0032390120921490092 0.0017622213080768227 0.26761061724517804 0.054690584495961286 -0.1849088293613703 0.16995864173471373 0.1249806885227111 0.014930626108774348 0.09072729265739114 -0.038866150114115934 -0.015237199297437101 0.006251293579302536 -0.07166728703455129 0.021154410195027656 -0.056813531758343694 -0.03823102026833147 -0.05938972208083707 0.041345304017079705 0.06190023624655136 0.0013704834739403592 0.02227687820364583 -0.03547360383123603
•I have anxiety 
 0.010459382556276653 -0.004016358860358553 0.014030778238721462 -0.007722787143242957 0.009405606904891324 -0.0213623723292564 -0.004509449084961456 0.0020797469103209787 0.00915731048870425 -0.012863581991007095 -0.007956906734571941 -0.000809870717649798 -0.003457367943376509 -0.003960651486806577 -0.0270010992473944 -0.005275112367966166 0.002440130735380703 0.01800029947270531 -0.007417404818100569 0.0020750155248199093 -0.011147114725596815 0.001008342268210352 0.004448436564038303 0.009534419885226965 0.000246485030004694 -0.0032522685678133267 0.019314782995580825 0.015882755197096095 0.021881762052033106 0.02175596408106239 -0.015328029678434937 -0.008004570785074227 0.0036036851965476286 -0.009600982079390587 0.0002487859277658602 -0.011839310230027449 0.012213867810536488 0.0015751913265348552 0.006851157344864462 0.009296062563851572 0.0031299211685689122 -0.018433948065471613 0.0106231265876986 0.0030132298378978926 -0.0009391790168751983 0.014940465139873673 0.0021135408162193444 0.002019114452723338 0.009189180002426089 0.0008422337283267007
•I have anger management issues 
 0.008637172916848387 0.016341183052612535 0.004635765413981688 -0.005135162493284633 -0.005915376893578174 -0.003200068982551136 0.008329318216862726 -0.0034555545964781516 0.008071265000979535 -0.0055140217118589685 -0.01795893896197981 0.004018464468388507 -0.020373900152915955 0.018150634940540276 0.013189674721108238 0.0014406087874936514 -0.00020013372211850067 0.012986229297003016 -0.007287069524403642 0.011070471947837657 -0.004900164588364212 0.015277138091230453 0.0020484224506476492 -0.006287378478887329 0.001494222080657326 4.999942572485818e-05 -0.00166342468167822 -0.008874807176691405 -0.009545822506548356 -0.00093331992067436 0.02905998236773437 -0.01647973515503944 0.011938178642138083 0.01322487290400678 0.0010465321330359646 -0.014268055211954553 0.009760624149400184 0.005865499736648656 -0.004325805888970981 0.01501991813841906 -0.008273381465376019 -0.00805831428296126 -0.006374500173175339 0.0016547823345915416 -0.00409273475125827 -0.011292735214273113 0.00816576398755333 0.002328623751758274 0.004012397081441808 0.014199625111428955
•I need someone to tell all my weird dreams/Strange things I think about 
 -0.0012209157484767425 -0.01764545049525335 0.003989904952311142 0.005175942606573339 0.0019071232138599908 0.004132991582232489 -0.005706634011654384 0.018373715024906506 0.016452670236715216 -0.020174308408487187 0.01298793518818525 -0.003581704530798377 -0.0005974274022424703 0.008859510668426157 -0.006271100047552264 0.003651691843172594 -0.00779840994205372 0.0030814338097245957 0.00894357130663034 0.006098119917775282 0.02640295010172143 -0.02141261187976459 0.00577422004030733 0.0011123682322566034 -0.005278340105297962 -0.005032480796124957 0.010811918422857844 0.02621859897777071 -0.018728104190703424 -0.015145543664799017 -0.005902585968975812 -0.01664289097133268 -0.011346076773483626 -0.015123477045676554 -0.004111476884524757 -0.005721336472341791 0.009151771248157123 0.007147118815466122 -0.010377334696399102 -0.011081411295581843 0.0004926743298694562 -0.005577486825668598 -0.002219056022540805 0.01102404673110915 -0.0024085069284791967 0.003709543434463851 -0.008411888286715567 0.0020932785071647825 -0.0047795975410806855 0.010013467376646877
•I just need someone to tell my day about after school "
 0.0012471295376821586 0.02134186230856917 0.005745420001330862 0.002531309594392223 0.007907425428978349 -0.002806729666453564 -0.011886166812770034 0.014546262663011534 0.00202128154360788 -0.0011963169166838605 2.462956262440692e-05 -0.008877089760360923 -0.003911352756451306 0.010030474771059495 -0.0033927296597080314 -0.023903259661173983 -0.01405856831461259 -0.013504835626642042 -0.002186881615498429 -0.003489240399802797 0.00855558260139146 0.0013328606569310804 0.002027105296450408 -0.01790576179826018 -0.014843919519796077 -0.013524313113638393 0.008966400478234679 -0.016477967413298926 0.01522676216339273 -0.011999734816433783 -0.007205376357419961 0.007983904147075073 -0.0002821266108000256 0.015500266305851178 -0.009200777770813389 0.0017596512008788627 0.0065253266989900105 -0.011679376167364195 -0.021720390412052912 -0.004919663386441654 0.022594462687161216 -0.012506440610291545 0.00687173930434005 -0.011259969192498314 -0.02036407328048062 0.0020576143315896977 0.015166913726490485 0.006399428037079721 -0.004433375209589165 -0.011724694115605798
0ZYlVyyfa8PvejkRDVU9oRgbQK93 -0.013144676541012711 0.0063450999961522404 0.023918417310269155 0.0011498367596481723 -9.856052127724547e-05 -0.010326511689463452 -0.026808802005618068 -0.03390117752858499 0.04857440328835349 -0.0018418884729185215 -0.037990173312734875 -0.03650990643945795 0.00031697372091464646 -0.011673763031171406 0.004255745179431695 -0.012590861183553632 0.01176428814202328 -0.018503266929499936 -0.0401911514623797 0.00950689177396373 0.018379199154909615 -0.029724229464493664 -0.029570617555338442 -0.020422192157637825 -0.03977874446816592 -0.015578311171815368 0.03379483229456575 -0.022304288990257316 -0.00048378616829635596 -0.0014697496838315229 0.09673575248737101 0.009988736848795095 -0.04737000083367352 0.03301748918050913 0.034503721187097346 0.005915853432049112 0.0283871879569802 -0.006880859327702347 0.008133683195305143 0.005567394802593941 -0.012193577367343172 0.01951745003553122 -0.01697498424158751 0.004085819396621367 -0.012072058555010014 0.01115200193826391 0.00021225532896513915 -0.005822587774393722 0.0009196335881179666 -0.02830748800673073
0a11whOLTab9mBg7hcpmkfEn0Zi2 -0.11763067930147929 0.11631068954770742 0.036555165344532445 0.07095582781197295 -0.007425089037096691 -0.05838899592184618 -0.18967087086537748 -0.13565074035321567 0.17350525222956625 -0.008863941655410275 -0.20707316027771375 -0.1450861903205224 -0.12072526094836716 0.11844434712671374 0.10854402641165568 -0.1949139682482318 0.11655961363639696 -0.03388909268245113 -0.13268162160102864 -0.040867926571651426 0.06424643736772152 -0.04281989224076491 -0.14102698078974482 0.04686348853581109 -0.1075383026073618 -0.04650477973106664 0.10190913709759138 -0.15274884333668 0.027476345429020603 -0.0382646621168933 0.3941295936882871 0.16061683618859116 -0.3039766693098293 0.27865282714948836 0.17931452808593704 0.06785476469280434 0.1658559003190008 -0.13002650542723257 -0.026710154607366334 0.02083084010672469 -0.08901647047778884 0.03455764865495537 -0.08142065386238509 0.001970534880400265 -0.11982650441746687 0.0919063729843047 0.040383947149059955 0.044573258058914635 0.08154705488445728 -0.02226229689042544
0ahj7fMlikTAWjziyjaCXeQPQY93 -0.13398011724721673 0.16326549348373945 0.04088995412537125 0.07083119234534453 0.03534196870833521 -0.023973506662806437 -0.18730343723547796 -0.20420317003135738 0.22852783495306034 0.011658623557604018 -0.24782938556674833 -0.1698340079836131 -0.16505724955993914 0.12886056271951762 0.12538281339289561 -0.2319653439368311 0.15371252464309704 -0.014864186875670161 -0.13036529648160433 -0.07359041509513528 0.07695290982303409 -0.005908856550051564 -0.13204193148617466 0.11121369830352378 -0.10117028545275673 -0.03910521905280352 0.07532952109794304 -0.18472151210480398 0.0635332905435082 -0.0631950449797262 0.5306211060883838 0.2186415455673128 -0.36416556307131037 0.32821332996271807 0.24244178501501326 0.08713105379242096 0.231252080288377 -0.19065936944287826 -0.03810638902926448 0.10495549054730055 -0.12221449467341892 0.016401422837785038 -0.10742090354736722 0.028418721092301404 -0.1629501286133737 0.10553154062998708 0.029253870310000235 0.045255990029012254 0.09498029365824397 -0.021964746618894825
0bHxu3dDPTUJFnzISXHnMWqnNll2 0.0007619958783723642 -0.007014885159678805 0.003008221712443197 0.006133270953360463 0.006812207410908963 0.0005155408077595813 0.021272717280242184 0.013518724308154829 0.009468389072269642 0.0018314766831591448 0.0008284076709736007 0.008287320671817927 -0.0022974497927884495 -0.0024601157500401304 -0.0037868623298350436 0.008268262788336445 0.008939368445001266 0.00019956515996225448 -0.008141782652950923 -0.013696807784809308 0.007864945711131237 -0.0032909498861228514 0.00091794710930837 0.014414809150920211 -0.005828776238099829 -0.010824844037101156 -0.005885121182297734 -0.01275802297797226 -0.007957666876827984 0.00579390289578248 -0.01278099574813801 0.001774675928272431 -0.01643091692682514 0.008528365074774051 -0.008551483494720872 -0.00105230788120817 0.010742456285596596 -0.014648571904574652 0.00798071077123701 -0.01281078928036076 -0.017731948998909185 0.004020497802989031 0.0007409407590162209 -0.0035186863030515266 0.023626646313776197 -0.009059573529084595 -0.010988894266830414 -0.0081154188889176 -0.005082900161097988 0.001618124490300032
0cDMDMqQwTY9I1Wu6oFqoXv3oSh2 -0.056680848284604596 0.09452050498009773 0.04479889619637782 0.05591019975216582 -0.002100995955034799 -0.014305106524855293 -0.11988038217569887 -0.07141205558180008 0.1205977559854881 -0.018064747133693337 -0.13607623971189964 -0.11902271034555126 -0.05218622188482999 0.044037340956765265 0.03036374574050904 -0.1108633219382375 0.04690077948846949 -1.423955806539443e-05 -0.135491620995567 -0.005599527992532757 0.06927187319467581 -0.03574286021562174 -0.09659271702688371 0.013530137660349646 -0.08339678713636971 -0.05329316863113061 0.12273191702891881 -0.06968554926092134 0.016778551666888256 0.020293322136883805 0.2543231191197402 0.06013067808376566 -0.15776257270678498 0.18613364798558643 0.13755899163776192 0.023644199364634452 0.08402218623852638 -0.05963375336854684 -0.013398349607866455 0.020494563266287923 -0.05332287978582609 0.04653286494979317 -0.07538382315968369 -0.04626194916764283 -0.09192631780946578 0.03178126451265634 0.0360806444354619 0.011370909276238357 0.011164585241373688 -0.049450343367358554
0dsu4EFLoqRS9M59jwugCX6MdMi2 -0.08514152960871474 0.09618328393407885 0.02991697994625903 0.06059605451970245 0.004160664096002394 -0.02613161375551779 -0.13332791198100308 -0.07457768529546764 0.14840929004366915 0.02344150212703556 -0.1860410478700889 -0.1365884164436062 -0.10588826516805072 0.0705816360941728 0.040412997588560026 -0.17244456856516804 0.06690164661267463 -0.020900964761270104 -0.15647434106221747 -0.019225679177334695 0.09784052812498321 -0.058730262049053496 -0.13208442674030924 0.028568591781890938 -0.09580795710181249 -0.022027797547794235 0.1254439678342451 -0.10365341347338251 0.02368325608775958 0.016162651963848522 0.32115900796751895 0.16683098332482146 -0.2575598292411737 0.23791722102069215 0.13951187214298935 0.03592353494707245 0.11155581824377676 -0.05944304130044597 -0.030053622749039083 0.05528170905262679 -0.042866912095348736 0.045123595778791166 -0.09075894560063809 -0.021952346538688505 -0.10352168804230069 0.09673711686768324 0.07318166984846056 0.040285775988425185 0.03766536502490199 -0.035801193246144974
0fpaj8BbskaHLrvEa0gdMoKJO9l1 -0.1443597574586145 0.15711397621273898 0.04050165803547213 0.10928032424547754 0.0005148030741773182 -0.07613167572746929 -0.1698999774449197 -0.1621114832269142 0.2026556653158153 0.0055106991255721655 -0.24303085897993337 -0.16742360092472022 -0.12622351622383304 0.14053014378533354 0.11924573601759951 -0.2185457436235322 0.1050715351148683 -0.019755869915227937 -0.1786647611547974 -0.05963818520727024 0.08300503037588683 -0.014647942773491558 -0.11642380761536132 0.10191316556428315 -0.1286703294828639 -0.010585325732172841 0.10530663960758219 -0.16934988891740363 0.005677953834823911 -0.05083679642126708 0.4175163620770365 0.2011326353686773 -0.35011727172585266 0.3093866220051255 0.2194290153883638 0.051557299792943365 0.2217092158502802 -0.17636324995371536 -0.02559782153843586 0.08484475594928954 -0.09602842828282711 0.046183377186413195 -0.09795133797520113 0.015560886494697737 -0.12964719912876269 0.1290657430290266 0.044714252942868286 0.03353904077586189 0.0863699984985299 -0.022009648556318297
0gwrMF8F8NepBwPgrzBu2fpg9Ey2 -0.09318562748079773 0.11190950537266894 0.026953948993941892 0.06671140736920758 -0.012025591473406557 -0.051220839579681286 -0.15614075022999777 -0.08478700385437972 0.14864154010070865 0.022156376919810167 -0.16430522456685062 -0.12100112676598632 -0.08021588713593814 0.0862318572107476 0.07360821241336418 -0.17287946579104327 0.05736977693654044 -0.04302280138519531 -0.14262375721921308 -0.015069942865452688 0.0594013066488499 -0.026994991436203854 -0.13210357653479704 0.04484351847876073 -0.09028750571465347 -0.0453822369667473 0.12302890180343767 -0.11892883794693897 0.012043304338246793 -0.0201712833323002 0.3051216364982546 0.17003756338823992 -0.2504170259914941 0.23960968035298327 0.15619157726032873 0.052730996114978036 0.12277848440945328 -0.06923484152868321 -0.007300399193250238 0.01405740803465683 -0.07383888644431576 0.03596846844806126 -0.08344874790652804 -0.027154874935449918 -0.09910152798192999 0.08737616692015983 0.04194141581980436 0.017315490109042955 0.061623477176157807 -0.02497569061927295
Study
 -0.008971567844396988 -0.004917305830926815 0.011810110810431249 0.013817509100385397 0.0027224500272016584 -0.018248607656705364 0.007596803139140146 -0.010616657558593789 0.009800164356006546 -0.01946730634489766 -0.008672623568637128 -0.006032105587650057 -0.028603118605450235 -0.018354146677659118 0.005037691235932222 0.002607212368178104 -0.001367981649694476 -0.006716473786016863 -0.013765310125374717 -0.00496214250913526 0.024849608526669828 0.007610119976380649 -0.008295390291745598 0.02279466146612094 0.0029053998608171492 -0.003964927345198556 -0.008604994164688951 -0.017470646072086586 0.0004182003493847049 -0.00375645197603134 -0.010591860167843373 0.022702815449381242 -0.00937517932289188 -0.003470461063179081 -0.0006304387947214647 0.009523400642470632 0.00043311758513194263 -0.007434472832512678 0.006729094183588856 0.010590736046326208 -0.0021780633027087934 -0.003292914304405133 -0.007946137745325078 0.008736933029340659 0.0005150586349571475 -0.006978363958672758 -0.012619970027345214 0.00540950866696702 -0.01615721980523131 0.0006615277963538029
Eat
 -0.001367948332613474 -0.005516216392219764 0.0021998673523984853 0.0042992147087433106 0.012078691292653227 -0.001483298533801638 0.007431773508686202 0.017504296742089233 -0.00840061490953827 0.009577925161537928 0.0020324043966535306 0.004506376299557116 -0.0009709346024187468 0.02440161371401503 0.006371810315044877 0.013001136427497891 0.0009074032976165697 0.017626020365739185 0.00511455140434485 0.0006135460676147925 -0.005945335653313035 0.00597878450978602 -0.0157694324487733 0.004433999673722026 0.007927458227572282 -0.022909335279039295 -0.0001365204915576938 -0.017412876476379784 0.004693465301746144 -0.006565956065302674 -0.011097099658741418 -0.009938024794484334 -0.011853789224626534 -0.003390956228143298 0.020000109922218342 -0.006155590635040944 -0.00029793111506833846 -0.010226808008631556 0.007653885551739711 -0.0027190531258613443 0.0013800217194157064 0.017830528537494256 0.0038486967791488266 -0.01863994409980165 -0.00641883600187074 -0.00325925894449695 -0.009661677881854997 -0.014583948921787906 -0.002394167382705881 0.006047040980796993
Stu-Play games"
 0.00018289191349219307 0.0004620019293512033 0.017852648788018892 -0.011278927705548485 0.0009396907719949776 -0.01033087293118453 0.022620126566805853 0.0014550714797426703 0.013675960203961031 0.020955431057860227 0.011194333585246043 0.009726775866659862 0.003083628955793649 0.0017904346654819651 -0.004310092414978281 0.005402044614632026 -0.005305801283713068 0.020733311780207903 0.0020157941121546345 0.016139740254555134 0.01238176652722038 -0.01111215985831038 -0.0026319878244040387 -0.0019157894635632162 0.012350414638129652 0.013263231840017412 0.0057828089246558315 0.00021472253266033658 -0.0014498059701197757 -0.00020217835054719646 -0.00022494120792805632 -0.0004852296519352296 -0.011866754692598402 -0.018761182795354853 -0.00492029745661538 -0.00784494583831091 0.001041164082004471 -0.010791035076844662 -0.006141969758640651 -0.006742383571243864 0.016551313419489434 0.008820239575612317 0.0061865782614428586 0.00021406970825792445 0.0006144086924503356 -0.004596421318496776 -0.01042275504427535 -0.012095679546569246 0.015596737866375401 0.002064273091525414
0h4KITOQcVTVDu89Fy9oSy5BDTk1 0.007554139823981354 4.1585095230520866e-05 -0.01424818571767634 -0.013032847328471582 -0.0002495517689570276 -0.013697203383549857 0.010196777131637143 -0.01277571908364971 -0.0017994775506280536 -0.007984137035726254 0.008167916918040946 0.008571050362781827 -0.010179954076124235 0.0007029927852527536 -0.0017026436143209153 0.0063201824111821245 0.0026056600778446987 -0.0001356124515876132 0.0006241740188134267 0.00758414814873467 0.004899326507752418 0.003787451840764512 0.015357290838134847 -0.01875107780213794 0.01021266950682577 -0.01215782126151337 -0.011203156611222209 -0.002461748037763041 0.005538095163137376 -0.006896492524388857 0.003272628104088589 0.003114069756392913 -0.002729864040546093 0.011380533309002454 -0.007839299748036361 -0.006185580420011205 0.0141618732121017 -0.0011327282486581591 -0.0066404587964837645 0.004142956379507161 -0.012313382553022117 -0.015877117251361622 -0.003691846639998269 -0.009414520919742942 -0.008141596364966369 0.0053631552007975146 -0.006594292091941038 0.006900725686373596 0.006167791870883824 -0.008756256744865637
0kEZjwyYz7YiXK1hjI3Bh30PyBU2 -0.12827647847355345 0.10861925281787685 0.026377044011395585 0.061239091307714356 0.014462153072489155 -0.0436481254142112 -0.16685680791904814 -0.12349618284151845 0.205746053876147 0.004774976226744585 -0.21101890152944414 -0.14532367400613572 -0.1413762429434664 0.1057126673300877 0.11931103456803815 -0.20286670821856545 0.10437715695185149 -0.05206192849318462 -0.1548591599905239 -0.03769480346762062 0.06369301293245704 -0.02944902507843304 -0.13043789263036532 0.071237502886971 -0.0944957458158574 -0.026364797668182716 0.0896473402622716 -0.16936396684542884 0.03620019056556999 -0.03875832345215008 0.4045746682217043 0.19295624217511465 -0.3297790589377039 0.2641574911589605 0.19340771932102288 0.06277022694476828 0.17692793039816143 -0.1487668438366875 -0.021378488201240803 0.0581477354724823 -0.0768631638943255 0.04207830062425784 -0.08466558467910254 0.00028929285639600903 -0.12252852457622232 0.10678449659120103 0.0637372428753691 0.05736570522736716 0.08517359769170522 -0.010894940355214563
0kEvEq38TZOukEyC51h551U0Yp83 -0.05662630658800809 0.08699711342246959 0.03526764427570526 0.041856822289675646 -0.02068581757757527 -0.06362986772765199 -0.11881526374073978 -0.06905542269285501 0.12286342805226085 -0.022433437413543745 -0.13185405779229026 -0.14956072887389463 -0.06737911806914722 0.041907133673007274 0.02984334788555646 -0.12122934700697206 0.044739041340517184 -0.004252687237142062 -0.10810469603990684 -0.011901440587133097 0.08678300565589575 -0.025617427632797164 -0.10416738496951457 0.04528166267248286 -0.08898197144038884 -0.03638912658513916 0.10402109602214968 -0.06752195820298654 0.003035547591386339 0.006867830688553324 0.2583737838585388 0.08632589772404198 -0.20015261276454271 0.16251806680597275 0.11795051467775436 0.024224848565543577 0.0870872840770155 -0.07471137877962607 -0.029175831073289457 0.037648443410338725 -0.048969732766610964 0.017469950356535965 -0.07324805428326736 -0.036349480698091276 -0.07134516925186635 0.05221889089201573 0.062412076976455524 -0.007408668717344177 0.028067328504158915 -0.014666854370986939
0lHZgvruzfV1dlNrhkY85yUYoiq2 -0.07638758241215875 0.06539278282755458 0.020601036936168438 0.04124117478281186 -0.022560567514171025 -0.0691043974452463 -0.10481980634342006 -0.05217122523965584 0.07880026842128444 -0.016388307234920255 -0.11373707303822062 -0.12125605547421611 -0.0399109632011012 0.023435818175114406 0.017484587835673318 -0.1027132003888032 0.04722334482234986 -0.0007093460275985456 -0.10445947722132898 -0.011995929810293713 0.055487589808654716 -0.036895566613266685 -0.08901865784226187 0.026570851398262086 -0.09795814210748062 -0.03630375949501109 0.08040349443607131 -0.07640326800610678 -0.02065769418385997 0.02668935592586251 0.1993322179629538 0.06616700447781454 -0.1602440798416378 0.15916016844434377 0.10657228828318614 0.015652702515276572 0.08861087652571331 -0.04481156850111788 0.013693989749807395 0.010041574735532301 -0.031159065164434695 0.025977548588245004 -0.07366806679888269 -0.04251438702535802 -0.03187833267702526 0.04629812015927261 0.04346515809589128 -0.020107548555777066 0.022710761727657507 -0.007022255122307359
0mnaFvPpYebewEd56u8NbiYYkOy1 -0.024297801532770703 0.011532570502908703 0.01086257641916559 0.011923303850249268 -0.008604271317727162 -0.019686067521691882 -0.060573260883562206 -0.03126060307959395 0.036624890850721244 -0.0013151774588112126 -0.05870811353790188 -0.05296565148683416 -0.010680008980176422 0.012398584422078071 0.012229773527341002 -0.056688650605899456 0.011750827340337645 -0.01998486108603767 -0.015446395783812395 -0.015912624404419245 0.026210557721492753 -0.017706914187565967 -0.0193398615639226 -0.013353434134312097 -0.04296501494642575 -0.001141715129697199 0.0334204100520384 -0.02210305252737607 -0.005168306257965264 0.012333173149107875 0.10063238281161664 0.04900242395446218 -0.0692333119006779 0.04292641490301417 0.04598481357302249 0.021206562373187743 0.023998890223450038 -0.017161985447470662 -0.015151217396025493 0.01842223258549185 -0.028641794224054065 0.02120754843640461 -0.016220436133328263 -0.013270746026192605 -0.00742201744410595 0.031458270517494474 0.004959217493157785 0.007384426160975377 0.018165236419760367 -0.026067193221859512
0nJfAc0eNIQHVCcVmGBP6ogbydD3 -0.0010091819994891389 -0.0004576584728973122 -0.005005971433110733 0.005213760391022032 -0.016137369963433592 0.01017455095250553 -0.004010350487468366 0.007675060384187878 -0.002819184407248614 -0.008656096919804582 -0.011911273068577193 0.004972401049705972 -0.0012387996603861774 0.02123371321120034 0.01434139371121414 0.01526594170337531 0.01043180952069813 -0.006258591384787494 -0.006462684871138285 -0.006034959449105063 0.003614167802083288 0.027410482115486624 0.005239895184130077 -0.005515547980085946 -0.004956093205487208 0.013965103078412177 0.006309382064737191 0.003144980857467618 -0.0011839951414238591 -0.008887136737874954 -0.020585264596877526 0.018219515536447413 -0.00885820529402 -0.01527390199898288 0.012896991532610088 0.018668276907463057 0.011337724481316168 0.01298199127168578 0.009587436837954799 0.002671380879849351 -0.004992693498062615 0.014785141945215893 0.01585875728251362 -0.0022882071118141547 0.018367200390923984 -0.009841421309790018 -0.010465526385467796 0.013258236071841671 0.014997529869111624 0.014782987932406578
0pwkvZKwuQUlbhhobGxt7zuiMMs2 -0.04916126299114215 0.07789290688865648 0.041047146110710094 0.044765295089616956 0.007888809848086183 -0.04450621267991934 -0.11814940769113387 -0.07236838393243769 0.09641539140943636 -0.020061566628176045 -0.1339358701599218 -0.13153080543853213 -0.07254591243845394 0.05799296579234475 0.02476774346567828 -0.11331732516506757 0.030194468265535606 -0.02915090726418854 -0.1366569651702036 -0.01871187414574624 0.062417302926848356 -0.016969337922025277 -0.0945289592940856 0.039025830911250683 -0.08628427257820626 -0.0173284515856772 0.1189276132176996 -0.09818386052004377 -0.004730750311081642 0.009035482072512062 0.24146610954252729 0.0682730710504856 -0.18494120613999865 0.1750471431559806 0.1296059457698431 0.024536403633356584 0.0850405957601283 -0.07656494102477185 -0.01849278734343869 0.045214578084978696 -0.02933407611784275 0.031440083159276086 -0.07211131258736733 -0.041818575638276165 -0.07413871836101311 0.05077805725834876 0.06071881544964382 -0.012730958288571643 0.033436832332334486 -0.018501879719560133
0sPgFx2YFhUFGv0LIOJ9ukrfON83 -0.0227612546065629 0.04515969154873973 0.026404642394134644 0.03278530538423926 -0.013554754009873519 -0.0196715121909537 -0.0843063919986562 -0.05299530365330774 0.07723157273824752 -0.002099454234286944 -0.08500298229676045 -0.09128305278864857 -0.054147735687303786 0.02698698110980706 -0.009571967821614727 -0.07509264230270278 0.0060404657873957815 -0.008294977080426352 -0.07583726748494657 0.012250291657605642 0.05239203927999895 -0.025275376607264727 -0.07770754169473906 -0.0008949579899315185 -0.08258376679477743 -0.0330444459334978 0.08187219600125283 -0.05391019897674843 -0.01701336895839837 0.013740516568355073 0.17324575009821977 0.014715038776173386 -0.09819624968273806 0.12063194498549139 0.09848554540047534 0.012777915873229398 0.059928063897736444 -0.022474824921998898 0.006435260363614192 -0.004911678717712647 -0.021385295347041068 0.035368010846255744 -0.04305559199786738 -0.03564694996694644 -0.03411889342322416 0.027793348123824613 0.030062956013735258 -0.015277169442412532 0.03216842119779593 -0.022165761451756878
0tQ1rir4ODXMIxWS9gwzQHK3K1A2 -0.08759546844062435 0.1223707957654899 0.03797823670947502 0.0707131812675104 0.0002713834434593435 -0.07075607187648275 -0.139383582572109 -0.11676723473432257 0.1933457354034253 -0.027397139596166954 -0.15430395541751202 -0.11378830957299486 -0.06260163147784324 0.06801145081597895 0.0844150295501272 -0.13268452703230468 0.08368081037061485 -0.019035586558791874 -0.12960213255216374 -0.03333952861105717 0.06064381462980219 -0.050922588663792304 -0.12447285323251514 0.029575500841589577 -0.0927146530501769 -0.022047670647386778 0.10109740718223166 -0.11344438593647234 0.03395109426287154 0.012303940404283079 0.2930055492378894 0.10093253583140714 -0.24814788143069055 0.2511367656081839 0.15676913415995294 0.0391563065517357 0.14225945905383983 -0.08247870490088656 -0.016543173310810098 0.03621048164671117 -0.06241822402598636 0.02999721440986521 -0.07438883920450212 -0.012350528450106915 -0.10457338425847858 0.08359116403588139 0.053004839572002777 0.020182315435939232 0.05656065671923623 -0.03388345527617683
0ud462VNemRli3amjswER4NnE4m1 -0.00035513025278140204 0.0070303371188922496 0.0006257388125184232 -0.002422195918605762 0.004306855383837176 0.002796056539382845 -0.006437662952679633 0.013934510821304109 -0.0034352519758600875 -0.004684591844819101 0.013020952034279403 0.009228526120145677 0.004380526507569608 0.0002613024988597494 0.0024543136313929788 0.005238368956439432 0.02248666001503362 -0.010689261648913005 -0.0022660979542433253 -0.03071446695135701 0.0005751601354659635 0.0026317679348741457 -0.013439901727639064 0.0022888306093742216 0.0012775288642172065 0.0040382132100759685 0.004519912661037058 -0.004724457542904624 0.0030104872931786242 0.0012899814918205439 0.004251483581003619 0.007261317372734551 -0.01635272948732485 -0.002637567242275456 -0.010424938290998007 0.0039552328174340115 -0.0262097026977518 -0.0018498984912187933 0.0068381830391922365 -0.01823955971284133 -0.010818308632768106 0.007424124394533969 -0.009232793856865902 -0.010517020710497203 0.0034658212049278685 0.014131904969993446 0.0008141367767831692 0.0046949040143386914 -0.008116056490956241 0.019303546909023316
0xnD077427Vi9mSIVJJjER1q4gP2 -0.020650242076648805 0.0366798290069606 0.029882950288610256 0.040025931866847976 -0.022271075444643157 -0.0005845984552507831 -0.06625420397824114 -0.08164722854495167 0.06444934948208308 -0.006630810939595207 -0.06536883188979689 -0.07849994961421485 -0.06009338265878407 0.006485189500554539 0.011621388982692119 -0.06765124417905535 0.019384673597634308 -0.0022322362124140888 -0.10081265268148211 -0.0002662547071894776 0.0786505325031343 -0.05240522010556615 -0.07836929931351395 0.0063425348498728565 -0.10467415662532611 -0.025916173860628326 0.0674249517128878 -0.07233073369700031 -0.021842631813341354 0.0015939412738250514 0.14191003927311258 0.02909490123425528 -0.12681660065343714 0.08363067399164043 0.08455820438828887 -0.00573862100460241 0.0630789399933352 -0.025220499749405115 -0.012648699690319459 0.033507293022187155 -0.008819848780323774 0.03755194024680663 -0.02422309738211059 -0.038549527249192715 -0.05913352839188603 0.026525540871476554 0.028976793192241054 -0.000888245073152529 0.01893261446367991 -0.026793814024680826
0zBnSYVhNpSpiXgJGiMWOVe9heq2 -0.13198539529914147 0.16864170701145587 0.008747594798193929 0.09327677654495584 0.03834259368882308 -0.041374705132195044 -0.1981759476082121 -0.20443850107462497 0.22850121598093645 0.011238140824042068 -0.24908074199669358 -0.16057273878577114 -0.13116568589153788 0.14058929450549174 0.15787614579710418 -0.24764541394747824 0.15708917948857076 -0.02728596959537217 -0.15462200857744982 -0.07786638403111731 0.07267394252036102 -0.01303807276621352 -0.1639193543768354 0.12109898458326468 -0.12730627543990491 -0.03797751335339575 0.057598090574423 -0.23332741204664195 0.060429647420899825 -0.057031428785768376 0.503726195044449 0.2385789602331146 -0.42561806025920046 0.3490407512512123 0.24311724342484803 0.06099800147560538 0.21509711949149452 -0.20510509334446808 -0.05807249237123164 0.09196565954302378 -0.1099619427821384 0.056332984060380405 -0.09899023166588429 0.03613842820906076 -0.14058387725190385 0.12330329509223519 0.017017688595445262 0.011297904130196589 0.08183476269704949 -0.058733000650769814
0zWv1l5nFeTKt97cdBt0w2pGaeY2 -0.15522221849413836 0.19424119136697696 0.01806719659548169 0.07680049017717518 0.052696605167008144 -0.05144997202959164 -0.21304204004343205 -0.22990891599454194 0.2779059692416263 0.03689712343364355 -0.26539199651148676 -0.1497139059223733 -0.17664829313051048 0.16775773542625022 0.1652107142983014 -0.2740115282652436 0.19113549489436954 0.011104688697567002 -0.13115120819095605 -0.09681341458447625 0.05378299437140049 -0.006467163570740488 -0.17063614558132323 0.16310698916597788 -0.11943114152361753 -0.015804775615875954 0.03598039638815183 -0.22963850221200546 0.08345179476365738 -0.049698720591841515 0.5669666035100086 0.2192295581240094 -0.4580855037892913 0.3718141207138812 0.29812537609211487 0.12247820871277919 0.25766621567207465 -0.25402265570008487 -0.05606657513213109 0.12314698510832628 -0.1318659596304478 0.06717793369813332 -0.11528516830054732 0.06396533715386346 -0.16931529700948195 0.12113594203665629 -0.00513489408780535 0.06236886023474388 0.10747727777195085 -0.03796772415336164
13vRSSFGJZgWLIV2C69A4HhBHT22 -0.07845584897322339 0.1292700898046765 0.03792305689071272 0.10826841330648734 0.006232567860780045 -0.06062439222186627 -0.19006633018865293 -0.13630893241331524 0.23166081665193494 -5.453978035645419e-05 -0.20704644987763543 -0.16166346557778338 -0.10705621156843667 0.10283769317321441 0.0874804800395862 -0.17118743458833147 0.09787739532107725 -0.038911381661031454 -0.12446246965291323 -0.057475534034126474 0.07243336756561786 -0.02645174779872793 -0.11692079559250003 0.07986222644396039 -0.10377959868071672 -0.04275316213266668 0.11082443737627747 -0.16350060184195833 0.027354952960029922 -0.036930583736791145 0.4247396355265616 0.18427391054713552 -0.31871879825154026 0.2804900362719068 0.21356950167024769 0.05644813006134304 0.17328051551227402 -0.1041027737908111 -0.03322707619194066 0.054521062130686 -0.09524420645223618 0.05944550344089763 -0.054928469319054575 0.010103960400228061 -0.1069141100366623 0.08940152590441258 0.06479201296029309 0.027034127169923185 0.07709941405798305 -0.035781381292119635
16dCX4UQ7QcL2TGVYzvqgUUj2ah2 0.0030796885521603423 -0.0015880843363321935 0.0013237584032993654 -0.0028503823845487147 -0.0015308180145374704 0.015578622816523852 -0.005447019389288115 -0.0014181327388370823 -0.003076233131552264 -0.009833282067231637 -0.0037500754880500304 -0.014279172325104316 -0.0019182364610882666 0.0011729641390946335 -0.01062977600888075 -0.0014617963802997355 0.00967374789091025 -0.02331954240776942 0.00017236841113531717 -0.0069075967896892135 0.007565613507123086 -0.002257257842406732 -0.005512265821266285 0.0053962090063460035 -0.001830785427293417 -0.004459144135555019 -0.0074371792938354485 0.004635779198167871 -0.01827465557905596 0.016869541724943912 -0.004391317416778611 0.007018085019825316 0.010835837269995055 0.011353634401253095 0.023878100666185974 -0.013268778972034998 -0.01640931669757318 -0.00819493210214373 0.007337271618967104 -0.004439136116986523 0.003381891792324936 -0.00027443222051630754 0.004747168936834472 0.002137831136877572 -0.010690187221659344 0.017612287076508804 -0.006476744524418 0.008729616048194683 0.0007669900464000329 -0.00790487838119849
17AdRxxlOkZb4dApQcdtQ466hw23 -0.037470629015709245 0.05066652290729481 0.027122778891476372 0.030607828639025905 -0.016277695937679436 -0.04927710676211017 -0.08204317749211507 -0.021425330999800114 0.07830572213206624 -0.03022736991316107 -0.08185581248663501 -0.09482450369343073 -0.03226526171336228 0.029984504392627148 0.0045143734357622175 -0.08598268557082409 0.008188035570805607 0.0013835303980712275 -0.08666334681513611 0.0008908969432803986 0.050031621893253685 -0.034495970848882035 -0.07654737923418088 0.014220773098211844 -0.06460589157259897 -0.005182785118687076 0.0667636309750764 -0.01060219342512651 -0.013121998689436368 0.008703283321532095 0.15571142426496906 0.04715681122824976 -0.13059934759069383 0.09500959248179902 0.06701322976639267 0.015515804819475131 0.0734674842996543 -0.0011032548300650782 -0.0031042471315844825 0.02372745223548338 -0.027099893079654942 0.03143983996694978 -0.051515018818947905 -0.02861109278705757 -0.04008552128385796 0.03263080771012495 0.03733388402832636 0.004024231643721385 0.0221086530555995 -0.024243517199784067
1CN9tlNySxUYt5xxGOS7t8UiMOs1 0.010338007325554992 -0.009282613669309301 0.017542094573069805 -0.003492219594585393 -0.007112988477493091 -0.0018260285162197893 0.005317476683729613 -0.005566034707695492 0.026697355204458945 -0.007024934684121055 -0.019615095120255128 0.00409172410067749 0.005525582753898888 0.001438660056359792 0.0024937347428558346 0.005078725375089189 -0.011041673202934426 -0.0028347012688079067 -0.013851628304423888 -0.001050694617089138 0.004662621552047383 -0.010258176210417492 -0.004246849492714291 0.0005859237672963867 0.010978696963999916 -0.005955023683175047 0.014687490401231693 0.007314033337875487 0.006160255901917176 0.0033175668515588903 0.014102680290476175 -0.024581507392048275 -0.00987743406668916 -0.0030769230872024172 0.0002764647884886803 0.011427849865671514 0.026667014012209975 0.015411892698618793 -0.024978441702871668 0.004118120992954239 -0.0037550327494103694 0.006612430326799987 0.003148443299228747 -0.005761642379406372 -0.007102899789454778 -0.003961180860752383 -0.013929981829385986 -0.0002785240708796054 0.02188481532128939 -0.002337930444132496
1D7KwwdJXjNm6DcKkaO5qAf2Lvx2 -0.024004536338122957 0.009123283020991604 -0.010262814609739067 -0.008361778591810577 -0.007325484576470464 0.008289226245799631 0.007375489080988332 -0.013264435208532061 0.0017232748161579623 -0.00442266970743723 -0.011535975783620181 -0.01538738525686876 0.009900234443363014 0.0028308405489583218 -0.006421568481306337 0.005984111838314631 0.018560826779277683 -0.00130240827744961 0.0019329711529090835 -0.003567568174114286 -0.00480414490828242 0.01089266436062481 0.004164010314687435 -0.004406318769778928 -0.014649433582342426 -0.004215498953639228 0.0013424390252460869 -0.009031799092253542 0.007243388906663935 -0.0021947828224447735 0.019173033875712134 0.006910445296532635 0.0001654363617654931 0.006732159838154419 -0.003566530895553285 0.010881390572785863 0.0014202556260292402 0.019887969709610324 0.020955344247724196 -0.0013542363724847026 0.01409754652838578 0.003131157211666961 0.017487384595345098 0.005212852382907074 -0.007971487574299429 0.012798685992693999 0.006042946537574598 -0.007308637486686129 0.019791470864659755 0.005883346393652036
1IxtYBzS1TWk99FTwyxdNm2qryd2 -0.19271864636329467 0.23557266198741908 -0.0036830918573844767 0.0893264540652004 0.027697954977367014 -0.02055898109657654 -0.23054128803787052 -0.2940135359412811 0.3283982084052876 0.04642733201625607 -0.3078421051965302 -0.17162791379644396 -0.2267904706592664 0.19082465032329826 0.21825894495001646 -0.3282481775969955 0.25212113465568436 0.005832770315346236 -0.11342418311593795 -0.10779754705518718 0.04757437576967253 -0.0020361344143003807 -0.19430863450513683 0.16693558054792548 -0.15515611733995457 -0.03002877938593469 0.01461567744546583 -0.2810981211333111 0.05659009917122859 -0.033073011069190576 0.6463272246180284 0.27354659254594293 -0.5385516726423657 0.4330341684917676 0.3640097381978624 0.136367166221751 0.30332333847399223 -0.28974017881077524 -0.07247041136810356 0.16300061903480542 -0.1913093671686236 0.09785100234055334 -0.15890700908138802 0.09605828568846604 -0.18759589759659565 0.16574943621095448 -0.04148596506650759 0.08216889882860284 0.1040685176565369 -0.0663443965067218
1LULrepajQXwH7BeYt0zKIzYPrq2 -0.011426312890227634 -0.018196795708334407 -0.003406710546952877 0.01753314829353274 0.002803306925441164 -0.005583077055619875 0.0070449775883267484 -0.013653629163234635 0.025501299718022025 -0.008002729041964595 -0.028157956781667784 0.019443828065638366 -0.004281496194443348 0.0087431085188413 -0.011098090227665232 -0.013529259029174207 0.006381528137193428 0.007114960158196594 -0.0005729406249901054 0.007402436783219617 0.009832231542151727 0.015701625105344716 0.0004935644556527247 0.01999216699842919 -0.0002064011509780978 -0.0044037484583079115 -0.013544818468352938 -0.023759773975498298 -0.006678395287734813 -0.01440968407289472 0.009586219371890067 0.004860749343534961 -0.0026369827348797746 0.001422182702035824 0.005599771666258856 0.0019400603034297713 0.003446960260274293 -0.00077078914369428 0.0006442093104559899 -0.007451326399200074 0.005450632474436852 -0.005798919311504712 0.005491252676495948 -0.014021855435140682 -0.004127914371929289 -0.0002771246001466191 -0.0028150932898632105 -0.0012563159297706882 0.006575473888685325 0.0001980703052162058
1O9vD38TeVXBib50D08p9n0FsQ62 -0.12471958520352995 0.1792640323615152 0.0266536945187328 0.07011561771412937 -0.009251327368818132 -0.052912789647501464 -0.17955781252192687 -0.15112642923121505 0.2226849241244577 -0.023818135679646156 -0.22348258213434816 -0.1581427329404125 -0.14506585193260754 0.1109099042606789 0.13298608276227483 -0.20016576333840083 0.15212716156574752 -0.018036499018553587 -0.14830735016035873 -0.04818343642802265 0.0588231728360091 -0.05212796029438736 -0.15561700186056115 0.09000480967093377 -0.1197264939905563 -0.05070297262765312 0.07835599251018698 -0.16829072928635316 0.027123038404891643 -0.009985815468304047 0.44486567448525005 0.21244408059210074 -0.3644625637032031 0.3031664556473136 0.20896478567668492 0.07274179140342116 0.20539371630849593 -0.15825110432699954 -0.040048219471788625 0.058885779914442826 -0.12277191494295021 0.04435844006441431 -0.09325063621086672 0.013314490495496987 -0.13118884161441458 0.096748649166643 0.0390567233075695 0.06322062331823239 0.05607093612548564 -0.03662035601628393

 -0.021445728993050195 0.04466512129349862 0.031185129532066903 0.0395173961215798 -0.017501728485732112 -0.003936134266329839 -0.07876672487828797 -0.06572115916244188 0.07141613185793275 -0.018559712217834288 -0.04664176699425741 -0.07993959268431872 -0.04273717751099092 0.037456662426519176 -0.01193868691767834 -0.058251936990375786 0.021824841622324072 0.005986595095848585 -0.07736264023162073 0.007377608460968264 0.07563295086909388 -0.06574083443964293 -0.07325726176771152 -0.01749604452795709 -0.08495447811705943 -0.024919720678936542 0.10069422955485872 -0.07815715996405907 -0.03184333511774965 0.018432226254991448 0.18333895352109672 0.03813521038404691 -0.1026954095632259 0.10559682315890438 0.08981989811828713 0.012882043488668862 0.05810331664204032 -0.019871182169206553 -0.016797466980555203 0.02715380916591735 -0.00774302673785713 0.02210698431079323 -0.04815932042644499 -0.03639083875937892 -0.06282960224144958 0.02742023466374659 0.01798752550889759 -0.0030602435503731037 -0.004384938124508652 -0.04539739606862942
Hey I’m Shobia it’s nice to meet you what’s your name and then I would ask about their day but most I’m awkward "
 -0.00785435211763197 -0.008685827796466337 -0.009899363648539819 -0.0026641879728282396 -0.01898076834818176 -0.0025131957716533824 -0.004417226191166108 -0.009319557185106714 -0.015952979454229896 0.011999112729511657 -0.007604812175001823 -0.0032740371558367064 0.006525817534582621 0.007752074015774415 0.006840612251151352 0.026465581335786154 0.00047004104650749407 -0.01570588519579867 0.007343917406545115 0.004353984426717132 0.0006689787749958821 0.0004195280405922474 0.016378750501000478 -0.011774167817429269 -0.012001804525414392 -0.001109204883776808 0.005055047344931316 -0.010519953429188293 0.0006077530432056011 -0.004229221044081373 -0.005123962806421768 0.010287833620366543 -0.014248941005394897 9.13742651300722e-05 -0.014317748525754001 0.016131145611506678 0.00020025430783718627 0.010469827026929848 0.00921780424221213 -0.0012169106739998022 0.001148544592990645 -0.005712792283869664 -0.0028397733750942012 -0.010285880467333362 0.007275017805981939 -0.01062256474134137 -0.010408688527093478 -0.02271447454457789 0.0056196551681465205 0.002518535011622159
1QiZdM2KTUVpZQw8pCjAGR7rkM63 -0.11545059637726968 0.15326600618330208 0.029328932152532017 0.08774538989353504 0.00982679278817576 -0.058182441073019106 -0.1685193189493161 -0.1712055783594431 0.220855182870685 0.01608409836099773 -0.24354218926894314 -0.15348914994699875 -0.14384346916954324 0.14166546835648341 0.11745642850145978 -0.2127337624191155 0.14629317813629283 -0.012993301496382517 -0.15989793949948214 -0.0671602441022526 0.06259079950100965 -0.008998408844921715 -0.1242297788348042 0.10270310960415914 -0.12121355596130863 -0.018042657235360172 0.1088049171859095 -0.1692786654995992 0.060306175604009984 -0.057837583089119626 0.4696600133649741 0.22042424002447777 -0.36507814299360886 0.322455658058853 0.22686380296339517 0.08060621823283891 0.19785437940073186 -0.18381843546981647 -0.037332127245565394 0.08475898892660419 -0.1076379171885153 0.04566424091807616 -0.0544612175157639 0.03261904854173153 -0.11863715813028547 0.10115376359298336 0.037872350977496284 0.0888824731740811 0.06322091917553957 -0.023456089013774228
1TMiEopQvvP6nIkokmGplT1dFy52 -0.09461153121607431 0.1360305931753438 0.02827445303844076 0.09956728979202574 -0.01872826325113762 -0.07657473620470376 -0.19205858973218928 -0.13534692581819263 0.20303088909460132 0.0061036688998360325 -0.21656015484965893 -0.14529956282036766 -0.13483258302455592 0.1048054299986543 0.12351540463207245 -0.17088897018622157 0.0661689314685142 -0.01733461686988446 -0.1475619571797319 -0.05106759042374809 0.07644756087886836 -0.03748834507640923 -0.12353197569984628 0.0735779746706286 -0.12369326602272654 -0.051239771456099675 0.07520491255629667 -0.12313274898319577 0.059805356691944506 -0.039369784284037646 0.41476987420960865 0.19571624843296015 -0.3362738943070802 0.2697122311278442 0.20341285677142 0.04606658301601346 0.16226106680762312 -0.12396051521264222 -0.054046501043517145 0.027474421150146186 -0.08353456732168368 0.03720393621889085 -0.10075158508958015 0.017600233959022073 -0.12216010141994015 0.1157798084020432 0.04055540038402405 0.021166146611525383 0.060959374258257315 -0.02686449903431423
1WHhl6ZID1RraM7SnxtQJUJaDJi1 -0.08129097579755572 0.11472878722834606 0.041429041460900616 0.056867979539696585 -0.006654970159425896 -0.06740180410501222 -0.12747956982631192 -0.12753321525844058 0.1625555050286797 -0.011658632483511816 -0.1794064472848944 -0.13527555203240918 -0.0909698837627757 0.07805097046375553 0.06575466314092489 -0.14002346482266453 0.07247751859169367 -0.003250010448526085 -0.1343509676016442 -0.016305875893982465 0.07508740724689647 -0.02968032864719858 -0.11541443744817068 0.015979911396618734 -0.07287183474548624 -0.03166219811825577 0.08297438366851545 -0.12384528306067623 0.018694485469322578 -0.01242891164802023 0.32313271371961694 0.1379328078539409 -0.2824251271823145 0.2373515520886804 0.13408045535744542 0.033855467251332816 0.13689958955561096 -0.10054918495368559 -0.018206886264829244 0.04808115641399554 -0.05367020739153615 0.04333294134348464 -0.07569047748806378 -0.0026404798604030798 -0.10202827253602262 0.08852109768332452 0.04311436526698353 0.02962322687933265 0.046160969457863514 -0.014909417838772665
1WRL37m0ChfnvDK082oLVIJIwXJ3 -0.009262543135302259 -0.01563353919153246 0.00493437162640177 0.0007401256296704628 -0.020064330976712945 0.0049762314746926144 0.007162692437870386 -0.011297085273585836 0.011693201599391035 -0.0070903681587176515 -0.001504503410489089 0.0024358699266392174 0.002187326111599438 -0.012792509722908366 -0.0029619868879548275 -0.00895065536946773 0.006851203312201452 -0.0020463410659341714 0.004873441400654617 -0.005755610185765739 -0.005975977273508094 -0.0016478283897088236 0.010586117687199102 0.02287828388368394 -0.027078227260637088 -0.013049028596938177 -0.005437010504532789 0.008225392513181452 0.008442572768449301 0.01776835231629843 -3.427026999234806e-05 -0.019729782396008637 -0.0010632016585422044 -0.013091849537841132 -0.0071053170395053945 -0.0051621284050567765 0.006525015658000695 0.006444867052394577 -0.004615714229756111 -0.0029264423770295096 -0.011027052292790978 -0.019696804327340424 -0.0036460963494393834 0.003499557473163506 -0.0075641256157556935 0.005875913994967626 0.003520840748500316 0.005363946544249283 0.004339447298590821 -0.004968340634579536
1WcsDWB2M3fLYwtj0BqElETr0ll2 0.020078429507780004 0.012513969906671581 -0.003102760970731106 0.016219302990824126 -0.009267292928960346 -0.01128005416142931 0.020437672770007773 -0.0026544217584041074 0.02172284100979942 -0.013187178303640823 -0.007380729026013942 0.014638258611167996 0.007823938912350501 0.003093224103305627 -0.0017812884559161987 0.002910339254698217 -0.01061897480492887 -0.022934094604138342 -0.003782274239636846 0.008042221143504908 -0.01649528159286834 0.009411044104755597 -0.0037959073615386058 -0.010737075942809364 -0.0023611370679092803 -0.0001226290801778662 -0.0016326579283758324 -0.006036213327192952 0.010757214754879061 -0.000625450163107188 -0.007843582905201185 -0.004741529802476925 0.02755226772819016 0.011544582618635689 -0.00045759188351143933 -0.005562521678572743 0.018616520479225268 0.015678437572724517 0.013326569818509597 -0.007233004325074498 0.026635731196009767 0.00654533904397937 -0.021041403503252752 0.003489062555472772 -0.006105933652756417 0.016263327400018002 0.0050278303169185206 0.007952597210394045 0.007126841330276047 0.0018001658861796744
1XZmmarESEVbvjXCtu8myfa1JtZ2 -0.05897124470328916 0.06778072216572253 0.025281226877256632 0.03979911892374887 -0.04256310000611177 -0.05600832642933364 -0.12174903389524758 -0.08747673445791251 0.11612492751673849 0.006104010130094164 -0.12280862148984056 -0.12909578932082044 -0.0619529402110127 0.0467090241329718 0.03671803910582527 -0.1115061817244161 0.05636376430525322 -0.0013954996873166003 -0.12837714993158478 -0.0058862778681809036 0.070943255639009 -0.03976904794475233 -0.11207280327664286 0.006945991199994231 -0.08325352870102949 -0.039495831728272736 0.10691733800412602 -0.0787599226155979 -0.02628607787863175 0.013673591351333616 0.24534086839129182 0.05988366442689057 -0.1746299716657359 0.17423782173456054 0.11607653046310468 0.010199416114006033 0.09934924263223315 -0.06525427672109355 -0.009425949876932788 0.012860482451272713 -0.05097391823624323 0.029958213716148985 -0.050113103313795454 -0.0416277091553404 -0.06570172314314347 0.05494010611354532 0.04643425691162034 0.007639731687011668 0.05863793999654122 -0.03804474661559199
1dlCy2OnyzcVBPs0uiS99XrWUJm1 -0.06855549530283482 0.08757066586910436 0.06067882445467222 0.057446404609154185 -0.01588316026594491 -0.05774883136420122 -0.11083554518087814 -0.08790990852094138 0.12018985391398732 -0.014286747678787036 -0.15114570544892994 -0.12600296584521792 -0.0655798246890975 0.07736224727344927 0.0464347717859345 -0.10991712784829182 0.042850911248810415 -0.028210516803213504 -0.1364814152128268 -0.03646551669711507 0.07950208324685416 -0.05375128734330129 -0.12155178608362746 0.010348335309665837 -0.11152069585261712 -0.01846365211660586 0.13370555684479363 -0.08579343969490559 -0.0048964720884086725 -0.03076614539526023 0.2698379977146911 0.08813334741368942 -0.20138344003973319 0.19128717791546462 0.1331353889513695 0.023251423885589498 0.11089831365688482 -0.06982654972911578 -0.013686221610755868 0.048309070238305926 -0.05982318060415349 0.04643692455932425 -0.06460863527116094 -0.0464602339227647 -0.0678071388854065 0.051249383862449 0.061929642479915725 0.01904260327659744 0.03957591784988096 -0.02999966688042029
1f1XZ0AOCJerTVwrmevo82lRyGh2 -0.021858429853273187 0.03937923353601479 0.014640643636569618 0.0469070313225383 -0.003833847053340605 -0.011050030362723047 -0.06246910547058454 -0.03827215244703152 0.0781740747524533 -0.0071957861748904355 -0.0964174769893864 -0.08093878740249408 -0.04850678697020055 0.019000743649351292 0.0009176194564785136 -0.07105642702705468 0.03480794676750813 -0.006567915688561851 -0.0841702455285992 0.004920829555305421 0.058077376661975676 -0.04224229453091066 -0.07546265462327015 -0.00022410224690655705 -0.07157398655630505 -0.041993817366530004 0.08508150542860098 -0.03716072885255241 -0.004995496891112014 0.01028981004884048 0.17311901550189224 0.02914392165533354 -0.10972403013733453 0.10003358068582159 0.06901847088694525 0.012147297979660694 0.06089439396593028 -0.02912195516990173 -0.019352187059159746 0.02492963528034975 -0.011006336414596824 0.033678949343916444 -0.0772784849432644 -0.06609182747528984 -0.034322068575251295 0.05094542734127336 0.03177155385356189 0.015197907720152453 0.02176855137436431 -0.01911949933696119
1hEvjcD8dzLRI4eIozbkH6wCNh82 0.00039512686693366704 -0.0037747867981909253 -0.0034327053925840524 0.004963730237697405 -0.014158374899634493 0.009775061483962856 -0.008577207368426295 -0.010539754258206814 -0.007893144474396355 0.0028605255961715 0.003367715694072736 -0.001255724935544672 -0.007870453665107333 0.007035047608730705 0.0010160125103740305 -0.01622251586589629 0.0016380961636888547 0.009459089364133557 0.009072720954363763 0.0005366181838329813 0.0024236450427177546 0.007788093256303269 -0.019333723927578955 0.004362709039667838 0.0007211692053614246 0.005881784806985476 -0.009840010032595525 0.0009319806273485232 0.015240750846134146 0.02278627734435034 -0.01653543340899789 -0.0021686085723970597 0.0022468909312994526 -0.013950221366932261 0.011543923671966858 -0.0018614915382135118 -0.0034671142087167863 -0.001044810662784479 0.00793439418391072 0.02067721712881665 0.0024081532048283215 0.012449855511287172 -0.005894673466911745 0.016678357105279432 -0.00789044509378639 -0.024819268791002817 0.007640849622424293 0.0005456922849448504 0.01799743425306372 -0.015865034307700084
1ms5FOqSCrMVqRhhi5T8nMoLwEi2 -0.012030960367039092 0.015150747220965327 0.0346638276335474 0.008715740124130247 -0.005272137155950129 -0.024464471924426648 -0.03202511864870478 -0.02816646960134117 0.03996564336453829 -0.015469554062893087 -0.05049310350576271 -0.07953257640116253 -0.025533494864789334 0.02270428468617526 -0.008935734597645278 -0.04779242815684737 -0.009336680693729027 -0.0025807920615898293 -0.04069620355838539 -0.0062907542951882245 0.03495253981551501 -0.0007985451570259637 -0.041892423244152176 -0.004116462925000089 -0.033245212398785876 -0.009661477645056541 0.07358149700916944 -0.02179334287772778 0.020669154706575987 0.018326123239526954 0.09436993030040408 0.018541061913064493 -0.0741054921261984 0.0634833035876162 0.0426497814427643 -0.003330826777798842 0.04856098004864861 -0.023421486589717655 -0.014712883364769109 -0.005669816536816989 -0.008885595708203107 0.01268402897670806 -0.012239497072654764 -0.01273795496786318 -0.0095202977736624 0.030784873768514076 0.0015964422279738668 -0.005974574703360789 0.025280824713426672 -0.018044233603280103
1pHpjLDMFoMINRvF8YZVPOWa7nl1 -0.10643692213568212 0.10882537926121436 0.03821545489840121 0.059184048448893856 -0.021938010127546967 -0.03567751198524883 -0.14060019748348176 -0.09082970587669434 0.13058965342006326 -0.01659264947885858 -0.1388306689702559 -0.11613388362555914 -0.08144847801559192 0.049765730327991385 0.047325805631427416 -0.13963641859589002 0.037986335350487656 -0.015926773337438246 -0.13011856676599554 -0.013629579425232904 0.07088506410898034 -0.05503820940198545 -0.1206179014122615 -0.0017587299877788098 -0.11162420103903695 -0.05134077293131714 0.11410209341763394 -0.08594326018554 -0.010358129884255562 0.010418484284224983 0.27656288331308254 0.11215096230036958 -0.22178983084305734 0.18744854028004448 0.1520445028862708 0.018498903805834747 0.11579547949011726 -0.08284020890327125 -0.030239637506338908 0.030083079945269237 -0.04611756620707652 0.04683254298584704 -0.04912033451950262 -0.0507734726004451 -0.08759525878917548 0.051064284519078705 0.023869202535531986 0.0221833031236785 0.03943896423639543 -0.0267959260769556
1qdDqoXqgWYZOja4fTSbcsw8FYJ2 0.013211056154702059 -0.0017602810951463854 0.021325936567821713 0.011777110639087675 -0.005300041339381322 0.0014954419381653658 -0.0050650993439271584 -0.019215727719735495 -0.002512628372330358 -0.018658715551588566 0.014481579813341175 0.014376927942506668 0.008329429890000269 0.001154376152552276 -0.0026633237962711397 -0.011830229364647891 0.006872374660955339 -0.003716288467243789 -0.010130531110172885 0.011483087090665364 -0.004754938981309487 -0.006506964924007639 -0.015695624984044598 0.011901885412420267 -0.013370093194792277 -0.006643873546539777 -0.01758935168115101 -0.009233255624434934 0.005575759985177097 0.006601977921637292 -0.003564436829273883 0.01448672720202684 -0.008845539734656002 -0.002020831767109312 -0.011196980935452324 -0.014419157479508837 0.0067030824614534405 0.0008886096608018604 -0.013009491920330876 0.007030972268868756 -0.0021792972340969785 -0.00212496909849973 0.012140140133246588 -0.002071972272838608 0.0005540427034143488 -0.02278899771583809 0.009561344296721426 0.0014951444955739915 0.010590356176718458 0.005645969394419897
1qvS1pTRXFge56nkJlY6qkqPyOv2 -0.09207262115687534 0.12144058077209875 0.033832156258762576 0.05636111348156571 -0.010350425867277357 -0.06114503834088883 -0.16569717763718636 -0.1443466036872333 0.18138869525859028 0.0016356896136741853 -0.1894999399471496 -0.14699459482125798 -0.10627835482042851 0.0990322249599498 0.07013683645684929 -0.20014001076481444 0.09827029623760994 -0.0013263997524237835 -0.14356492376582478 -0.03257949599834467 0.08767468793835467 -0.038188185735655425 -0.12084701245923027 0.04109968421647936 -0.10306498415947006 -0.03180264324225918 0.10897878114711283 -0.15408380783445952 0.022961906269356274 -0.01858381308984999 0.35128021483198846 0.14800220392235702 -0.3047870575666614 0.23762253916491605 0.1753817976793871 0.04792541587689873 0.14405846486932597 -0.13244504632667953 -0.013342266543763274 0.06189038425004854 -0.08655940579958918 0.031947120481040696 -0.07317012605083888 -0.01883795786155292 -0.1078090953103699 0.04764819457127359 0.03300655887131775 0.019494127572786724 0.0554380684036822 -0.0025111804916024888
1rBjBBnc9YfuaBKecvrd05S8EdP2 -0.08221942430665315 0.1300025762663217 0.027141889396259007 0.05832892242184793 0.00011669200537329453 -0.04183227167825507 -0.14540997072036557 -0.11787041475444396 0.1943445880785711 -0.010032230653826711 -0.19883451705366928 -0.15665014157047077 -0.07777649543341458 0.11830293913753723 0.09572348196678362 -0.17219241799197677 0.10734379538271326 -0.024133954676581533 -0.16191204059392633 -0.027455890106319866 0.05917461409478452 -0.008172492258973986 -0.1153318268702818 0.05196760526916894 -0.08952125063651124 -0.04364693310953483 0.10383613306040368 -0.13647003212653339 0.013775813289465626 -0.017949099980828394 0.37132521094725374 0.15305217532237314 -0.28520216066612547 0.25168074864560463 0.16433129110595593 0.04730848564044375 0.16521164253447743 -0.1328827137637261 -0.02253426345507668 0.0556665563894073 -0.07455906740542857 0.039269206606740305 -0.09304976847916083 0.009899721944028193 -0.10529119178415418 0.09177672243473942 0.058072560374326385 0.03894459421411644 0.05124334698243311 -0.017492145102019793
1uiMo3cc69Tw1EzJaq8PuBZZj0n2 -0.07091753005351682 0.08493151011279906 0.016494769988525865 0.05316216555040989 -0.014411558173492378 -0.049973166684618736 -0.11438094179199526 -0.09206326084831502 0.17021581946296144 0.0029104215039360776 -0.15857939871161655 -0.1289022544469102 -0.06795260932821749 0.066851010032142 0.02828604872059922 -0.1535162326024223 0.0605579291888628 -0.028366472603588568 -0.135160947229198 -0.015044316420400477 0.10244623130445979 -0.06585949075121829 -0.11637986833011281 0.02212558031358781 -0.12026086721362049 -0.02763310881792879 0.10655529231219628 -0.10978019434846892 0.008953172992848781 0.0008671845990524403 0.294525066811899 0.09002655344774174 -0.23488565836481537 0.20971609413731976 0.17054929147810524 0.03347960892031156 0.1160889832051605 -0.08156866679591798 -0.015052628575217341 0.043577506808508075 -0.0640256704409225 0.020211801077280003 -0.07712199384681472 -0.034471524319598795 -0.08176145131954055 0.07132898980497068 0.057584258460011695 0.01792641472355196 0.036308247263835615 -0.02141258977860196
1wcoIkq99QXJbNbT9vuptv9Blb03 -0.001230296893888841 0.021237380542763258 0.0160708935998715 0.02970621352478977 0.008129894221077408 -0.011416399594219372 -0.038221949559925236 -0.022745579503882646 0.04067520087310498 -0.002897535181948008 -0.030701006679393957 -0.040763957109389945 -0.023551385100117138 0.028296349859616182 0.01031133853840283 -0.034249777265266325 -0.0021656242768016403 -0.015767128851029294 -0.05340009629675733 0.004729325491200988 0.03818636795719899 -0.013438006769876998 -0.036537165527662833 -0.0037905112761312883 -0.02888829633800718 -0.019362168142871138 0.04241238988004114 -0.003990421016931717 -0.0009144081306196187 0.0026984789731356153 0.10332875330969142 0.009055375511339331 -0.06055965619516595 0.05150801842886996 0.048568332537359316 0.004730108663579719 0.04772761898794402 -0.010794722555859813 -0.010357221924708605 0.017396787339703873 -0.0014725130600900314 0.02006914577174554 -0.009055275296812788 -0.026606876458330785 -0.025000586913852253 0.022766860834751303 0.02435554174927831 -0.00813675851569523 0.03158741979845752 -0.015290490771368917
1xqwn8BQuEWgazByr48aaHaA5YC2 -0.08362843097347812 0.12415263057257768 0.029347350554124893 0.05533914750663174 0.014543300918159948 -0.05548890642205743 -0.1557867606332296 -0.1273994334470911 0.153835123818865 -0.00568490410610712 -0.20157201266192928 -0.156560841588535 -0.11048022610426182 0.09717439935538334 0.09359850560164744 -0.16310056381758145 0.09328905013317058 -0.02624071212122727 -0.13676921634850298 -0.04881819577308824 0.08157899079827423 -0.024393806680622833 -0.11697492509545582 0.05817590186169373 -0.1314731353278232 -0.022326979548341626 0.11511336407514448 -0.13214520110340683 0.026310208493254474 -0.03251447262588451 0.37743625156974947 0.14740516002099247 -0.28582756550855387 0.24624987918009142 0.1752169886878458 0.044409456287529715 0.13789871916149915 -0.10196984614217681 -0.019953290950431503 0.05388667310219455 -0.05631779666319937 0.058565407481078996 -0.10075303911952306 0.01429564533819057 -0.09065575725569305 0.08626879874526347 0.05599066570128045 0.02360920840824207 0.04617078749505747 -0.03694619938442352
21DAzAFkZEhevXeYtzfaQr6cJPz1 -0.03626419586532808 0.031043726934222426 0.04180339351721708 0.034758195607734 -0.022331866966766575 -0.053571085781308356 -0.08471688250202238 -0.057068878066461645 0.07387325411368427 -0.006918532426761551 -0.08564458536030606 -0.07282448922626239 -0.06219851510273294 0.0263004964653381 0.007006699828199912 -0.09787359597023897 0.007822309497243394 -0.00714472465596477 -0.102216158836881 -0.009639738428058627 0.07001145999990191 -0.03566033492926091 -0.06779893880811184 -8.191093141998501e-05 -0.06219852148355338 -0.014616984280930612 0.09575263005707611 -0.03542975898583449 0.0041278869592856135 0.019399895470709624 0.12931406546621357 0.033427347750953094 -0.10633272257845197 0.1261664186894906 0.06860562670384511 0.054667814816569314 0.06600397224357203 -0.017030147230458665 0.008637120717966636 0.03835422974311417 -0.034286088465699215 0.029195963331609082 -0.05224622002480855 -0.008150157892425132 -0.04900322605623557 0.03631207176290704 0.017269746476748157 -0.010381872139287826 0.011002636775849289 -0.041249652807443915
22mJfXkvlEUhNV9infDtq2liuDb2 0.002679798907624879 0.010168111326291942 0.017131022193433414 0.016433818967238115 0.0012049634486012949 -0.009748205090783245 -0.06041448184221269 -0.04442051775652854 0.05260762926128217 -0.002502101283127056 -0.05286971068615907 -0.060844148075689164 -0.004864916262077852 0.0016833564833789124 0.027865834409813068 -0.029976547715159316 -0.02868659496139665 0.009880907056745549 -0.05467828154559729 0.0032041409248657823 0.03468579111325471 -0.01941013677065334 -0.05583069878031984 -0.0027449962061006188 -0.023745282641133385 -0.015349085656340692 0.042357499617358296 -0.02839449688312841 0.008029856707920545 -0.003230536037330342 0.11095938426419222 0.029016088350922856 -0.04310066823911065 0.049410749548022125 0.04141195798142244 0.02773410883991288 0.04188496711920424 -0.030167882779485813 -0.0077227516663724615 0.024431769558235047 -0.008483349736366845 0.01254316900665713 -0.005795573966445804 -0.02416138896090277 -0.0456034621977704 0.016228165412643467 0.03099765193561952 -0.009828783948520175 -0.005886437993075577 0.0060775240171310405
