2860 50
00Ea0e5amtX8E2cJY0RvP9jGTuv2 -0.06385798435802498 0.19202541753287958 0.05721824232573247 0.17376671614419129 0.06467277508774431 -0.031901871019536385 0.13024849232315283 -0.13111060036208566 -0.06147930623731741 -0.023438325164587947 -0.011863712382363382 0.06930302382129208 -0.08746726003053469 -0.09716201132274799 -0.02943023258734356 -0.10701518246282497 -0.1148529019229195 0.012757573935807252 -0.09609019997176803 0.022111185291787953 -0.1628411521195644 -0.09540299226543987 0.053929103933354386 0.04482892886235953 -0.034736037534440815 -0.08191461997496115 -0.09503050848292927 0.035183418517756936 0.0004601812834048465 -0.031033478771626762 0.1479430885461138 -0.1632930689791548 -0.13735783802708318 0.2385834679794191 -0.02010223800284553 -0.1374903493888804 0.17564149348181313 -0.035520661591855775 0.11376197746059875 0.053106033554063535 0.2549082557725035 0.03188496097589067 -0.10986839601261252 -0.05749243594163647 -0.03069625850910687 -0.028340975794722473 0.059580424225621646 -0.14760983707548814 0.11389306803983881 0.20548041408151835
02mGIZGHf1ULo4FCL0avJ4jvbq82 -0.0653860943847496 0.17563225230975849 0.057779150355410466 0.19370277312357076 0.07327952628912449 -0.036565971431201334 0.11559700048868984 -0.14924094730210385 -0.0890012302412686 -0.07814752619586816 -0.02296194607932012 0.058255572714567 -0.13615230110445012 -0.12248290847636344 -0.023187741690697195 -0.11495985152047579 -0.1316593345584565 0.07388329392012417 -0.09106197196715712 0.005527050019665228 -0.17195007320141795 -0.11395570448491822 0.05318853623622082 0.02785848541180919 -0.03926598634885323 -0.10901403731129172 -0.10328028868305716 0.06367890731039415 -0.004801742178214635 -0.05256338994713407 0.17955779538744468 -0.13534685869771054 -0.14092874900159094 0.2522795886724254 -0.020949820623075 -0.1473434031980111 0.17313593701055277 0.008465557513161429 0.1607323485289647 0.061629022453207956 0.2851376784485676 0.03156746805970831 -0.15388927874475847 -0.024763766134101 -0.03515470708451656 -0.0010473577953845604 0.08271722123911641 -0.11938482966116748 0.08585163406755536 0.20873429955851514
06yhAq7hMRcVgEsRPJC9r3sOILP2 -0.06313638955650398 0.1719695094583299 0.07793864445536511 0.18372291724396123 0.07691912433482118 0.002137970824270782 0.12307317963463378 -0.16660945084705203 -0.039950770709277716 -0.005872930943774728 -0.04141460332503888 0.03230285176356872 -0.047411540715254226 -0.06361728977557699 -0.10164133801708526 -0.13737233162205098 -0.07665947564682722 0.03740847020279855 -0.07706144920036874 0.012908424226385558 -0.11460782949884969 -0.09346244781270341 0.021960130515796494 0.034360938826948906 -0.09433406272085075 -0.014311677609261931 -0.036269074864205914 0.047802843043061774 -0.032756405764524744 -0.007954574364377059 0.06969391517970006 -0.18530350628069367 -0.11933287568837796 0.24463398246111234 0.007380661129817623 -0.14575469453890677 0.13331019226593163 -0.07033220066566133 0.1169327745162239 0.03242094242006051 0.26737692293012694 0.042655129318915845 -0.13406868271844122 -0.061236209125806886 -0.002996177988980099 0.001774534853622204 0.07888947093101642 -0.1001306758811604 0.08325444270442332 0.20102586239676742
079kvKDA8BZiySXLstBcUqpXT2T2 -0.11070336219738473 0.13739303634077504 -0.2229175212482711 0.6990141046888454 0.11579043118077811 0.03621501571533646 0.2781019591330644 -0.4072574746753004 -0.44318766657336417 -0.15360546279018683 -0.06660444238997573 0.024214579612354615 -0.5221598114055985 -0.5344688149540273 -0.10998418649566961 -0.23609909826423778 -0.3697519562316798 -0.06431692753834303 -0.32134554537845195 -0.17499581860566446 -0.3454980826942469 -0.22398803813930057 0.03690503330876865 -0.06081301606307481 -0.09467438978938858 -0.24762958776756813 -0.2891033927560463 -0.03939489670523499 0.03979912000881656 -0.003080874585711336 0.8098636278970877 -0.3018822020183073 -0.36692109675350526 0.6066840703140893 0.06395734699977271 -0.34705114872938414 0.4257106859574056 0.2442453436994732 0.460891394580916 0.6120754533892847 0.7013399927482799 0.2590141841264219 -0.4492839190184071 0.09927797744522734 0.1180394761008198 -0.05691727156028564 0.23343615507685916 -0.3347598178165748 -0.08225682309192496 0.5200428322352639
"
 -0.0072058873336501164 0.0007491606024430546 0.016638117061876186 0.0018718342985920835 -0.003171482561975837 -0.013235611496344769 -7.226433759399242e-05 -0.00891870897256612 -0.005328564435160851 -0.008885323851415721 0.0028636444232749427 -0.007377097985945328 -0.02282866819751444 0.024465632672365387 -0.0038004729537627385 0.008678671367011623 0.01502495636648163 0.005758286714412051 -0.0035902757367762 0.007355837058161299 -0.005182708982474347 0.00750552388129149 -0.005165394406130135 0.029530836006186667 0.005252301631267457 0.020149017184163585 0.01591864214773481 0.01673873669464537 0.009699438631760234 0.0037035903631644387 0.014171171918982348 -3.50258511946677e-05 0.011249959264605177 0.00024579774924325014 -0.006390821035540191 0.016104457260949737 -0.0034488107878244707 -0.0017485974003780896 -0.004501901149120136 -0.0018533705646955692 0.0028824298611488555 0.006439285107390517 3.378185083084714e-05 -0.0020003559861095518 -0.015016864708348022 -0.0008261644359557342 0.008015774335597999 0.0037962507232002715 -0.020149652210191545 0.015236783558815628
He could take my perspective into account when making decisions. My perspective should affect his decisions as they affect me too. It’s my life too. Everything from how I fill a soap dispenser to how I cook to what I buy is judged scrutinized and deemed unfit in lieu of his perspective. 
 0.008871629403077386 0.023572655370054135 0.011210900601118692 4.6079442740158903e-05 0.012757809286061569 -0.003513010664311749 -0.004556301211391568 0.007067677398797898 0.005441394896998222 0.0016259626808392776 -0.01344192030959115 -0.004844524725380986 -0.011196897615540024 -0.00364807307465026 -0.0036414147961459464 0.013417953126855939 -0.004271475753611212 -0.0026180937051217637 0.010170240968771236 -0.009070340144781768 0.001884241416859921 0.009843562012700547 -0.003613243981244106 -0.010963934516488775 -0.015863860718838278 -0.016665922211063954 -0.00027909732700776214 -0.007521591484336904 0.005930629325776873 0.012048881915679632 0.007403925447458218 -0.022031264821592886 0.005360962711568317 0.0002400697967463887 -0.013103104166212179 -0.007546134157496242 0.0076183371540592005 -0.0262097026977518 0.023392957102645814 0.004688706437768116 -0.00559156570441108 0.01215860465481467 -0.010331991551604292 -0.0009624057205769042 -0.015907907812542567 -0.02232720474118031 0.0070491386240657365 0.0008321163075576041 -0.006101467369750979 0.0012284260430125637
He devalues me. "
 0.008595884137174164 -0.000764036624328406 0.006930642671687706 -0.009740829302920126 0.0012069875537946075 -0.0018450397318680015 -0.007308071047246095 -0.0006016479060024301 -0.011233290980681264 0.004306152280856863 0.0024409429285908923 -0.0012143621472243756 -0.009058266832579933 -0.013372320415827664 0.014938623939271539 -0.009801064751357516 0.014296782062138204 -0.00456256013991156 0.003320976025605907 0.007602901508253913 0.021059237314745287 -0.007002810955391368 -0.006206918553197969 -0.012327801348171881 -0.00023385122801833615 0.0010809776953236438 -0.01799621101383452 -0.004456563954485678 -0.026519429200399708 0.005252107111166398 0.005902580140843806 0.01786988242625985 0.004379670783422007 -0.013981837168543645 0.00947482263729333 0.006243796479620845 -0.004550467937363379 -0.0002987706213716791 -0.011489251553355988 -0.011724358616971128 -0.00796307441302081 -0.0037422162664952126 0.00276660419656929 0.0025433806471947366 -0.006275429975155328 0.0022907731264680746 0.0036197464768837955 0.008872387577343429 0.006287814870525429 0.013369058932807334
Writing him. He would throw it away. "
 -0.006365235044173491 0.0032266568762384902 0.00034363565801369796 -0.01593679573972092 0.006712712635505048 -0.0029614212280965014 0.0060501928697328155 -0.02265253371451101 0.00563051720408285 -0.011918607637048526 0.006561511378119066 -0.007035454129003214 0.007922002682808972 -0.006901428305347296 -0.030292870641711957 0.006963279678078792 0.006670666748561295 0.003703717197282428 -0.020808968282984903 -0.0006491222474456444 -0.018071622391732173 0.019555763780810777 -0.0028757345950712727 0.006662050804866949 -0.01518423294161483 -0.015866881183669718 -0.009156034539120306 0.014563629368576234 -0.003865880649958754 -0.00813642058551759 -0.004170907778055233 0.0004838042914161478 -0.0026043412889014818 0.010066932337716829 -0.01671520599418171 0.0022873409246429413 -0.0011466241960068984 -0.006313140755296755 -0.006520817423549914 0.0002702518258787152 -0.0002074305860610281 0.0057545259011956154 -0.006062675686331679 0.005103421321421489 -0.01536336256601436 -0.013024687255187878 0.024814066990588572 -0.010840405227547385 -0.011743998371411574 0.006484495631560423
This makes me feel invalid as a person. My husband would never take my advice. He only takes his own advice. He doesn’t really need me for anything other then occasional sex. And to clean the house. I’m in love with him and he just wanted a pretty wife. He didn’t want ME. "
 0.00015696372114428918 -0.0023362613979404103 0.00836066052982725 0.024214084866328645 -0.0017604002029254346 0.01800747826500198 0.005006066067770915 -0.007211648574935815 0.009915832550783899 0.005821905751456991 0.002958792404453532 0.00957167046506074 0.005625852652474922 -0.0018621811789964254 -0.013805857890898948 -0.01168534204480567 0.013630682798017537 0.001358711192060412 0.003537184833022364 0.002675097485339952 -0.012551262947401942 -0.006840082515147069 0.0010960714425755714 -0.008509357322923456 0.002834874283129421 0.003590543110733434 -0.00107976907597888 0.00042913390640172744 0.0012216037028405164 0.009619944179849672 -0.008498983822567705 0.0015707902364452478 -0.020532270816346992 0.01329200044254818 -0.01201917568987147 -0.030211718029474637 3.886581449591859e-05 -0.0014640060437324392 0.00014985897897496286 -0.006940359958063775 -0.0036407390770850823 0.009870981912178466 -0.00715061799775664 0.004496307350340474 0.0001766744933941888 0.004317418520091784 0.003013467947314421 0.00817769244967936 -0.001607061313343794 0.01282804930211609
I do not get this in return at all"
 -0.022426849541854057 -0.006341142949590027 0.0006112133358782405 0.0013826223882573785 0.009833077136738262 -0.003704038133401683 0.0019110424188212918 -0.009940336570754696 -0.004928492683002145 -0.004684388095277437 -0.005437495802615257 0.004391314072967415 -0.0037675116879175552 -0.005982325363539832 -0.001436190813245962 0.0026610798912271713 -0.002279271097342945 -0.00662961628882307 0.003982181247081031 -0.0028204292498159806 -0.011996879218813945 0.0006661662791636473 -0.005325476273453137 -0.010770249546458785 0.005705543440750769 0.005841803366211624 0.012589334945621509 -0.012951386169711617 -0.00632256196957889 0.007091807560109578 -0.012344819820286962 0.007386313981651014 -0.004450154807062001 -0.0031145585369981126 0.010206094852672492 0.0015453217361737768 -0.003040280393461141 0.00984153435439775 -0.003700770403713099 0.0021857000474878514 -0.016823342352867914 0.0007460171698445347 0.0008903075338595144 0.006980026015466367 0.005998048393534009 0.012853365257974286 0.005097885165476065 0.01749141261118487 -0.0055165140671770765 0.006154284148721181
I don’t think I have ever been really loved by anyone "
 0.011500357247198181 -0.0033554891324554955 0.008577665523387708 -0.014079161738186416 0.003562618680274042 0.0003066728422028044 0.01093971096366347 0.003746245343502729 -0.001036044070771838 -0.004643829919789608 -0.00913955201914526 -0.0020323393155772997 -0.003815180890273733 0.000773867040053361 0.008078423076911753 0.006208418924583978 -0.007734171381315093 0.004543587886648544 -0.0058793655582767244 0.007528685320786633 0.00423874021505579 0.005509653874468231 0.01604520239296926 -0.005894817069789394 -0.005519660448949335 0.014689071382202806 0.005717139000224639 -0.006395762235247939 -0.01059142522152941 0.00546205096591489 0.004577401329554636 0.0178040394680472 -0.012433955062908189 0.015942714663655648 -0.02454712787930435 0.014529116735484751 -0.006663749601496398 -0.01640931669757318 0.0001553797634382375 0.0029209518051725755 -0.017433841318270336 -0.004259621618025446 0.006710419971893038 -0.018045900585659507 0.008175227295242617 -0.004824592072172722 0.0087624624895719 0.001177829068447112 -0.0013698499364304937 0.0026652614030561912
Set healthy boundaries. 
 0.009919460223426779 -0.0036318290638417605 -0.0169433873936841 0.012055628564721846 0.003032915997289778 0.0049462180902586144 -0.0015242580714654424 -0.001422750519833013 -0.009937544427912262 -0.0012432291205682327 0.009546435135851192 0.01137458926343722 0.004490389120832135 -0.006356416376061873 0.0009003236062480214 0.0004380886345420898 -0.01053835078483402 -0.007430232022784458 -0.005632716953041473 0.010770499889604983 0.01997023758662983 0.02100555251140474 -0.004144400021742938 0.008898379312904957 0.0043652974451717855 -0.011616655463179262 -7.827657822196467e-05 -0.012517542544206159 0.009203469093336481 0.0136171897930104 0.005973012790317216 -0.00596285393854636 0.007446124891200101 -0.0075222740698844765 0.00014676029405509626 0.004053699552126998 -0.006927871881060075 0.007302519539663936 0.007109723091156628 0.00010584887674704192 0.0025036339589298924 -0.0037086503110585196 -0.010530060253723642 4.945740858099439e-05 -0.008560169111622972 0.003545608504126317 -0.0020052692051533844 0.008754472970640857 0.012235967944252897 0.015255899411016611
Know yourself. Don’t allow someone who has shown to make bad life choices , tell you who you are. 
 0.009533241281124304 -0.012611146512447333 0.00456814215309765 0.0017121674867577178 0.029364798131253866 -0.013951100964854996 0.000462349147113037 -0.008151836514918508 -0.00672393794483267 -0.008823452602755357 0.0008154793128765237 -0.001583238304586123 -0.00023786416401587817 -0.005479563550081572 0.008158846888139188 -0.011951200875571607 0.01829369615367997 0.010491299914856983 0.004945297899663423 -0.007032942466134708 -0.0006452713865828236 0.014646241949907973 0.008860551915801831 0.0028511212635141748 -0.010255388097174852 -0.0010588378268068415 -0.02204135139623918 -0.006453709101817143 -0.010709016365320857 -0.003396624940233683 0.014698546759253701 0.0024809051781883936 -0.010341734493818778 -0.006824051547554162 -0.012643341882297418 0.004628493975029327 0.0012546025496254012 0.026667014012209975 -0.0047760855031572435 -0.003975260604712516 0.004227268604795869 0.005210232616319735 -0.002226322024909222 0.00257641890043381 0.013321016077505212 -0.02137115342720728 0.0030474103881601255 -0.0028471999686580187 -0.009165966723043623 0.007331570924938029
Give it time, but stay engaged. 
 -0.020212548201949704 -0.015625121775493755 8.569510270686677e-05 -0.016278598188346025 0.01118291897018779 -0.020523148262289344 0.0017889576885594984 -0.0065554426119678825 0.012505536003671783 0.017509516768172 0.0017936043054296443 0.005047407099671016 -0.0037240075620258305 -0.01636083987033307 -0.0003457141927207664 -0.006027947019155539 -0.005968969152039515 0.0035484479885549815 -0.005838182990518811 0.01454295296305066 -0.0065918316023653376 0.022402011074726082 0.002663796189783974 0.011281705337894526 0.01321853715772736 0.003718515667217752 0.003703382412433704 -0.017283861554752394 0.005391664995532666 0.010158584441188783 0.006080879250618413 0.006814196322451874 -0.005895483212914989 -0.004737679045829714 -0.0019259788135305887 0.0022233330223435698 0.01702897254849102 0.0014202556260292402 0.007629872724678419 -0.00748975273260943 0.02249956371122181 -0.005254482479563315 0.011552244580010305 0.005486488267989966 0.005443822172682017 0.01372291771843364 0.0014814850297567603 -0.01234214386660766 7.713742973401237e-06 0.00952957178640527
If the chance to talk to them happens, don’t sell myself short, hold them kindly accountable for their actions. 
 -0.00334077365808097 -0.0021865972037837886 0.001941923376584656 0.018225790439646995 0.006883589078903931 -0.006784755206578223 -0.006840099789374339 -0.0002583848262052672 0.0031093672737864692 -0.0013679645360455334 -0.007326607639362945 0.008957613410182785 0.019849278234742793 -0.01427783765751424 -0.003550955897109635 0.0033821848827411826 0.020380347543699346 0.0017700840171536478 0.012134695315525284 0.0017641245944215258 -0.010881813605838104 -0.016840562436070235 -0.009072449885383915 0.006194930079112006 0.0035102860746881975 -4.9189859778581304e-05 0.004918087651648359 -0.018828451852362812 -0.004243757827389739 -0.011785830467193033 -0.019766442105202675 0.00890770700340221 0.015720676995497205 0.008500536614963554 -0.006950800107495445 0.009796440816872025 -0.005402736817403357 -0.003902279819049792 0.0017136479291915043 0.0054438256581455695 -0.014140322759775963 0.0022454646996043597 -0.0024252895585039715 0.007552339762128453 -0.019690753354895587 -0.012029359265787815 -0.009131806807832751 0.00412619259085647 0.022886975371075296 0.007009186299783385
Remember a relationship requires both parties to engage
 2.118364683486495e-05 -0.011231343486888892 0.008775261918886716 0.01214497069622994 0.009425187369917284 0.01955654024911751 -0.0019207619378754607 0.01114472724022126 0.0014082828975308004 0.009857460070973876 -0.008068471247085348 -0.015393243885937607 -0.006559675457274403 -0.006194287002709596 -0.0004716181593248326 0.0037253535295984227 0.011850590961639347 0.005485301597503053 -0.020418088382744864 0.0005952461433071185 0.002534069209052368 -0.0026120744165565703 -0.004936418186267972 0.010903891057755577 0.0005699522431170137 -0.0058822042540067464 0.00907183431914422 -0.012796980193597365 0.009781077720492824 0.004534947571070477 -7.441604839325095e-05 0.0050283916014552425 -0.0023208056418188685 -0.002755225274620211 0.0004154531237007933 -0.013395072540727202 0.006354493606399711 0.003446960260274293 -0.010922880157446135 0.0013537085544484623 0.00038427602755480346 0.00335888234753119 0.015263529391757036 0.002424865703519501 -0.0077307652083649075 0.007502265000991303 -0.02150480042855886 -0.004380149801427781 -0.006931638703739411 -0.0069171417107154074
Their lack of  communication is a weakness on their part, not my own. "
 0.00405453411570191 -0.0022873932838627735 -0.001963323679388392 0.0038593477302222585 -0.001638839926124667 -0.0010112612111821766 -0.009139461323017274 -0.004738174926063879 0.015135944373545722 0.008878746764060013 0.006122626734316311 0.008481817961767732 -0.01297239499434155 0.0168751553596848 -7.975890663034182e-05 -0.00686248698043249 0.019762587203797314 0.003896103001137518 -0.0073051956155062 0.0010062730389690652 0.019342490934853275 0.00045952520485055044 0.007512290734371465 -0.012435774270586944 -8.85339699115798e-05 -0.0032390902630737295 0.010420692268728684 -0.0023722299428585833 0.012219956896080384 0.004595119477973252 -0.006361767691860254 0.0031720497057686416 0.009180122201438348 -0.018917969830106986 0.013377587759606242 0.010799242287222729 0.011664969597230826 0.004385608529061717 -0.013684546409995215 -0.011746445009598745 -0.002749035362326011 0.004303513396618044 -0.004221238945156226 0.0035862453869941143 0.005012617464999317 -0.0014978783903278514 0.013078092263238687 0.014107199121486289 0.029281842678975364 -0.002982635198242204
I deeply love my husband. He can be generous and kind towards me. But he really doesn’t know me at all"
 0.0028909194098003534 -0.010365449927595962 0.0041864556802719555 -0.014638222301360143 -0.006514208123167352 -0.00423612934534563 -0.007764852294767057 -0.003388359283703369 0.012439410097939424 -0.009871999926397777 0.0073419151608602115 0.008551312000471415 0.0035172305774712467 0.010284248024120207 0.009785721592482399 0.01619082537497215 0.003463694248204365 -0.0012681670212435394 -0.007777213389471318 0.002603404757078735 -0.007628425922235495 0.004165912939427663 -0.0009021735157581703 -0.0016827818062736168 -0.018865451965251027 0.0006017802890148103 0.0011371301748569148 0.024345178444759454 -0.00017554495173942043 -0.002816761492046438 0.010696941739305908 -0.006978671841527594 -0.03026332483046663 0.0020498672051735456 -0.004323878968779744 0.007051997924502979 0.00421770663689714 0.0007423795901605577 0.00023311265963159997 -0.011300817694076018 -0.006649243087226059 0.016581527600316077 -0.02047219357003549 0.010470911331020013 0.0060936907249965625 0.002252429506735885 -0.00044450378431889744 0.00682521160324925 -0.004416369553560171 0.01563879912439758
That he in reality doesn’t respect me at all
 0.013211581921293855 -0.021915386961591125 -0.01435225227067078 0.017982519542011185 -0.010337670430032466 0.008671378135431607 -0.009844449933179537 0.01479203415152809 -0.005352822967588774 -0.0005524586805430462 0.005568897612989569 0.010822106935491436 0.0017104576197576465 -0.009382460319585692 -0.003691609705129627 -0.00414919196303253 0.005337223571944144 0.013283918889926461 -0.00552198515050557 -0.002375224481012123 -0.011732496366363478 -0.004214065574314191 -0.007396046113818277 0.009763241122085578 0.007209648100762412 0.005177600253271158 0.007989416933743424 0.0031949660250514297 -0.016512454121511234 -0.010227304458734196 -0.026525338024823188 0.001793056336129884 -0.004184586412921214 -0.0046594061264838785 -0.011001293979278582 0.014400335557333959 -0.015293577258346288 0.00020025430783718627 -0.005365903106745122 0.015001384660691055 -0.0019456472210984533 0.021494563365267165 -0.011083771839082941 0.012028648734670385 0.006971874456762886 -0.0037434753638623413 -0.003666945708062011 0.010392922709213867 -0.003619667595058049 0.00252125731448815
That for some reason he is blaming me for something that I don’t know. 
 -0.015469055532292402 -0.006731612958362362 0.014938724915609934 -0.005292143405612586 -0.0011633466640101379 -0.016080380499006952 0.001140942030562016 -0.015371823724933635 -0.008414712218762378 0.02386599468550475 0.010674334428900357 -0.0024341502121484975 -0.011065271846012416 0.0084231979239083 0.011241578940058172 -0.008399021280180085 0.002145135394997377 0.00892741707271467 0.006943593202021618 0.006132824579690056 -0.0028598655648180596 -0.008208523610379265 -0.010364117790814996 -0.004026066780419283 -0.011205727046897445 0.01593755847286221 -0.016638461785747943 0.005866737590412016 0.0034135577923690395 -0.010360198448630313 0.006318343396333312 -0.0034017763808893904 -0.008942127674176894 0.008031595917908233 -0.0028542160061889917 -0.0050116731321678135 -0.0015307104552766176 0.005610496011983232 0.009183929080752069 0.006250881684445251 -0.009961839815758959 0.007269341463991816 -0.004268644678584986 -0.0029359065357622183 -0.005380815457461139 0.010782699214757914 -4.4032867465626506e-05 0.010804880808237018 0.01205590662528904 0.014516666039070134
That he is trying to force his dad to apologize for his own actions before contacting me, so he is hurting me in the hope of make his dad apologize first. 
 -0.002026463246291819 -0.0015080363241817439 -0.007106881220066582 -0.005552704555749537 -0.003981683260223885 -0.011536457198704792 -0.00450096586081736 0.0003683607249870769 -0.013400881549736161 -0.012954977397033338 0.020680593497532422 0.007694289553551478 -0.003778993111136305 -0.0019952271007355337 0.002590931119453225 0.012545784137850364 0.01426891756099904 0.016880476212458664 -0.007411249756974138 -0.007782709013301417 -0.0011787494737742217 -0.009687935504080805 -0.005195203388855337 0.009385892972284688 0.030167614098429087 0.01135566265190213 -0.005374851028009621 0.009266642218168959 0.008342502658114825 0.006298009681248603 0.002190236179323701 -0.015941077485888334 -0.013956844989058763 0.014985531566577283 0.0010249520234152612 -0.016545720251832534 0.009779726252928717 -0.02272301734580298 0.007859434007557621 0.0016976897209731048 -0.014091459780849443 0.012381400675947864 -0.013610569221610141 -0.011608691868653988 0.0005394431120380902 0.0028313914764618755 0.01199963492950642 -0.009970628336282523 -0.0018514458175335736 -0.0052107211948715934
That there is a part of me that thinks maybe I have failed him
 -0.006559693441389339 -0.012011961716212147 -0.026728004764886452 0.004484621665869531 -0.004754754523112171 -0.0021019100508104915 0.009912773887208392 -0.003473485217529232 0.008004983250367198 0.015521495634134286 -0.015217256794267903 0.00534876531485149 0.00572350487135052 0.008247509265003066 -0.0005809141403181946 -0.004242096192236983 -0.008071126629843618 0.009036025220027402 0.011699259267919225 -0.003054390445225852 0.013750382329474292 0.02463574971289193 0.00676881190025353 0.014959045816095438 0.009612295303111851 -0.005943476571250146 -0.010208309470496548 -0.008226900454763202 -0.012331593750772125 0.005836739788097677 -0.01535747517142726 -0.020428671825582754 -0.0030780659008405415 -0.0012457477041432944 -0.027887898968532415 0.01373253047147178 0.006085200515788619 0.0016301900783036469 0.0010775480116434718 -0.014670873213444818 0.0061710343720208114 -0.013817354847777604 -0.005246252507194859 -0.0015446777771062348 0.0011386658571630583 0.006222672185158686 -0.010422232322052043 -0.013525691053658084 -0.016902164485088113 0.007073193384688613
086csBx8dLghyCVE92CBiRFUK693 -0.017481299956338913 0.16586056460098939 0.04983392088789544 0.20943758900832324 0.12347374318685585 -0.04631344164121746 0.19346145209887985 -0.2019712325792621 -0.07194941708553691 -0.0011934569365386562 -0.07071355983287894 0.06354694348899652 -0.21076077674705715 -0.15760488708420453 -0.08789055055737839 -0.16353792477993498 -0.12853586841521264 0.07297750310213173 -0.11051865085655285 -0.011105739293207397 -0.2548014356807273 -0.11466197801810192 0.05397452486877476 0.04480709653822247 -0.044009574820425584 -0.17007245705583265 -0.08872904544654842 0.07651127316033651 -0.04132600872860214 -0.049059741948475365 0.251580714981998 -0.21548835356442447 -0.20768553970682668 0.3898715296876936 -0.004791624932344198 -0.19950142406757554 0.2327501438823649 0.054012928483690374 0.1691914448532445 0.08884751986568248 0.38174190691814747 0.08120082769679557 -0.18863764560432955 0.0017827511477312022 -0.006046461788071357 -0.0211004963793062 0.0810652968996552 -0.11029600630467613 0.06942959995353568 0.27934102391310617
Eminem because his music has given me a passion
 0.005534389109567419 0.018192167997439466 -0.017198500647338476 -0.0031660736521670245 -0.008731026656288766 0.003232651068157116 0.005611784771809069 -0.012305352342142258 0.00580052395751102 -0.00399159963310932 -0.0017566961193418828 0.00676692897599878 0.0049827372348281405 0.017824846497165727 -0.0045279505811466995 0.0030475305228918593 0.010588566793044783 -0.0022610677133521454 -0.008366036936890994 0.0015939930083678211 0.0023280595282135714 0.0008845229063397723 -0.0024691268759159364 -0.010450315183488821 0.007502282863040986 -0.004067988004535115 -0.005901472652816865 0.00785852158355155 -0.009969454730322375 0.003923158299871948 0.019131896644408765 -0.0024074081222542655 -0.0015723676836254367 0.014736636400877065 -0.002424925568245303 0.0016348191094685495 0.004182225934680979 0.018616520479225268 0.014227877962283982 0.01064857141110908 0.0021870515710480753 0.00366198518317774 0.005307106869138202 -0.0058962185913360035 0.003628198588363095 0.0047405087210999645 -0.0020616143470110447 -0.00174499919820261 -0.0025183971559067327 0.010290993461876632
Nf because he is normal"
 0.013181515541801367 -0.005562584212454813 -0.008602415838444085 -0.004289200456617021 -0.006433529172974569 -0.00919708661393051 0.012296971561405783 0.014480435182013592 -0.018216484764944307 -0.0076654473484322905 0.004735954862219344 -0.0007170851316693849 0.002687822930798754 -0.006929552954309572 0.006116417056414508 -0.00655678793122878 -0.010200943302223786 0.012916773689131578 -0.0029686035334926275 0.009887246184136068 -0.012424943690472768 -0.00614505860209594 0.010220469489553406 -0.002811153748156133 -0.010379700673961587 0.001139607889514598 0.0021223741919735796 -0.010383380755124386 -0.013344724558256844 -0.004738569020362249 0.0035726247623836483 -0.006045011566427975 -0.001015101713663883 0.0041721567645974025 -0.0012334771969041535 0.003724505458637208 -0.003339776671912274 0.006521961793296647 -0.008800509694845606 0.0021046518848961268 -0.015331149615321272 0.009584350876496018 0.004263678055904527 -0.002871482736937082 -0.006393200938288275 0.012803866486848808 -0.013985228996154049 -0.011153805037295206 0.008859009987263106 -0.007379595925092015
08OjhnG4QjPwpyPEMHLK4hBiwNx2 -0.06374022948781466 0.17666586795438122 0.011260382687591022 0.3108913400794549 0.1405541066911093 0.007475934804032781 0.21964869549975624 -0.27902862075130064 -0.19407006258418785 -0.0828550286203622 -0.04240639242897342 0.05224606793484456 -0.22146112586934244 -0.2383825005294647 -0.06701403272440604 -0.15084090536587177 -0.1516331024455713 0.10715102007551695 -0.17509964480133705 -0.012743172013172183 -0.26922521186480186 -0.1440697716558613 0.0601470924243631 0.04232753407762375 -0.08257519651897556 -0.18553216990229585 -0.10930618888050929 0.07902347053653969 -0.025277379070353316 -0.04874047286511207 0.3789337755264173 -0.27620013108568137 -0.22395157357847295 0.38238844105069736 -0.02257374633707969 -0.2536865074043077 0.23479254132574165 0.026875485381847294 0.26278685589553025 0.21305594643698778 0.4095597535818777 0.12374315764768505 -0.20347821705375407 -0.03605342157745298 0.03191028859643369 -0.003344920234177794 0.07677265532269734 -0.1800766115877404 0.06537190449559044 0.41425630796420065
0BH8RwZUHpbqgdyJXp9eHfLBJjK2 0.0067555408512238084 0.008049580076727052 -0.012164381553301476 0.006716020914258394 -0.005593370514686543 0.010385435111472363 -0.02117884552793741 0.009694926181204438 0.014104297376488044 0.0062639626794293605 -0.018443256202215437 -0.020972989490663698 -0.0053144194674176505 -0.009467455271730076 -0.0062871921954222145 0.0004408132140632635 -0.007238951890079651 0.009804155455643561 -0.006294830364523733 -0.006119871074377603 0.009167778836220922 0.004062590896471599 0.0010641024172598483 0.0004513624744190757 0.00541667813224789 0.00558667124423272 -0.017802726377067937 0.0034690008036833454 -0.001335840286299445 -0.0038072828206276426 0.006182881544639053 -0.0069107038223003 0.002630867289643594 0.00014912573168984934 -0.014286720821934759 -0.012775940500469261 0.0016088256551244917 0.0031742800217687095 0.009741877415245086 -0.0052665186615478785 0.00444031034960105 0.002553670056435446 0.004024971035039977 0.0010249693590361738 -0.005114493106482174 0.009153066647520294 0.0024962857021947784 0.016959300463243846 -0.01266755228449136 -0.001309953409752855
0DXTnP0AHcg6pPe5dbJebvg9pJt2 -0.06789077459206809 0.12616617193059754 0.040078064478872015 0.103891760317342 0.06173371005587308 -0.01351157953495963 0.09995791976249686 -0.1280521738195867 -0.06846553163779406 -0.022253855773167634 -0.03229100599168729 0.028342708603554895 -0.09077498746197804 -0.08975223707502598 -0.028337199041983435 -0.09085522321375608 -0.08121225770427916 0.05072348454628309 -0.061934461362577735 0.003470686154604022 -0.10481374861000493 -0.04664503155387566 0.03509168089617851 0.02931713858845627 -0.01561769212807431 -0.07013494004034257 -0.06010651878056741 0.054736595458656924 -0.01613863378403288 -0.04247513058009193 0.10907361769495269 -0.09952302258299885 -0.10033589532281137 0.20552691602242706 -0.022779980790041128 -0.09382887243483407 0.11285149359012629 -0.01721181417852303 0.11124892306572386 0.03643514724309015 0.19394225196517742 0.026843556442423436 -0.1004919118586733 -0.01137788070291039 0.005452623717886545 -0.017702511723654266 0.0548087084603762 -0.08716366908220202 0.07984879705723982 0.1522048568482894
0GqnvsHAZzYEUk5Bh0u1XHPKhev1 -0.001831085401789987 -0.009132117566638422 -0.004688909752628432 0.005752145762167727 0.003033025293763602 0.0034580890038319436 -0.006679422121273774 -0.0051624372815599695 0.0037944827127887625 -0.0024863627566436832 0.017247422334240245 0.0011201998280181485 -0.0027068850150939582 -0.0024121323158354416 -0.0031848157593253414 -0.002789096106085972 0.0035331584361371223 0.003317158777730757 0.006237971968532028 -0.0035703099598916577 0.005701119177400279 -0.0028408646415079937 -0.003952667903666568 0.0001722039634671064 -0.005701478999201464 -0.005224679986195259 0.0010155509253348444 0.0034811067610259466 0.01371552389355368 0.008700517248475412 0.0087736248685155 -0.004361167681776514 -0.014418234507849084 0.0017874943634705865 -0.019438920694075452 -0.008973387426317288 0.0014105944100212997 0.012580842086695923 -0.013006787298879455 0.013498777258801657 -0.004859836826155381 0.018527863630916304 -0.0038133269082208407 0.00019773441996951105 -0.023454997131985445 0.005515416160567113 0.016962881669894837 0.009344812728807132 0.007055727063233892 0.0005528302569566244
0QD7tZsYlehDMwafH1pcEVtnM552 -0.04824796974539147 0.20114157756677808 0.00036912619718855737 0.3676548098111982 0.1521334518767126 0.00010018887280904896 0.22681696663753279 -0.2812600572409522 -0.22900566539483655 -0.09339028903702531 -0.06378459437832538 0.052133672579174624 -0.2700332237929229 -0.26352654513831714 -0.07286130075591242 -0.16720232212969788 -0.18074512884825258 0.10222798664807917 -0.20541011946157176 -0.009718616341173185 -0.291032460976216 -0.18372225883228774 0.09420931276287707 0.028770182373779426 -0.08948329821549202 -0.22235364401323437 -0.11474120867320221 0.09595376872411752 -0.04294423040020446 -0.019529468568358486 0.41925498290323204 -0.3043073605744291 -0.2647022720896905 0.40974035529809366 0.003956832048049633 -0.2850181727526051 0.29183592739685216 0.033185210024211924 0.2777334579338497 0.21175401607839153 0.452542233109581 0.1139960905188902 -0.25880109735437395 -0.062194321833327154 0.020992372585769883 -0.013444914481940627 0.09383909737389405 -0.21749793291893532 0.09654584513021494 0.4166068642052483
0VQkcoL46aPvkz4qFXtJgQLpNxr1 -0.003978402281999914 -0.008947829502617551 -0.009189748326634302 -0.006937960114848603 0.006324452224368879 0.005126824864713318 -0.005630391196372893 0.019560847851138846 0.016140796625478016 -0.012308088300255716 0.007583678027474029 -0.001581187993834172 -0.016261409087682577 0.0060898657403893695 -0.00824745123595647 0.004268009194681247 -0.007390014890058262 -0.015522418647418601 -0.013090082784313598 0.003265696617926724 0.004967819805977359 -0.014136696989282521 0.005720945403555705 -0.0029356138749004604 0.012472976094883821 -0.0034550118606348308 -0.0015753904742683948 0.0006530269723050347 -0.008424130988846838 -0.010146994146155348 -0.013269705108256619 0.024953884270141797 0.024109041266520758 0.005466246250826993 0.002577905426053076 -0.014511993265802737 0.01311645858032835 0.0067030824614534405 -0.004398608152281397 -0.011952607162762793 -0.004204298197796293 -0.004483905280346005 -0.0031876407604629394 -0.004658485095372216 0.0068846912917739315 -0.016714586633914164 0.008916079748769427 0.0024546968239867787 0.00909376421116586 0.003140346130376403
0VzmdP8NPmM5V7fmdSy4xMHgBTr2 0.003374376536139724 0.010591027190962807 0.007331661106004655 0.0034171923729019306 -0.006554194912955935 -0.009054874425832702 0.00864321814265269 0.015958332737925643 -0.00527496939716429 -0.00861750359719514 -0.004895129814939993 0.0139627949765008 0.021785100176878017 -0.00032990565772292915 -0.009051578584239398 -0.008799886392513796 -0.013494205508328144 0.0007063645733998494 -0.001846917377181681 -0.0005318496032346286 -0.0009985457946330072 0.012136811065058033 -0.002105072577705438 0.004670988283851448 -0.006995571977054013 0.005157919761419857 -0.00591838802601634 0.005090961527810847 0.008561073562004752 0.01953016578214788 0.017773457968480556 -0.005613910486079168 0.017853305299121887 0.0009778954099133857 0.006427417647970953 0.01186689483345498 -0.006516977739213549 -0.0023816606155890106 -0.007218284497547728 0.009204045191076435 -0.01783710106033001 -0.0008402286205018184 -0.002996831045920983 -0.000716813056913337 0.022942702785900083 -0.007490355627552864 -0.018408615098980195 -0.010559722353876658 0.006484637582501872 0.0036387852937523908
0ZByPUqSdob4TWkA0vUC2Fgdxqv2 -0.2667214729168423 0.8791013837211402 0.5603253830596958 0.9797843689962178 0.16428970502804044 -0.30196068680733457 0.796567439056264 -0.8087867393052794 -0.34717931375855343 -0.14590486471612452 -0.18428379758662633 0.3468597954314048 -0.4422564366678955 -0.6091370984324942 -0.4270945149914428 -0.5139145608380679 -0.46186659670332525 0.12865380246486144 -0.23461030749702766 0.08333068271745182 -0.7348217938365891 -0.6444344220451619 0.5286397389929157 0.36584898210489225 -0.3367737629365159 0.12767885335417856 -0.34264057748089966 0.14527907248102806 -0.14769003869001676 -0.19708584543149482 0.24811442495998573 -0.6675654816275025 -0.5698816970923066 1.2098515575146838 -0.021314473584457216 -0.9207704445478768 0.7608459307982688 -0.4257632739460362 0.45021720065428483 0.44096733688436107 1.312849126870043 0.09121844637639073 -0.5943597914715467 -0.27888000369131477 -0.20470914355739828 0.013735873088286426 0.28506658329633894 -0.5496922260186397 0.45347628330798473 1.0990776595490066
•I have anxiety 
 0.010459382556276653 -0.010968323453443075 -0.008261717094291297 -0.007202739744199934 -0.0026220670201100066 0.012285016974621775 0.008271627135754762 -0.00524943055483118 0.02540127219463379 -0.005698788118657649 0.007080243884533354 -0.007984070654836122 0.0030900960749446773 -0.024277473527702324 -0.005403293849174016 0.007093642021909698 -0.004285356187769407 0.0015714883724517548 -0.0035084349156848855 0.010341785630306048 0.004393059905149222 -0.016413653205289275 -0.004478525045166264 -0.01252865529759092 0.009953662197975303 -0.007076425304131682 0.007124463293367291 -0.009334765704606816 -0.014079489816946556 0.022897085629154157 -0.0029013350631353495 -0.0033571551480011054 0.005255954626798743 0.010799680775892223 0.0033848624999623885 0.008064805916579529 0.002517502680752438 0.006960353981962906 0.011837418664065392 -0.0034479902728896564 -0.003387040861520106 0.008500257961760203 0.013032722796431057 0.004432835220872245 -0.011495788617939711 -0.024490878166576246 0.0009555773790084217 -0.0009332273486995317 -0.013628283314893675 0.012861934477747552
•I have anger management issues 
 0.008637172916848387 0.0021764258344399556 -0.021491401646717465 0.007971046786021153 0.0063167968658617195 0.012306454751099106 -0.018857131477689672 -0.0056578001841768 0.0017317762069253657 -0.006451826917663362 0.012736009179284743 -0.006625374121499755 0.015593889452952798 0.015025519249639328 0.01575084412478934 -0.025936811985522886 -0.0034309628520553348 0.0017723399270404077 0.01581585518791518 -0.00875655738215928 0.006986102394073569 0.0047850944483804 -0.005724550903051302 0.0008709065886430842 0.004182516005077042 -0.0013517353589216194 -0.00807180422321679 -0.00857639458622937 0.0020256672434160465 0.009305118155145002 0.011221462788309324 -0.0008794930118923171 -0.005959171808637495 -0.00562284118215296 0.0039861243658285165 -0.010893142910168945 -0.003924597995816419 0.015671458282056693 -0.00799798175376897 0.012577678042851337 0.004154279813112031 -0.014199169177547957 -0.0011276614119165294 0.010393702612583862 -0.012485839563390683 0.004137438214934031 -0.0036331106278165645 0.01568679657766955 0.00842896769234631 -0.0036692788069954668
•I need someone to tell all my weird dreams/Strange things I think about 
 -0.0012209157484767425 0.02122046771321695 -0.0018916733533737248 -0.002917967810610528 0.009269708373232481 0.015743763097922175 -0.005390649544703077 0.0022447141325554554 0.015205643314057278 -0.010086898319529613 0.004910786780928207 -0.00547399079680178 0.0005138817267870211 0.0036930899925310006 0.01508011269433491 5.8755487639788374e-05 0.01232211582580367 0.005284890919388381 0.00042662529460460767 0.01137592979881616 0.007293973659144903 -0.01714721784535629 0.004250550973833134 0.014972002958078053 -0.025657231339233186 0.008321394537464484 0.013031832879942822 0.011480571034917753 -0.017096193605652104 0.0004664012593360287 0.014568202352378158 -0.00942962225955468 -0.001575639192158256 0.01784998943444244 -0.0011398587165785277 0.0032348499551382217 -0.0023252995748119713 -0.01942012098128977 0.0018343979379434473 0.002474405143195662 0.0011429994458728688 0.01784460484760861 -3.323850108576861e-05 -0.004405999730520646 0.002811226836916298 0.021125156822423254 -0.0031681291662923505 0.006176970548690224 -0.003166458754125725 0.009459993985525234
•I just need someone to tell my day about after school "
 0.0012471295376821586 0.011214905765122582 -0.015057810963686623 0.0074129841538121055 0.0026796714225930073 -0.0062078467086613435 0.016159791065949378 -0.009268515584257585 -0.014442572711837616 0.0025393817761759237 -0.01717453985769837 -0.004448368091433193 0.012493131423429005 0.0006518539584409426 0.0029693727134412003 0.008947270637681247 -0.011397630149720875 -0.0019402275235528962 -0.0035588203184700796 0.020357869796915562 0.0007812531062682816 0.007760930697781923 -0.00261012773866546 -0.0016096964031322156 0.02252988979962467 0.009012050221152508 -0.0017720439946533185 0.027612170259707438 0.008583370589431013 -0.005955653143402242 -0.007924848608409217 0.004543005248393097 0.003796875517659795 -0.018732409532707186 0.015009544015141634 -0.024334943479484516 -0.014904098815835792 0.004532470664356774 0.009256409683264221 0.017242734471153095 -0.0019549516170754796 -0.010247875632795616 0.007502441746167347 -0.00011653738378782347 0.012978918884143924 0.002259929447210557 0.011822876000614262 0.00025898006416183184 0.009185193537755118 -0.0069298024316898285
0ZYlVyyfa8PvejkRDVU9oRgbQK93 -0.05544188457905566 0.07909673988741125 0.044700994569830114 0.09807082342539865 -0.0020094705367335684 -0.03476539755385201 0.08234262526760903 -0.09656013681942512 -0.021597446441926477 -0.040127242218566075 -0.005331178612652489 0.04357984353183579 -0.028280661265232102 -0.04359807803149227 -0.053329425711649434 0.0035285951186459817 -0.03849926599637617 -0.0028153284967886577 -0.03521442419642004 0.020792920159255695 -0.04943132846549954 -0.08102836666400413 0.050106833868369255 0.025190977880288526 -0.06027507356941823 0.03610722277752494 -0.02038903916243479 0.01915118708415491 -0.02758318127209758 -0.014434163196729265 0.005540483181178991 -0.05345470611412107 -0.02743839120210081 0.10968964833746081 0.015342217145324803 -0.08923117698213316 0.08614727592475048 -0.07142650728120634 0.02153856433938066 0.045108457771677817 0.10070285464688293 -0.00917719818424722 -0.05643245205633683 -0.019789890912756795 0.00043880611330911104 -0.009077763771802175 0.031311152118357714 -0.05295563582779174 0.059586162457323066 0.07307759931526972
0a11whOLTab9mBg7hcpmkfEn0Zi2 -0.1018798567392967 0.17560004220289493 0.0011667865675688283 0.3155185267664442 0.1329321478037593 0.00016784866905042504 0.17435979005069935 -0.2605734038707321 -0.18193023901109992 -0.09172184887228288 -0.016204225428077933 0.022844590023672614 -0.19882013800688764 -0.24227944140580118 -0.03523397162459728 -0.14359571093233625 -0.15364737011082746 0.11033244980096488 -0.1644116621106727 -0.0022010114553911104 -0.21935890535525518 -0.11698646371777324 0.0661545759205713 0.006476872063177189 -0.08384736185292677 -0.15750272881151986 -0.086080477834144 0.07083604640733963 -0.010738389934726941 -0.05925461752430076 0.3309106744056623 -0.23879756583606346 -0.22086659386375812 0.3534606398704575 -0.004984609546760861 -0.2192583882557798 0.23738863884326586 0.0417540531293572 0.27884919573658196 0.20461040410175563 0.3779486172007694 0.09702426293560307 -0.15355718964409854 -0.09561973247293315 0.04546149780225963 0.020029268974847105 0.042546283029544975 -0.2171965586562461 0.07694670327136711 0.36893591832016254
0ahj7fMlikTAWjziyjaCXeQPQY93 0.02454975516643117 0.19367197454227802 0.034638010238530456 0.27859637578856167 0.13410567471366716 -0.040883828807317134 0.20003165573999546 -0.2300211747007515 -0.13747944008718194 -0.06332323840788669 -0.054633892207295524 0.05141971601595825 -0.2557758021136946 -0.24917316185664837 -0.05708789958719793 -0.1971832160633118 -0.16052480522178275 0.09548849950983716 -0.18150438601804705 -0.03597394445585792 -0.29891335725818763 -0.15582617931451 0.06839090447896466 0.032227128363868214 -0.09390899447189814 -0.21854824541872117 -0.10256489581246533 0.08034936134180261 -0.08664675398085699 -0.024070429604783204 0.3308506294215642 -0.23395316152334744 -0.28033334540277915 0.4243509606823483 -0.022888674059777465 -0.25481968104144 0.27269154086704944 0.06299238399149194 0.17240881348179476 0.13970715794378114 0.4004397752946562 0.10409916885325454 -0.24714886988678517 -0.0031758687891524588 0.03299155494944489 -0.041664028285527885 0.07649070529789788 -0.14862470644470507 0.05796560109026313 0.35070020582718564
0bHxu3dDPTUJFnzISXHnMWqnNll2 0.0007619958783723642 0.008739661419816901 -0.005275410912807277 -0.004482842462912196 0.005046908093287587 -0.0027392264062497795 0.006295903105963571 0.012013633400710072 -0.009276212922601525 -0.0036391631275271242 0.006797243797682411 -0.0011478806766206683 -0.005380638820956905 0.009087739310651379 -0.025663755137337523 0.012232672639490816 -0.0011148074824069785 0.0026712970426650785 -0.001820382048130702 0.008156399026149399 -0.005005359136297806 0.013934629332127411 0.008538704827191016 -0.010785636538219807 -0.007325894528262064 -0.010860604875013584 -0.0012092272859112719 0.005388938490445875 -0.004217207174692838 -0.0026187182111291223 0.007323085332582373 0.008060986003185253 -0.010803098818239267 0.012116767253973463 -0.005113304515552676 -0.00040995497100544155 0.0070652782448406325 -0.01390440455837899 -0.0005366247081871329 0.0051276085536915705 0.015062121004087714 0.014644880517540473 0.003946452902755786 -0.010549489191914996 0.013349836925081049 -0.012845403274288021 0.006953890672541886 0.00972987277486023 0.00984583196117663 -0.00843679400228313
0cDMDMqQwTY9I1Wu6oFqoXv3oSh2 -0.090679846215108 0.19009729247029844 -0.01477948256581992 0.23999764301672788 0.08117073792999975 -0.0052493662246289475 0.15236666138802982 -0.1792240342960708 -0.18651395125972728 -0.06536483512787751 -0.05000265971308788 0.07279860385153579 -0.16292117293122055 -0.16184959349348882 -0.04580360457045925 -0.12850898300602048 -0.15157261499672894 0.0821295995578123 -0.1526425081195464 0.014992147983623774 -0.20228134100677017 -0.1329560738916842 0.08660470056626783 0.06570730640465001 -0.06576798740173267 -0.13787231362079655 -0.12383726681425346 0.07512744244414173 -0.025975678567759706 -0.0418351944466646 0.24916822630646693 -0.21198548477795245 -0.18014924511450864 0.3072376075047326 -0.021646140535919595 -0.19594733186655522 0.22708846139941463 -0.017437180558909082 0.20467769266031077 0.10196259799867881 0.3437222533892422 0.04962076754681884 -0.20477510346889954 -0.06481466699354632 -0.009009249192647732 0.01049874933795808 0.08009769403374818 -0.15002657148078194 0.09095182540839963 0.27685816813266473
0dsu4EFLoqRS9M59jwugCX6MdMi2 -0.09453316238794138 0.278197865402906 0.048684031349302034 0.3988334990346537 0.17698930782393052 0.025080453644250416 0.2623164614491094 -0.3192610851007323 -0.21354682160494415 -0.1318142734861906 -0.11568866358084338 0.06404520518570536 -0.29816078879568564 -0.2535870938312238 -0.08190596285961674 -0.17951263654474056 -0.15338700388841653 0.09024532908613364 -0.20164437408593391 -0.033845985258139664 -0.32282750454077225 -0.21710977803252268 0.10918045354856452 0.05761540413254803 -0.11570503324084246 -0.2567203557262477 -0.13907067480419455 0.1276088660247167 -0.04641600770735921 -0.041269337499771325 0.40458274302459785 -0.33890748265337656 -0.32944238290827127 0.486722477845487 0.01831586702455091 -0.36468781506943987 0.30322943131925423 -0.012426824074852183 0.2740218139645765 0.20605507515644672 0.47456991744229193 0.1425457979854442 -0.3134886116675737 -0.04328855208945255 -0.013359168307506773 0.012863547479252271 0.09681329675473876 -0.22856346105430975 0.0616115795817432 0.4866538385418013
0fpaj8BbskaHLrvEa0gdMoKJO9l1 -0.0838583877771576 0.2086439602877075 -0.048443726773117216 0.4281560536909963 0.13434600595403293 0.00017366525792077863 0.23805916364994226 -0.3101942786146295 -0.2977970037332184 -0.12784579854514563 -0.09025091657696986 0.06594462619014656 -0.32949824722358423 -0.33565255920791637 -0.07443340271962275 -0.19887833430582622 -0.19923067504947153 0.07842803257216552 -0.24155588023458224 -0.04895616854251029 -0.3336404196229436 -0.20776702936388725 0.07519824668496669 0.0324271685309922 -0.1400854232976931 -0.2666140956254887 -0.16196715342366994 0.09990813585164617 -0.012216410248320427 -0.08322901559696229 0.510692773975774 -0.33198897939443833 -0.3211514621593787 0.4408133125377428 0.0050150382808266695 -0.31853479683184366 0.3115101084292574 0.08919139495720034 0.3360811677061599 0.3022769356439383 0.4913046921447173 0.15574263676641867 -0.3078228273946392 -0.031106017599605938 0.022083811793207453 0.011753557346484035 0.15723154218403043 -0.22686480978327403 0.021293310974132066 0.45260112640948025
0gwrMF8F8NepBwPgrzBu2fpg9Ey2 -0.08802044737849499 0.21246164312346538 0.06499901619419421 0.22137597580291024 0.11671159268661103 -0.01044264208365031 0.1692355986885253 -0.19910099635499556 -0.0867269074432604 -0.048418465132110865 -0.07994344924861903 0.05355722801783086 -0.11860284214714217 -0.14201080647803663 -0.0502529163318686 -0.16317587572987707 -0.1356645658708479 0.09525461867661553 -0.11102215181242482 0.003755254445334689 -0.21750127909276545 -0.07960505962369531 0.058897086716249034 0.040823630104625454 -0.03821793457281564 -0.12377854357300973 -0.1009057727401186 0.08866883522124139 -0.010800794628573277 -0.04364906873223125 0.1805063064614369 -0.2060988402948001 -0.19817978850021528 0.3373726786081859 0.000789646020255187 -0.19706985195758492 0.2038397543410631 -0.018131140405315615 0.1694836709512665 0.09706216189538394 0.32482943780509344 0.08427359996737277 -0.18848253301829282 -0.05572131526196584 -0.01419719948897278 -0.019080205417225406 0.05208357439274795 -0.13758992816413704 0.12208740376549919 0.3052260157052425
0h4KITOQcVTVDu89Fy9oSy5BDTk1 -0.008971567844396988 0.004833977900441433 -0.008755387155565819 -0.013038770674835078 0.008455991143250931 -0.0004305445631609638 0.003907184412037058 9.45161303000011e-05 0.020600454766054 0.002252299893725957 -0.004499466999046104 -0.01099725978229178 -0.004415319983652763 0.007871912419737712 -0.010573664154867808 0.006891773466819367 0.00147367239612134 -0.009081276596783735 0.015622700352471524 -0.008382037004084452 -0.003147056042756052 0.01947981995212607 0.002047161881707129 -0.020495919076272583 -0.01014588991906699 -0.0041388386483409995 0.003419860939739673 0.004074749409978545 0.0172382574634949 -0.00134703691964893 0.003921879341170828 0.017976252272375804 -0.027024145192335595 0.01380079915602693 -0.004683419183374968 -0.005661530929229888 0.006088503538388044 -0.003805935418352929 0.00964494914780478 -0.016238448796214413 -0.008259734964899042 0.0008492082139181742 0.009680516241220809 0.002754064876634248 -0.0024741136804062327 0.00910993271862905 0.014924273158027553 -0.019597140194307413 0.006011188461357598 0.011785054174062755
0kEZjwyYz7YiXK1hjI3Bh30PyBU2 -0.06449301790704717 0.20300374802480242 0.008988585930980068 0.26812713897051804 0.10760190525496843 -0.019213654871782775 0.153603852243232 -0.2277238313405225 -0.1763542630020982 -0.08169700799371356 -0.057111560579838 0.048574572033451696 -0.19791256036737745 -0.23364200091276893 -0.06271396505776491 -0.16871411781677215 -0.17454673359385176 0.07174059595985506 -0.19095752466092955 -0.0037594269010748607 -0.25810060753953146 -0.1515491494509162 0.06920398990138708 0.04209780337078267 -0.07736977202963961 -0.15339084104195844 -0.1331241732490488 0.09521621331494311 -0.01621002311183082 -0.05101619032223419 0.3284745025648311 -0.2588839167263763 -0.23325565974839485 0.36881512145036754 -0.03311865551398138 -0.22599253016862003 0.24525676360744078 -0.00038618604135744867 0.24901050924636647 0.1288517665978782 0.39351358777600254 0.06880842225466295 -0.22115860714165003 -0.060224573910379865 0.009008696703190202 -0.016229921074875656 0.11461604313723746 -0.1707871167915213 0.09094496672924429 0.32687861084390873
0kEvEq38TZOukEyC51h551U0Yp83 -0.04701026865494265 0.15093491215567809 0.03232309701459056 0.19182855696080392 0.08400261031661552 0.028712767182549667 0.11052310968265502 -0.15667761933311838 -0.0354680935641473 -0.030107452957109114 -0.019132249507575364 0.025461642789566592 -0.07196789367008975 -0.08568881433664996 -0.0704387664085509 -0.14594084112389405 -0.09565492543762467 0.031632065014480196 -0.14760113538385924 0.05999858328738736 -0.1366509442920846 -0.09415556225224872 0.013649722022089408 0.04616634534396551 -0.09568320429361787 -0.06396313009982724 -0.02011967722221039 0.05683786223579179 -0.015296398128877042 -0.003704851051331863 0.14243192051834747 -0.17520568221526864 -0.08902545010032442 0.20573625391998723 0.023544826623789275 -0.11325019046579422 0.15276902700574607 -0.06100602997281106 0.13105010885507298 0.03899511930250951 0.24272072290508226 0.033227640716818475 -0.11438372894941401 -0.06873366078421711 -0.043724896319351364 -0.0155730841850724 0.06907852185981944 -0.10001544566312397 0.1161011162669395 0.16490532654466122
0lHZgvruzfV1dlNrhkY85yUYoiq2 -0.059206636053226416 0.1846020827850698 0.031793991196072326 0.1711399327686267 0.08367458227474392 -0.007028507553276861 0.11108014301187193 -0.1422007473085413 -0.10001939115675808 -0.06867583844790873 -0.029872242567201404 0.017161338161527054 -0.1302923119948875 -0.10472490002408812 -0.01872932890967633 -0.06818398766322877 -0.08499717427169066 0.052576856555776284 -0.12631821613563188 -0.0036358066356396127 -0.13611973794655324 -0.06319242165352215 0.07350876214300364 0.048504182075285014 -0.028244211552561765 -0.11674923213814219 -0.07203110119814365 0.07217342013617531 0.0011896306591061083 -0.03204823070684538 0.19261665909964126 -0.15787864737526117 -0.1446738584802153 0.24337698225966434 -0.0037344333127361106 -0.15540583705742642 0.18244334543211563 0.022135935656305977 0.1732124930524095 0.07317793581814912 0.2590347911776376 0.051081677966895646 -0.1208790904104545 -0.04236914727105989 -0.03005983924098343 0.021638324437385913 0.07694807660634852 -0.14145089921233234 0.07781805326176822 0.22369731672123394
0mnaFvPpYebewEd56u8NbiYYkOy1 -0.030102926488841206 0.12102885699395877 0.06139853952727693 0.10746593626616427 0.024500295672088758 -0.0023005947069853227 0.08659115174445936 -0.09482892297961149 -0.02271197847028801 -0.014891467757262598 -0.018784321242649157 0.019716403918680805 -0.02076800545819962 -0.058435868385437593 -0.035940577097766 -0.09186097442378895 -0.05279448733219948 0.024786819503401315 -0.04547201323247382 0.01688242546327795 -0.08432600537448787 -0.07919966167571138 0.024974249557417057 0.025329660887858353 -0.04291341166577486 0.008170663225426655 -0.03673560732833402 0.025187540948099687 -0.006710164088804417 0.0006070383084979692 0.04748221445368543 -0.11377378282981586 -0.0647590077525224 0.1338476866876125 0.009714325580232663 -0.08432322963777272 0.04935776217774063 -0.034461920164583354 0.07557564353914659 0.003828569811261997 0.1456110849877842 0.0014055320890272553 -0.04700276046563061 -0.03553186828371144 -0.029270864436632474 -0.020698474845846953 0.06194328866865239 -0.050944076230870564 0.051281017906307014 0.10605318412159076
0nJfAc0eNIQHVCcVmGBP6ogbydD3 0.00841008794931391 0.008603041052486606 0.010985172693263394 0.0012569201165969714 0.0028994547199250073 0.00834135533965111 -0.010502820298347995 0.006459472649018171 -0.004297980771979195 -0.0167300846874644 -0.005068155479897056 0.014156449137282381 0.0038522775588676695 -0.005463461254592535 0.0006006474216651771 0.0016846635609767341 0.011521456286536103 -0.004372777243742293 0.0005215694835511249 0.0075903639618716484 0.00014735001940895077 0.001381440098519619 -0.0036390707599601993 0.0036404967339098947 0.0015385806572999767 -0.01855473415791229 -0.007903820006505111 -0.0044667458026159 0.013284907510712984 0.012170763658372687 -0.0022984190494554388 0.005892197184286083 0.002078812216755513 -0.013228343957356588 0.015172148260338565 0.00043131701140425744 -0.008820609710284625 -0.0019229806638826588 -0.007150138669537604 -0.0011593876662465193 -0.0005480596296315579 -0.0051833211321446375 0.009099055048904008 -0.0034789079517545704 0.0034118217046606144 -0.011324550251252976 0.011747507510292955 0.014400424983929856 0.002305491642802158 0.006315808237514443
0pwkvZKwuQUlbhhobGxt7zuiMMs2 -0.08861263467773872 0.20901693706309057 0.020285885451562912 0.3224129075103028 0.1003310929443444 0.010962462218202004 0.15503054920343953 -0.23109463130658564 -0.19061257841887944 -0.08667143939931962 -0.028493999268725586 0.045699039105755394 -0.1891136803971735 -0.2294882973898102 -0.01212097225569732 -0.1555684699042281 -0.16951437948806988 0.08123327000151209 -0.1636773101801423 0.009352188148356153 -0.21783027639256322 -0.156761040801111 0.07043606087118819 0.04051995480109344 -0.07434919082450091 -0.1527075386594279 -0.1262819128910743 0.07362627168411685 0.014680943739348092 -0.017908717426785986 0.3379136118981984 -0.2725197847110836 -0.21882844414286773 0.34259395880724636 -0.021559891527298657 -0.2016421873322585 0.2377213886428025 -0.007646299603026235 0.23515618805138586 0.14015401759876023 0.3978766571674824 0.05991470079576682 -0.17218270793934412 -0.08528108538882062 -0.013190038371309004 -0.0277940826050391 0.08875827225536304 -0.16534379043550881 0.12529056440857086 0.33248879614268023
0sPgFx2YFhUFGv0LIOJ9ukrfON83 -0.08134538625057863 0.17536206444872182 0.08860321850102551 0.18945471229953803 0.02718556243375412 -0.011645783875667856 0.1263233769592724 -0.1766903810859321 -0.03448988666576948 -0.015869842613330794 -0.05933015931848679 0.04756584584111025 -0.04036152955291929 -0.07112133870975701 -0.10418923004477525 -0.13943953873079 -0.08378705440464536 0.0271532302203993 -0.046133645138031955 0.044478918328729376 -0.11561934079691799 -0.13816752260751375 0.03207054343740819 0.04581357096575356 -0.07677614883380086 0.0229137330912629 -0.05520001651222566 0.03451620071305495 -0.03558344517703946 0.0046148007434119245 0.018838631807358897 -0.18331924094357474 -0.10990312954519411 0.24220717330833055 0.03191848874348238 -0.1510552716062827 0.14704314432011995 -0.10275695002663113 0.09537853276737802 0.06523051337266428 0.2423306190825384 0.07226103825580021 -0.1405755949267326 -0.07374455123833835 -0.04123800164649072 0.00974020528397486 0.054337306643880486 -0.0965181903826661 0.12048524715002729 0.19627185893757199
0tQ1rir4ODXMIxWS9gwzQHK3K1A2 -0.06989041015688661 0.16628947269925992 0.044112533506828214 0.2313557228517779 0.09141417008013085 -0.03457666101493966 0.12719883047472405 -0.18997915058970635 -0.1140128512871368 -0.06812253749528284 -0.03093114708127651 0.03449854813739437 -0.1377552871942152 -0.15346981286641048 -0.07266195221220376 -0.14428043306963562 -0.11768321880311232 0.09612204930392931 -0.07837655080764169 -0.006485301374620137 -0.19743720437479886 -0.07661130849222217 0.021697755185560667 0.025905439962862428 -0.03936596393126006 -0.13014506117308902 -0.08162103957960695 0.07273299993892506 -0.02756275537157498 -0.061947224157779965 0.21419966409753172 -0.2036540913723257 -0.182223226361165 0.3242415102981758 -0.007581286743875136 -0.17675836335894315 0.17294867326876978 0.0031510497286778216 0.18744995612297552 0.12675170517287707 0.3004726883006279 0.08155509290630282 -0.10353471255817118 -0.062082445745534856 0.03143908439689042 -0.025735603159537945 0.05407165539999696 -0.14340987786461185 0.08941889825313211 0.25403379474828863
0ud462VNemRli3amjswER4NnE4m1 -0.00548242449186855 -0.013155155066668117 0.0207590163161045 0.01417014289549847 0.008960263950113201 -0.014250627542780678 0.0062711038524033355 -0.009016852372715935 -0.00653824927293227 0.014576223768808608 -0.018258466997324967 0.0022410044189223642 -0.007395994139713844 0.01791462847994999 0.014838414990682159 0.0005321593698481505 0.008921506915838633 -0.004817927799898062 -0.0007505798519405362 -0.00592426815914935 0.0026529363646776495 -0.01449287393681385 -0.001587480839276469 -0.009759417162530383 -0.0016614887851999465 -0.004135894086027284 0.004809256728426603 -0.022663341807822274 0.017034486625282036 0.0119934146302421 -0.0032144651188343045 0.010772841363377438 -0.004702772114373529 0.025312419521604096 0.02138572679977373 0.0006535329072203938 0.00622944701495222 0.003146227350765553 0.013568260964281096 -0.0011607233336776758 -0.010217143768506451 0.010307366468846488 0.010505750480892712 0.011196239606588627 -0.006745984145171745 -0.004601622975481927 0.0013630410332959493 -0.00858688805997 -0.004112032927444959 -0.010841822026080045
0xnD077427Vi9mSIVJJjER1q4gP2 -0.060097207741853426 0.1494260682684742 0.03633600284148078 0.15194065473872267 0.08163308805331225 -0.014877194184794006 0.10845319575232437 -0.16163292689270137 -0.08197682065414177 -0.030774405228736982 -0.03134664066365636 0.08639886304121891 -0.09996285754197295 -0.08383144724364656 -0.028516628089874582 -0.09670406943687551 -0.08588976969298973 0.04604894163847934 -0.08330994846867143 0.032383300110260665 -0.1365786065505384 -0.06433684681887322 0.06483093305589045 0.04981608271187279 -0.023998174562309706 -0.06493883460856709 -0.06374387493733587 0.04503785383556143 -0.036416654811861654 -0.03270001419257779 0.12534781297446038 -0.15919176664234697 -0.12328007881373136 0.27236496808730665 -0.0004302613432629547 -0.13927391767594222 0.15704183651790551 -0.011536179053083916 0.15366068980540482 0.07817656472108729 0.235465789081752 0.044850209414142445 -0.12787767467155747 -0.055444679236509864 -0.011497718187523915 0.007971514921370205 0.04169456313663607 -0.1107026566758087 0.11078127635194597 0.21148267338434842
0zBnSYVhNpSpiXgJGiMWOVe9heq2 -0.0949844000686765 0.2004893040872516 -0.08542681196997902 0.4827389890760108 0.13416525107526217 0.05192708903995481 0.26615462871539586 -0.34263795341910624 -0.2968346628433111 -0.1304218400423662 -0.04741772274217462 0.025909374686002573 -0.33910633951579694 -0.3856106664601195 -0.051733927620010736 -0.1736358824585677 -0.21526319040570668 0.08402052565211363 -0.2374025192853443 -0.0704520600289841 -0.3136005490879976 -0.217033634398422 0.057363909188794325 0.024834711028191566 -0.10643075012635868 -0.232059770663043 -0.16493489764438898 0.048528345234642646 -0.006653347809473206 -0.033952953625691944 0.5558297929483426 -0.28813427746084164 -0.2744043705320656 0.4717789674567943 0.007134454969461074 -0.2776960369176406 0.34667443805759474 0.11653697277598873 0.3580864736912464 0.31825286639788203 0.5277474826265167 0.18040775081183655 -0.3119359697876318 -0.03679220448956081 0.04982176186310733 0.01173639131213801 0.15623757075872013 -0.24414416461007674 0.01999011223272122 0.4663177983479667
0zWv1l5nFeTKt97cdBt0w2pGaeY2 -0.08142663212185332 0.20176256002602058 -0.073949893664406 0.49290441372827526 0.128578476577444 0.0006359652794190678 0.2657793973441193 -0.3497982588779396 -0.2980991342029003 -0.1611014161875765 -0.075280771626617 0.037932601222424166 -0.38346060575328855 -0.37307092741329556 -0.06950823138374095 -0.18866252598544125 -0.24423775210907675 0.03566205371391306 -0.2515789915457918 -0.08582291843579844 -0.3336873111805817 -0.22975380823504218 0.041116411912206684 -0.01481099265628766 -0.13140114661139868 -0.24797455465967375 -0.17558829191349815 0.03397337180563301 -0.011962119552389546 -0.05001005073268503 0.5724088958897161 -0.2928830162466028 -0.3350238160158031 0.49527024888725046 0.011606093950441826 -0.2993587706012472 0.33674049167827536 0.14112551540387383 0.359259170435135 0.3431150806247622 0.5187670277032939 0.1964249653910674 -0.32862280880112943 -0.0007688965556843158 0.07600612983207286 0.008588731398822344 0.201181133709956 -0.2431704344186553 -0.030301630344966024 0.4452524840480789
13vRSSFGJZgWLIV2C69A4HhBHT22 -0.058661479715542 0.1906027844247618 0.029684349618623655 0.2674120342110221 0.09520011109435253 -0.021288633476173113 0.17764176802014855 -0.2129851419866672 -0.1379386426523264 -0.08472172300101587 -0.029304398771595092 0.06769630432199245 -0.1682606039032705 -0.183989378771584 -0.061639076139084044 -0.13330071899951598 -0.15934382130094552 0.06368600983321426 -0.13179882314413155 -0.01637097734664395 -0.2169853648891454 -0.14145492222276085 0.04815380085699841 0.03339373872233445 -0.09080596654774319 -0.14085399382068578 -0.12660274753045428 0.07946235423150058 0.007778886879232033 -0.045136232610613426 0.2923250357350916 -0.23738363878804747 -0.1984956432693307 0.3540565268891304 -0.014240288550288149 -0.18115456106955274 0.23770567615163313 -0.017038435093000494 0.23083521631683604 0.13878594721650692 0.35341814234634394 0.05695594409416646 -0.17177493000785712 -0.06055544880447981 -0.005982984651699741 -0.06068380735122596 0.07538917860479354 -0.16751479732584137 0.10648720381917154 0.2840874062986018
16dCX4UQ7QcL2TGVYzvqgUUj2ah2 0.015456588046255576 -0.0055265114825441206 0.012121761434149857 -0.003791896863516586 0.0039926346767300835 -0.00849662880676042 0.009622095625399065 0.004581189707777023 0.012229856189473755 0.004018932343244245 0.016895718489503823 -0.004921523901030055 -0.009064087073678777 -0.003768322043470891 0.010667203662439638 0.015064574673462956 -0.0034292132134867734 -0.005432464153072053 -0.01200825128362559 0.002508398601349989 -0.010051424634215612 -0.015591262052067756 -0.00455532807516881 -0.006775828723279843 0.0020203772769464812 0.015790694059230403 -0.010740380229661093 -0.01314702676022834 -0.0034230631138400707 -0.01474003953871206 0.004077585185223512 0.0009571850308916916 0.011030399347063766 -0.0025705710654244404 0.012522284393520494 -2.1430809190221048e-05 0.0018273690105269844 0.005002613094712128 0.0015751913265348552 0.008120659168060053 -0.008940802831256226 -0.012242604074357608 -0.009744749786612975 0.018967842393230454 -0.0014722268557539535 0.014826005872919027 0.005124832372626584 -0.0181765137439217 -0.001686303849591725 -0.018224447051421087
17AdRxxlOkZb4dApQcdtQ466hw23 -0.16258033288411927 0.5127461899132727 0.29560441647507973 0.581405322273228 0.1098601196423332 -0.1546185793364343 0.4458968047037271 -0.4745484167023281 -0.24830054332492826 -0.10942275974780975 -0.11744415092135774 0.22168022910598356 -0.2841188546434317 -0.38839066847690407 -0.19956559719669512 -0.3369612112248549 -0.2748706733329202 0.07559007931450756 -0.14687765667195998 0.02576178499217309 -0.44371662987701865 -0.4018886982139511 0.2607977860191401 0.17525715117283372 -0.1865703980985068 0.010960756808375193 -0.21579115503776236 0.11148923891068481 -0.052751745655480416 -0.12464143159666541 0.21701521777327537 -0.4180080746297873 -0.3699632133019009 0.7028126689918666 -0.06344691774770561 -0.5615179344798013 0.4073861612021419 -0.27033040837376576 0.3300130039645351 0.27774376924801786 0.7835564843257721 0.06205478637986187 -0.3456501453986339 -0.17275248778935698 -0.11072453247544073 -0.017501534443019065 0.16034568807544847 -0.28897437428080713 0.2929175318212141 0.6986644192711635
1CN9tlNySxUYt5xxGOS7t8UiMOs1 -0.0007034487710410242 0.0017517103850750262 -0.0008886076031874212 0.005138050210182806 0.016151216252969357 -0.004154413615371727 0.006887751667922166 0.007105703298203904 0.011725204235650648 -0.0028913450876291887 -0.0036831807169911885 0.02594784710027761 0.003212357795263971 -0.004006312868552272 -0.007306600888645501 0.007349285182578542 -0.011139602726871738 -0.011311192787097489 0.010915478450995839 -0.0008056332380895454 0.011486718780469331 0.009883969481118702 0.004470731530313287 -0.008136496375528409 -0.0028883399761708227 0.010741961344948895 0.0013275401079795896 0.007036920067521094 0.0053737598125957985 -0.00553517802580639 0.012203373827724014 0.01061416640665592 0.013394591994996341 -0.010022551710022113 0.0010226090643625965 0.0026424099872009448 -0.002293228771081385 -0.005371648796062128 0.007147118815466122 -0.019674794631657423 0.0007824754305115909 -0.011952558642713822 0.007562127020778039 0.0010569011463058573 -0.0028768146173276184 -0.005313558127744715 0.013232067323839842 0.002724028807543687 0.014527744779841867 -0.01004672920514172
1D7KwwdJXjNm6DcKkaO5qAf2Lvx2 0.0030796885521603423 -0.005295157789486404 -0.0015912064967496056 0.0004303035766582263 -0.00011041739135741526 0.00709886083761855 0.0032763056798336084 -0.009470929109881695 0.012857269492725565 0.006014936266520128 0.0036738468358792284 -0.015809576419575096 -0.008923062917544142 -0.005834794043567891 -0.0032225078192364264 0.001427263101357334 0.004057371680285493 -0.0015129013673743235 -0.0031101695813942278 -0.006898341416037991 0.010899032807178048 0.0008506257326828049 0.004886592316626984 0.00914298480825592 -0.01445761322461834 0.006978978240043314 -0.006440309431480623 -0.004718669733744491 -0.011363593964689965 -0.019301445167951174 -0.0028792818499757318 0.003353409133273679 0.014836699309662423 -0.007509406860671935 0.0032220783992587165 0.009726786389758746 -0.008848227377921073 -0.0006114417823022974 -0.011679376167364195 0.0004484667046574569 -0.013041889214550356 0.0010096649627545572 0.01694997450083471 -0.006339764167184078 -0.0026214959953657006 -0.0023345635442920828 -8.908561894320359e-05 0.0027050659191760113 -0.0064254047971931925 0.004269583756507672
1IxtYBzS1TWk99FTwyxdNm2qryd2 -0.05015021445689426 0.1798401338186669 0.009816368683325275 0.33121632306072535 0.14069458871666052 -0.012047751206163308 0.214774143172925 -0.3031747936395784 -0.16402526732447595 -0.051128052360791015 -0.11818311964608114 0.04613988647688852 -0.30084719173457813 -0.26412150353918085 -0.08422014921717114 -0.19859178475980035 -0.13373283308485087 0.09307393785109415 -0.20061313153976593 -0.07322588465365461 -0.29493263341618414 -0.1486724531230119 0.06053325476403905 0.029692499896461735 -0.090836611879962 -0.23408046699548768 -0.12483727651336357 0.04724957191353317 -0.05126847576997697 -0.05198573452550076 0.4017806295009735 -0.28341715556384706 -0.2785862567431331 0.4811582175282671 0.018022215797364224 -0.27038681835461204 0.27818744666190504 0.10155758588986953 0.23441072010777558 0.23289106590953126 0.44077879711215223 0.1536505227151248 -0.2709414295927123 -0.003249299356925613 0.05847432517059452 0.015248612676407682 0.11757242221541547 -0.19657787902070792 0.04289177785245063 0.4311153898083783
1LULrepajQXwH7BeYt0zKIzYPrq2 0.010338007325554992 0.01058814717443789 0.007495049474131214 -0.00535722836267837 -7.131050860127833e-05 0.007305398294631852 -0.01721584766594727 0.009431886694952415 -0.010957111993838562 0.0034518163559594567 0.012153246442018277 0.00010052523937781041 0.007312114111579574 0.005788963112521096 0.011718268329941255 0.01627601019214274 0.011617112490245557 -6.587515329213225e-05 0.009396962630952547 -0.005977817132628347 -0.016468262515023688 0.0044826333117592935 -9.5946786712143e-05 -0.0005814133293742847 0.021067430035583142 0.004644030363420722 -0.004334844248678497 0.004114016560230443 -0.005471790933299912 -0.004492316703068462 0.009384429839405106 0.01286426639460558 -0.007649661568328314 0.005520033274366754 0.005005444633435103 0.0006568137201073791 0.003985592253611448 -0.0001533680261769602 -0.018674474979681225 0.011536050993328915 -0.0036068350133120694 -0.011508543418378578 0.0015853587191260008 -0.012535353531533552 0.009838586307781415 0.00531242702496035 0.006854037820516384 -0.005577553977794815 -0.0024793154941988253 0.024373760231649583
1O9vD38TeVXBib50D08p9n0FsQ62 -0.04447655807397785 0.17675559214986508 0.039688302696415885 0.26177691664178954 0.12097637166421404 -0.053650216909165334 0.18479856700439648 -0.22425945634175817 -0.07520008590321083 -0.03005949800470131 -0.0635925962086733 0.05935823334660414 -0.21219713788913702 -0.19082051009232073 -0.07704145389949583 -0.150641670616669 -0.150837781936986 0.07618524278887907 -0.15010822043157326 -0.031970346900588156 -0.27897628839001765 -0.14351096754298398 0.05293631290635224 0.05894873640115431 -0.06946635615225746 -0.2028138825395623 -0.13386609750032244 0.07534069036016038 -0.06305905618797109 -0.024877048940321125 0.29581036436022623 -0.22815657791708605 -0.21593866877072287 0.39039346359496213 0.019658174031921553 -0.24320245587848263 0.24720147684353014 0.04275304784926349 0.1393182884994017 0.10624505027145974 0.38797643141106364 0.08457237806280461 -0.21593437722464962 0.01795060711858917 0.02174591784934844 -0.037846988776723836 0.08634217560111744 -0.16256077560285637 0.08709313903488577 0.29687366359604833

 -0.018516012714428192 0.10871022202000732 0.11850182288940757 0.10244399495317656 -0.00781812940062064 -0.053277044139940964 0.09475356640274872 -0.093866994566447 -0.006184758484745239 -0.061217084129902 -0.001089875828357926 -0.0074229742180908845 -0.037412481858217474 -0.0977389685156834 -0.023077579753192832 -0.012048472406001175 0.02295278199971849 0.039011092535707496 -0.0630328106425675 -0.012050415009397335 -0.06398459962157042 -0.06373873799548725 0.0906504389691422 0.020409991686689506 -0.006233717912521461 0.08930008317054923 0.019318172100556773 0.001193776981020525 -0.04674529451489991 0.004092533792962489 -0.03450612572801119 -0.07409623967117822 -0.014456561107883324 0.08375845273077619 -0.00178332594546742 -0.0993477875265144 0.06300461164996404 -0.02241987411060777 -0.0016701420005381202 0.038653181165624224 0.11903405537674748 -0.02688336974595044 -0.007683730916491556 0.01167792061361499 -0.03939107232646907 -0.012106872683126397 0.051465485929378274 -0.07806911645366141 0.000704077776790786 0.04639165923569
Hey I’m Shobia it’s nice to meet you what’s your name and then I would ask about their day but most I’m awkward "
 -0.011426312890227634 -0.007018494437516053 -0.009919209905450428 0.01019314206177945 -0.011615069050556703 0.00703425033022351 0.0035691576172098075 0.016036739895718008 -0.01610467331595729 0.010920700318396297 -0.006239929013832588 0.0017768386014627077 0.0011430449906662202 -0.013275060630855668 -0.0069817629739581935 -0.0024853838910668152 0.025525833351078078 -0.014091202346525047 0.009743569213206743 0.004281787327763661 -0.0015351724655036619 -0.004867945214748238 0.0031157244578171655 0.003829038923297643 0.003034463682093341 -3.298604787428952e-05 -0.008966287843902666 0.01082637449762115 0.0041500882160920285 0.018675233965591165 0.020615135584043886 -0.0038836618377398988 -0.004147005492361834 0.010006557924482962 0.00573902263430387 -0.018458895594540378 -0.010640356262896642 0.003254604908357224 -0.006011084842041183 0.015734861795242708 0.005593680895726463 0.005483235990218792 0.004620854368632502 -0.014224864252390244 0.004418290999472377 0.011843755401362977 0.014975506903567939 -0.01009000556455625 0.011415149979645023 -0.005424406071513836
1QiZdM2KTUVpZQw8pCjAGR7rkM63 -0.0730078719841503 0.20140016157948984 -0.04999601592353849 0.4467980063159991 0.13484421550528855 -0.008283516576604298 0.22796333663820154 -0.34053820301904447 -0.25157580335943874 -0.1187325415245813 -0.08098815478140378 0.04041462963584546 -0.28929921683612086 -0.32442689869841695 -0.02681210858186535 -0.16858038135130746 -0.18764609868834622 0.06060932309583705 -0.21370733410156886 -0.035968057768676474 -0.33214872392400585 -0.18510358015659256 0.06765576220140893 -0.010196893010882328 -0.11717465899628121 -0.22082606650952216 -0.14244124783633283 0.04831365722179869 -0.010209915359243376 -0.04251875608067847 0.5367256016512962 -0.2972078033336754 -0.298713156944888 0.47515616085226986 0.006319718876095961 -0.2507735476796133 0.3083975189411774 0.0882477025259095 0.3334984661953237 0.3053433007250801 0.47860140201621776 0.19026339485438357 -0.25763884194683784 -0.023754029295022835 0.0812517944871402 0.015660736973406968 0.14619745060728792 -0.19525062352518446 -0.0067867153974615 0.4366818850615296
1TMiEopQvvP6nIkokmGplT1dFy52 -0.0808484077313074 0.19731762689667967 0.025957654767234103 0.26130301823135527 0.15807336401168032 -0.011333231924542641 0.1683211714083166 -0.22497449170874187 -0.12244250477171954 -0.08785767336627856 -0.047361667202674616 0.06254396410953182 -0.1743745100222821 -0.2011830926073943 -0.04206005355596214 -0.12435109690211124 -0.1715855100601009 0.0774353020376994 -0.11332767413926112 0.015089391489667585 -0.20940599350546257 -0.13101710978298134 0.07167575143028516 0.0508473144469433 -0.0591538818352538 -0.15617436660903689 -0.11974120552021232 0.06401531834288357 -0.017213689724772573 -0.03274106938072775 0.28251856080646975 -0.2501614422665806 -0.20967010120191443 0.33950424411224833 -0.03015639090271772 -0.2157095015138799 0.24036101606177065 -0.0009109398861830457 0.21703933481283913 0.14537265648846168 0.373586618454858 0.09381553898725806 -0.202386445307975 -0.058386978461598925 -0.005934662649815919 -0.025185047759242733 0.08446340696795976 -0.1769752753708288 0.08630323052729448 0.3061399432917017
1WHhl6ZID1RraM7SnxtQJUJaDJi1 -0.08390618696749415 0.18304798901759198 0.021278137297825808 0.22487355978339088 0.10450679109736366 -0.015297996875243879 0.16039771055415178 -0.2198413130729546 -0.11394694284840777 -0.08753594800234704 -0.009979869129694011 0.08055835775559095 -0.1440178171787877 -0.1811399771020869 -0.03311681641412936 -0.09664127639307783 -0.17260434264326321 0.033502596889507893 -0.14255317977175247 0.0074498526790471396 -0.20145326563258625 -0.13186836083796388 0.08521294015227594 0.042008462595637674 -0.04516519859893266 -0.1289446365760426 -0.12827041841886985 0.05571860398129994 -0.010102868190519244 -0.03448880739062758 0.3020281554707824 -0.21268438829200945 -0.1749908398091197 0.3014934138792044 -0.027419612242654316 -0.18710115880374403 0.2476468990727525 -0.019494990983739992 0.2068485286699239 0.11200609971640861 0.32895358599910746 0.051492686574457394 -0.1631887053974586 -0.04823567877081713 -0.0030738936580644036 -0.0031487928782486354 0.09966341523908376 -0.15275864924605573 0.094742695015549 0.2900966717326911
1WRL37m0ChfnvDK082oLVIJIwXJ3 0.004620597371620487 0.010730241342647273 -0.0133675212841724 -0.002770630825880338 0.010851168800297285 -0.013692826920116863 -0.008858996396147482 -0.0007253278223450881 0.011283278703520177 -0.004480125688076441 -0.0023917981071436127 -0.0077741006857541895 0.020258708287393862 0.00557948570966575 -0.005139544312806035 0.004430932277392405 -0.022603827725644666 -0.01136586478831217 0.008495104526494634 0.0035078100119757295 0.0012326507552053649 -0.005602369844427878 -0.0016746867361837278 0.0058327146018659435 0.001477274453153242 0.00040805838127824833 0.008740990256920636 0.016398748085295095 0.02264311954148445 0.0009117604692922975 -0.004011045053856553 -0.005864300768596512 -0.012682220857104992 0.0010744946611364074 0.009221303932811098 -0.009512979054224236 -0.0057579736795669734 0.005603010367377968 -0.007434472832512678 -0.002132674936963375 0.017099053531999905 0.007020060329421995 0.003645000526554343 -0.009490859842644105 -0.013532524541551433 0.00539376445559233 -0.007420702380190944 -0.00791603492564934 -0.0021680910922561147 -0.013250205349880867
1WcsDWB2M3fLYwtj0BqElETr0ll2 0.007042282254621743 0.006352851164219758 0.002446573948210799 -0.006218995017341582 0.007214901843936178 -0.009515702037575543 0.010428982282614779 -0.01766863789322061 -0.012143904747382746 -8.177561729665907e-05 0.005860523427632082 0.013625412111560162 -0.0014415606707732333 -0.0009658637616319996 -0.008153056834940178 -0.009672115743827212 0.002636091785316755 -0.009805955491184645 -0.0028273586317808788 -0.004043790603802866 0.0018339171839965574 -0.020737324693848702 -0.006684143382646592 0.001325848768158016 0.013375178092946987 -0.009059426119337875 -0.008651825352899172 -0.004378121850845823 -0.014649953879801328 0.0015953603935754915 -0.018742949071482915 -0.01290924625773523 0.00385190677369298 0.0019618265327536093 0.014765474682842481 0.0021280766239823636 -0.0019570511991085586 -0.011056674600992142 -0.010226808008631556 -0.0009930782590054361 -0.011181363993788964 -0.0011101218409153718 -0.004013636656535092 -0.0003382256539836456 -0.012823505708262191 0.004468256006524018 -0.0029176483729375815 -0.004198568685702437 0.0011388443058515808 0.0007297122817118157
1XZmmarESEVbvjXCtu8myfa1JtZ2 -0.054488971208660975 0.13895621960310695 0.03033264989576506 0.162034259594315 0.09798705348442704 -0.02143474407750982 0.11781702144619206 -0.1518362672396907 -0.05029232708458835 -0.05557863519531593 -0.032630511059663754 0.02864366820295273 -0.12062929452825508 -0.09486308801248655 -0.07416572343694798 -0.11922352992370258 -0.11082385764912007 0.03291767709059886 -0.10140066762477172 0.009108399634438194 -0.1681915925628415 -0.10008814205615738 0.037179439712048894 0.03040905898779774 -0.0205893675475161 -0.1106001729210993 -0.1029628142189716 0.07191339246318754 0.009463484389712116 -0.04368281143984568 0.1517981312265734 -0.15287806205342158 -0.1682281624511842 0.3003108565677886 -0.0005019680260518188 -0.1526312802213693 0.16693179510972686 -0.008262864121592214 0.11413336091068711 0.05549785738236635 0.2812875661638495 0.04479755917677924 -0.15517651087594506 -0.019641566524099166 -0.015725073532278033 -0.02513369021560688 0.09461626619409363 -0.10945002630420134 0.08892713975879392 0.2217764045258503
1dlCy2OnyzcVBPs0uiS99XrWUJm1 -0.126082447261879 0.22319242103431708 -0.0034696287659030755 0.3063638514036881 0.08703684564953788 0.014531069110743311 0.16637372471912204 -0.27580587910643395 -0.1987532014819282 -0.11969838847371746 -0.02055043591066754 0.06714526915699774 -0.24246878343769765 -0.257116338117589 -0.008097555530931895 -0.1432171041338498 -0.20197881870840925 0.06690217535336974 -0.20811603792350364 -0.0135754781841764 -0.23912248034738456 -0.1612956519538874 0.07893124055058977 0.024890572680296666 -0.09747241451643136 -0.14681965686142526 -0.12942065957093943 0.07521852010125608 0.00033015462673299974 -0.034157189860923025 0.39020674898286817 -0.27290109712600424 -0.21952610152583804 0.31703513619373225 -0.02225315511669857 -0.23561246149544082 0.2681973029037941 0.016719148538985217 0.29824470804850406 0.1830832330793746 0.40276495618337155 0.060969754362920944 -0.18871932169114214 -0.07941997208483706 -0.03269078565160842 -0.021256268004780803 0.0992804601941033 -0.21431471540629748 0.08992103521834886 0.3662225226520845
1f1XZ0AOCJerTVwrmevo82lRyGh2 -0.04696399282671405 0.15864049847551884 0.053873408069679427 0.15144371821889213 0.06425268462801771 0.007326932725311711 0.10340506607200949 -0.15752326388907092 -0.07076526644237395 -0.05686594908481763 0.002029374657404384 0.03235617635264801 -0.07475670110369363 -0.10143271165164054 -0.027528190450000635 -0.06532371468773075 -0.08364155279151536 0.028868534105440075 -0.11700035652740923 0.024476190675448723 -0.1269332004289668 -0.09964803325553676 0.03411291855218573 0.012856996109546609 -0.05244458886660429 -0.032345194175413525 -0.0475535271109588 0.04912149192509556 -0.020331167250441894 -0.0023422025903207236 0.12623191259213634 -0.16448525323966767 -0.085273257504644 0.18052133406852647 0.008538264586210235 -0.11713054223674438 0.14175734312686522 -0.03853873819731046 0.1096813049416351 0.06544057375452342 0.18714571585989312 0.012736324675428623 -0.10496183099136014 -0.06250641336424759 -0.03945102990131255 -0.015365713804363197 0.06563149401549574 -0.11380875404221005 0.08338561363604761 0.17094434827125973
1hEvjcD8dzLRI4eIozbkH6wCNh82 0.002269625418708953 0.020027932897849973 -0.02261864012547941 0.0061683254417870025 0.01712670411265028 0.003975173560184241 -0.008453830755906243 -0.004078209925047576 0.0026832215944459937 0.009561269428547861 -0.010334607298690538 -0.013926611524504577 0.013081396536175668 0.0003826543791512341 -0.00352660463296121 0.0030735602871280166 -0.004308340368886868 0.0017639241958882707 -0.0037670488091430983 -0.005127083434987994 0.0006717107408440859 0.004069452183398088 0.000708156594312273 -0.019192636517582125 -0.0016111146917459308 0.0008717535181047212 0.020204629224432204 0.0028047006577032 0.01213818623046595 -0.0012282588093297793 -0.01586273149763988 0.01381503121375354 -0.017751606989860853 0.0027243885928284525 -0.008817218343561981 0.033024330903257716 0.005869904622781662 0.010258966341404493 -0.013626197402750749 0.016104160468997885 0.0014834422421999907 -0.013772034202077848 -0.0022034916692837215 -0.0007814030900670694 0.0006841701123245129 0.0010813793184092932 -0.022073094788553273 0.013381696606732614 -0.008358604982915106 -0.00760992234610021
1ms5FOqSCrMVqRhhi5T8nMoLwEi2 -0.04771201708234137 0.09636699727278095 0.04866886336936268 0.14216652756162138 -0.012003397240281394 0.006471888115004572 0.06337090257156272 -0.13760736299711973 0.006201878895125174 -0.01803951073401752 0.027297793961122162 0.016961770098371368 -0.01450615899173978 -0.09353947902100236 -0.09104661514580732 -0.06653198930286239 -0.063398333424954 -0.00616683276379717 -0.019691932103307004 0.012660660582555102 -0.042719678241039845 -0.06630164980440963 0.021875522182722908 0.020594256505001542 -0.0927234181459186 0.08996359727792867 0.020384354100150895 -0.01428955405562659 -0.05410301747229819 0.002740725134698925 0.0010408414277199365 -0.08410464161089083 -0.017222011104667104 0.10524155358739859 0.0023719694501775773 -0.09356059262552768 0.047662582918935235 -0.10713111766669685 0.04884315195379256 0.05669491923571248 0.13766927158006298 0.02612759453425481 0.001476044325126801 -0.07201367675970562 -0.0048800317329928695 0.012649566261030275 0.01076491417559413 -0.05157251586638288 0.05837539459695495 0.06618125079287603
1pHpjLDMFoMINRvF8YZVPOWa7nl1 -0.04477792710467838 0.1628465526958916 0.043909124014832525 0.17586751829954392 0.09566663524700518 -0.01545286282765803 0.13834508840987508 -0.14472941971414835 -0.04896976232389209 -0.02228478977891996 -0.060799945549500155 0.04254464705493039 -0.10669262023208888 -0.07942956273956703 -0.0692724872569012 -0.1596010456762136 -0.09063369482105517 0.04724385683645044 -0.06868996715106516 -0.014286026338423432 -0.18268266746500442 -0.09211852113727088 0.03439240931667812 0.04936987798510076 -0.04495366868268092 -0.11941950921721677 -0.10004511238974693 0.06554822114047049 -0.016441514397843422 -0.05383317097930226 0.14993945751707147 -0.1622332836142103 -0.16591052104056012 0.3103169539389906 -0.0019038754411726216 -0.15503994004287885 0.1765373447816866 -0.02972666012644932 0.10646583755289102 0.04655431721145013 0.2754711071280725 0.05269886881105901 -0.1583846061591012 -0.005927001854272223 -0.020063828376065566 -0.027394756985411155 0.08391318415199284 -0.11830459596945532 0.1014437188360085 0.2367135972518027
1qdDqoXqgWYZOja4fTSbcsw8FYJ2 0.00039512686693366704 -0.01259131173920121 0.0061317973224727955 -0.012042110185077849 0.008932509826191233 0.014038890723792568 0.009484705473874635 -0.03037921286982639 -0.009163358189205464 -0.003570744380358581 0.025238385297042518 -0.008104299229576017 -0.020460892495690466 -0.014083746172402599 -0.008228198002411223 0.01111717695642779 0.005113992152858365 0.0022476645633413687 -0.013100783468039787 -0.007378579887618315 -0.00492189117324248 0.0026627418225264776 -0.007556472371291891 0.0035503225760309576 -0.016091109283607068 0.0175512000171487 -0.013986153262365946 -0.014588934070827966 -0.012120431109857738 0.009929886243766619 0.009277829923616919 0.006255220994018225 0.011533870962009899 -0.007200723627837788 0.0008230343919420868 -0.00493455561484425 0.01106984852291816 0.00014217666173703747 0.01298199127168578 0.008198823697371531 0.003244941738801571 0.010948611417237623 0.01256431619058491 -0.004847331967956835 -0.0032754383214289463 0.005885504077231745 -0.006624695898940272 -0.0048520265460850346 -0.009020077867401896 0.007778822451300676
1qvS1pTRXFge56nkJlY6qkqPyOv2 -0.0486098232878106 0.20235602111310919 0.006964995987497436 0.3158682010981011 0.09669275562667665 -0.007035594853230416 0.18777666525703363 -0.2586279855658776 -0.17077517940853432 -0.08492288570829362 -0.04879209826259338 0.0462283135640778 -0.22927563314605187 -0.2666399335321682 -0.0415322448023557 -0.17453417776585978 -0.1589345853235852 0.05681130017544612 -0.15674096538116108 -0.0162588189664272 -0.2623071193739289 -0.15368830860363272 0.051423375105728086 0.010123946728263021 -0.08486352534718693 -0.19308755243019324 -0.13465894000030718 0.09083824496998211 -0.018341135429812916 -0.04050796399768549 0.3704303637714261 -0.25600003862055504 -0.24357462145628073 0.3754100662292603 -0.019590185105335382 -0.23843194683045932 0.25676375262690426 0.023906160836102565 0.22588072883139368 0.17792837321458788 0.39723919876436414 0.11536295134631251 -0.22861742783518293 -0.0455643036885074 0.022801321511556536 -0.032338694792179025 0.07391381694030363 -0.18613599704008427 0.07671867075705806 0.34691790216750235
1rBjBBnc9YfuaBKecvrd05S8EdP2 -0.10140579801201645 0.2179630298228682 0.008637098334439491 0.3221244733445863 0.11363354184474118 -0.010157652853144034 0.18836182885484926 -0.25883940279390255 -0.17691334816456308 -0.10566280937396547 -0.045789360476110735 0.04351263874550751 -0.19664540886636375 -0.23147048117221375 -0.04446155599064332 -0.158996042996917 -0.18229902342461538 0.08736944838282167 -0.1795735488477969 0.03254777388520607 -0.24890232633982476 -0.1496909028608971 0.06039297451788615 0.03816923803411977 -0.09397317912399974 -0.18619432023039645 -0.12026723425392387 0.058646398852482226 -0.010520048063190304 -0.030367883409604855 0.3700785435922726 -0.2487347313503529 -0.22885245071070373 0.38237848870006597 0.007618515662234069 -0.2321935672442143 0.2501606413497042 0.020721960548825132 0.2630410517472228 0.18442621916352947 0.39685389836798857 0.11616799495509804 -0.19115329898035988 -0.05417020061360969 0.035472229125517375 0.016094220604526605 0.08222195369585665 -0.1962717505995105 0.08529607221322988 0.38139667674015465
1uiMo3cc69Tw1EzJaq8PuBZZj0n2 -0.05524028877701236 0.19904120101355172 0.044273083239733335 0.21750465417495504 0.0815157185394887 -0.021352601483960773 0.1559651061723657 -0.20239847841099076 -0.11200087623034617 -0.04251718608604075 -0.04717665592233074 0.05347782693482454 -0.18506333340187842 -0.15244119606469744 -0.038666987277021087 -0.11845428218466222 -0.1281289268582714 0.07029318317452539 -0.1328090150201742 0.0052412271942288945 -0.20714629945956803 -0.12218527484764645 0.05150202370134909 0.04155510782313564 -0.06539153003544729 -0.1450692481655009 -0.10632770532606965 0.09156502163092894 -0.005905855937456996 -0.04176169717075453 0.23312476664793863 -0.18680050939410542 -0.1919487862556653 0.3442506765683628 0.011299127387011896 -0.194180529201439 0.22864862877062547 -0.006760680267232364 0.15639351211332456 0.09169788879372688 0.3044867012559086 0.05464442773622496 -0.18869742299051623 -0.030781474671420464 -0.026560551254368157 -0.010246488498240332 0.07242160481133553 -0.14207383588794878 0.11144770942357937 0.2568960492703809
1wcoIkq99QXJbNbT9vuptv9Blb03 -0.02829470632114533 0.08472209227850318 0.05716617752994269 0.10093619640573423 -0.030002644950095247 -0.023642839305698257 0.07288373586039838 -0.0953950630432201 0.009681387170084125 -0.013315078160093394 -0.012507692935009342 0.0019494126660532288 -0.01446872054004491 -0.053011562582651675 -0.07735048011345791 -0.05709314921370197 -0.06697115784138338 -0.01906391791809245 -0.008537077088454357 0.012997278548056948 -0.03287309583939151 -0.08682843691499098 0.023950190388703857 0.05050656501578586 -0.07175553213696005 0.0708760422274608 0.0003225900979413475 -0.013782859724360181 -0.06164182565182139 -0.002962315899257679 -0.01710259333139416 -0.05374492470743126 -0.021590911695679185 0.08962420337095972 0.008441453032616564 -0.079848080879784 0.04687741158740418 -0.1009588588265673 0.007166287525327487 0.06005246639059179 0.1090377653597564 0.012939255754856147 -0.04446062152013432 -0.026229484078707687 -0.009182964600177028 0.010316607591938533 0.032562137332182675 -0.04267794401968515 0.04438878651513163 0.06323661333458035
1xqwn8BQuEWgazByr48aaHaA5YC2 -0.04851743768914916 0.18364743757439614 0.03292619679302951 0.26274456651339295 0.11033355024191578 -0.022156724844277435 0.18794035322992675 -0.21599044657681465 -0.11201099308928705 -0.05705929329374414 -0.04956016368755079 0.05436481715224703 -0.24415524396231184 -0.1915406559238206 -0.06341790143536348 -0.14950427758621318 -0.14906783536516535 0.09020053557258056 -0.12714764442655577 -0.020566763631185415 -0.26352678122341305 -0.1562459428381827 0.06091547421927831 0.034132121642814366 -0.08120747908486009 -0.18237993679845796 -0.12221351363485385 0.07359724395834415 -0.028151814808660105 -0.03355371150336085 0.2907688938882382 -0.2500874265928454 -0.2051230544953668 0.36293073642526297 -0.01844674846954178 -0.21884647745948044 0.24957645217049737 0.011463466356206797 0.1938064685226306 0.12792147802922094 0.3759110184701373 0.07143173941543537 -0.19047517984340723 -0.014414564306679603 0.002059823768183698 -0.04233161069713285 0.0546921899388984 -0.16368346480437185 0.10047681185255015 0.31782804505952966
21DAzAFkZEhevXeYtzfaQr6cJPz1 -0.02858817800837263 0.09650799721118826 0.04094514924931962 0.10823884089736589 0.03994591465260906 -0.002466158632453846 0.058131721714077 -0.11592762385986355 -0.061618331705752365 3.7279039121476654e-05 -0.004681520668034712 0.048794793104012385 -0.05516576970061782 -0.046323534948986014 -0.018274113135996913 -0.05599015220892819 -0.07467187995313744 0.013921907016926648 -0.02200121961384756 0.003947337652480532 -0.08165214646050048 -0.09607852288052388 0.04445644785976921 0.028812437334590508 -0.05372822620352531 -0.02453373374637957 -0.036842579577965384 0.02649794961313047 -0.022891372770571444 -0.028432410104600996 0.058974657796037167 -0.09687348940867975 -0.08002994290701906 0.15684220328381188 -0.015711041917243294 -0.08336209907401841 0.08431300473719622 -0.056653063227736354 0.08313615376979018 0.027037373750261398 0.16990945830472595 0.012169016614304837 -0.09275835176185866 -0.0356650519818122 -0.0017167401284144052 0.006962723775961252 0.02777399460486123 -0.06785718854715375 0.07501220366895656 0.11565090918960542
22mJfXkvlEUhNV9infDtq2liuDb2 -0.01935149518718778 0.08883556724142437 0.060066525417649445 0.16849903825316398 -0.026812532823801576 0.029742556529964236 0.08132414074600366 -0.14194219611094483 0.02072280006293125 -0.008480661196369955 -0.025989919961335112 0.013420994879679349 -0.022446763424294826 -0.04303295937937294 -0.09115390983470001 -0.07440509719330655 -0.05316814208865933 -0.009957838608386201 -0.039660418379255026 0.03421992734445009 -0.04178433361666026 -0.09164522538182429 0.01846943279286578 0.02828769061865367 -0.09456467823389057 0.07809386916379148 0.0085534048822601 -0.00012176682961241624 -0.05226292926208015 0.006092167012815165 0.02739479061961519 -0.10372820748727457 -0.03074491325141898 0.12012291567331729 0.021022590362261877 -0.07298557786281536 0.07453557840349705 -0.0868892933860911 0.021862814731141156 0.05550187417812157 0.12868205588095674 0.010368573431613815 -0.06192371057853173 -0.03854066406347071 -0.012300253567196702 -0.007928095380124104 0.030259465281294935 -0.05759695375793445 0.0666434942106013 0.08700082464248605
25dBM1BrENZXQCXQ9CiIwMeU0l52 0.009849198419098969 0.0039033839574406253 0.003023144855326311 0.0044660447126921785 -0.007937706640883275 0.0034232585725960875 -0.00578214081041068 0.007156714972891731 0.006577386943350395 0.006703827855421181 -0.0024394694882240533 0.0023446368337489165 -0.007133230937324152 0.012925629102563124 0.01037485829321839 0.0018665885163779013 -0.005455120882968836 -0.0017330904743210614 -0.0031514248375955098 0.008786210132655604 0.009701397065444529 -0.01639637533674804 0.0038811183472389757 0.006118385148393451 0.005465441856423552 0.0054767538642193385 0.016454391921633164 -0.0001740469143027017 0.008433684160262198 0.001503948824008031 0.0040239203194917545 -0.000776278712598916 -0.0005693617204473161 -0.02497499750261156 0.009656897642465792 0.0031334149175610304 -0.004673452813560151 -0.006607987661379047 0.028510193496028183 5.412143078611513e-05 -0.00117719036777679 0.0016826525688721258 0.013197822189845072 -0.011751632287796266 -0.006652353693354941 0.015407333624814444 0.014481211851736647 0.006583911150123819 0.0029927505380657475 0.002993029107102531
26LlxVq11rbCKYILmQlkqhuPCPF3 -0.06461650030414108 0.17630314656876558 0.025957891736263537 0.2560988632512987 0.10971866941433897 -0.020341694056251105 0.16316678036151147 -0.20624023439773131 -0.13345709639948866 -0.06816611562977856 -0.025941474504133193 0.06926506662301411 -0.1734697895371316 -0.1871407657146758 -0.042293104312023544 -0.12417271807099953 -0.15226943788979277 0.052834379396998324 -0.12354120855538919 0.0032328019382565007 -0.23682749611971154 -0.09185285341351412 0.045803618077479014 0.03294503078039962 -0.08859843235025866 -0.16332994207754548 -0.11643985976093117 0.08571799040889579 -0.018861436546447445 -0.039960522162417196 0.2695597185651155 -0.22191733914050796 -0.2152076534151215 0.3364035760637466 -0.0197252277322774 -0.21819931959165345 0.23557657299520732 0.0010679111603684342 0.16938885286058897 0.1215816549397544 0.3545547818621803 0.06935667147560458 -0.1965301844471396 -0.03906875479795747 -0.018036606182960633 -0.023367534712890506 0.05551365738837603 -0.1446865462182149 0.0914948187255361 0.3043895061103889
26kOIQsnayZE5lJ0LGHxqipkWFs1 0.013919861934464072 -0.00522368148617418 0.011152259438718571 0.0031405188559992603 0.007481601431636765 0.016956260928491246 -0.005165065083759365 0.005760238000528055 -0.002269207942126144 0.00591681298058865 0.020648136390023764 0.001869756689168824 -0.0005923031769500237 0.0016749157731075907 0.007772609382181264 -0.002839920402920722 -0.008970224291620504 -0.007653179396499698 -0.003665919679133075 -0.02254919040391312 0.0021918234371666383 0.0008861321470595689 0.021346323863377693 0.007142010147185778 0.0033332346478937907 -0.003364833937803836 -0.0009964080572194929 -0.011210377584948075 -0.011041092021055054 -0.007793196260202487 0.0020178689383316935 -0.00872152719128584 -0.00571249192200094 -0.005062691130263086 0.0032346443340896336 -0.011419763883444223 -0.013675487617388323 -0.0020602444436242516 0.01958396686329282 0.01314749868620565 0.0038762760650303246 0.011840868694892039 -0.009132011624558232 0.003694746779258039 -0.0073601791204607235 0.0004380334697260872 0.006191155565164495 0.017393875039833025 -0.013012532975905025 -0.0026021151483038942
27gXiMkJ5GO1ad4VxSrPB9rTBNl1 -0.06698139151559426 0.17582179325529568 0.030518231910856862 0.17322501879927923 0.08017936360315407 -0.03452880252596582 0.1178307944094544 -0.15412256306260028 -0.08196328831245102 -0.06914902498897377 -0.03851148168206131 0.04427405330410835 -0.1480692717377513 -0.1316613566834982 -0.009681282391601733 -0.0852370205064544 -0.0949896242099949 0.06184473435464852 -0.11635225561818881 0.01032806967351322 -0.16935054275756278 -0.06980445600189741 0.07037316511950667 0.03281293546021933 -0.0634869133378938 -0.08382097037238521 -0.10029337100830922 0.06426935341135921 -0.018376593757903195 -0.048997167730764915 0.17494580407206378 -0.17155085836450382 -0.15099115074332795 0.2598124161040631 -0.016724843235478428 -0.1397755445626672 0.15616152911078107 0.026389084571219877 0.15860637809555514 0.08430636540571436 0.24713236593048632 0.010011221266836986 -0.13649866052269802 -0.05057964200165184 -0.025166037450534563 -0.006093018314472691 0.06799137677233637 -0.13790772652524944 0.0804939903549171 0.22106994162430854
